/*
 * Academic License - for use in teaching, academic research, and meeting
 * course requirements at degree granting institutions only.  Not for
 * government, commercial, or other organizational use.
 * File: callPredict.c
 *
 * MATLAB Coder version            : 24.2
 * C/C++ source code generated on  : 13-Mar-2025 22:28:36
 */

/* Include Files */
#include "callPredict.h"
#include "SoftmaxLayer.h"
#include "conv2dDirectOptimizedColMajor.h"
#include "digitsNetPredict_internal_types.h"
#include "rt_nonfinite.h"
#include <math.h>
#include <string.h>

/* Function Declarations */
static int div_nde_s32_floor(int numerator);

static int div_s32_floor(int numerator, int denominator);

static void macroKernel1(int M, int K, int N, const float *A, int LDA,
                         const float *B, int LDB, float *C, int LDC);

static void matrixMultiply1(int M, int K, int N, int blockSizeM, int blockSizeK,
                            int blockSizeN, const float *A, const float *B,
                            float *C);

static void microKernel11(int K, const float *A, int LDA, const float *B,
                          float *C);

static void microKernel12(int K, const float *A, int LDA, const float *B,
                          float *C);

/* Function Definitions */
/*
 * Arguments    : int numerator
 * Return Type  : int
 */
static int div_nde_s32_floor(int numerator)
{
  int quotient;
  if ((numerator < 0) && (numerator % 7 != 0)) {
    quotient = -1;
  } else {
    quotient = 0;
  }
  quotient += numerator / 7;
  return quotient;
}

/*
 * Arguments    : int numerator
 *                int denominator
 * Return Type  : int
 */
static int div_s32_floor(int numerator, int denominator)
{
  int quotient;
  if (denominator == 0) {
    if (numerator >= 0) {
      quotient = MAX_int32_T;
    } else {
      quotient = MIN_int32_T;
    }
  } else {
    unsigned int absDenominator;
    unsigned int absNumerator;
    unsigned int tempAbsQuotient;
    bool quotientNeedsNegation;
    if (numerator < 0) {
      absNumerator = ~(unsigned int)numerator + 1U;
    } else {
      absNumerator = (unsigned int)numerator;
    }
    if (denominator < 0) {
      absDenominator = ~(unsigned int)denominator + 1U;
    } else {
      absDenominator = (unsigned int)denominator;
    }
    quotientNeedsNegation = ((numerator < 0) != (denominator < 0));
    tempAbsQuotient = absNumerator / absDenominator;
    if (quotientNeedsNegation) {
      absNumerator %= absDenominator;
      if (absNumerator > 0U) {
        tempAbsQuotient++;
      }
      quotient = -(int)tempAbsQuotient;
    } else {
      quotient = (int)tempAbsQuotient;
    }
  }
  return quotient;
}

/*
 * Arguments    : int M
 *                int K
 *                int N
 *                const float *A
 *                int LDA
 *                const float *B
 *                int LDB
 *                float *C
 *                int LDC
 * Return Type  : void
 */
static void macroKernel1(int M, int K, int N, const float *A, int LDA,
                         const float *B, int LDB, float *C, int LDC)
{
  int idxB;
  int j;
  j = 0;
  idxB = 0;
  while (j <= N - 1) {
    int i;
    int idxA;
    int idxC;
    idxC = LDC * j;
    i = 0;
    idxA = 0;
    while (i <= M - 7) {
      microKernel11(K, &A[idxA], LDA, &B[idxB], &C[idxC]);
      idxA += 7;
      idxC += 7;
      i += 7;
    }
    while (i <= M - 1) {
      microKernel12(K, &A[idxA], LDA, &B[idxB], &C[idxC]);
      idxA++;
      idxC++;
      i++;
    }
    idxB += LDB;
    j++;
  }
}

/*
 * Arguments    : int M
 *                int K
 *                int N
 *                int blockSizeM
 *                int blockSizeK
 *                int blockSizeN
 *                const float *A
 *                const float *B
 *                float *C
 * Return Type  : void
 */
static void matrixMultiply1(int M, int K, int N, int blockSizeM, int blockSizeK,
                            int blockSizeN, const float *A, const float *B,
                            float *C)
{
  int b_j1;
  int i0;
  int i0_ub;
  int k0;
  int k0_ub;
  memset(C, 0, (unsigned int)((M * N) << 2));
  if (blockSizeM >= M) {
    blockSizeM = M;
  } else {
    blockSizeM = div_nde_s32_floor(blockSizeM) * 7;
    if (blockSizeM <= 0) {
      blockSizeM = 1;
    }
  }
  if (blockSizeN >= N) {
    blockSizeN = N;
  } else if (blockSizeN <= 0) {
    blockSizeN = 1;
  }
  i0_ub = div_s32_floor(M - 1, blockSizeM) + 1;
  k0_ub = div_s32_floor(K - 1, blockSizeK) + 1;
  for (b_j1 = 0; b_j1 < N; b_j1 += blockSizeN) {
    int N2;
    if (b_j1 > N - blockSizeN) {
      N2 = N - b_j1;
    } else {
      N2 = blockSizeN;
    }
    for (k0 = 1; k0 <= k0_ub; k0++) {
      int K2;
      int k;
      k = (k0 - 1) * blockSizeK;
      if (k > K - blockSizeK) {
        K2 = K - k;
      } else {
        K2 = blockSizeK;
      }
      for (i0 = 1; i0 <= i0_ub; i0++) {
        int b_i;
        int i;
        i = (i0 - 1) * blockSizeM;
        if (i > M - blockSizeM) {
          b_i = M - i;
        } else {
          b_i = blockSizeM;
        }
        macroKernel1(b_i, K2, N2, &A[i + M * k], M, &B[k + K * b_j1], K,
                     &C[i + M * b_j1], M);
      }
    }
  }
}

/*
 * Arguments    : int K
 *                const float *A
 *                int LDA
 *                const float *B
 *                float *C
 * Return Type  : void
 */
static void microKernel11(int K, const float *A, int LDA, const float *B,
                          float *C)
{
  float b_c;
  float c;
  float c_c;
  float d_c;
  float e_c;
  float f_c;
  float g_c;
  int idxA;
  int idxB;
  int k;
  idxA = 0;
  idxB = 0;
  c = C[0];
  b_c = C[1];
  c_c = C[2];
  d_c = C[3];
  e_c = C[4];
  f_c = C[5];
  g_c = C[6];
  for (k = 0; k < K; k++) {
    float b;
    b = B[idxB];
    c += A[idxA] * b;
    b_c += A[idxA + 1] * b;
    c_c += A[idxA + 2] * b;
    d_c += A[idxA + 3] * b;
    e_c += A[idxA + 4] * b;
    f_c += A[idxA + 5] * b;
    g_c += A[idxA + 6] * b;
    idxA += LDA;
    idxB++;
  }
  C[0] = c;
  C[1] = b_c;
  C[2] = c_c;
  C[3] = d_c;
  C[4] = e_c;
  C[5] = f_c;
  C[6] = g_c;
}

/*
 * Arguments    : int K
 *                const float *A
 *                int LDA
 *                const float *B
 *                float *C
 * Return Type  : void
 */
static void microKernel12(int K, const float *A, int LDA, const float *B,
                          float *C)
{
  float c;
  int idxA;
  int idxB;
  int k;
  idxA = 0;
  idxB = 0;
  c = C[0];
  for (k = 0; k < K; k++) {
    c += A[idxA] * B[idxB];
    idxA += LDA;
    idxB++;
  }
  C[0] = c;
}

/*
 * Arguments    : c_coder_internal_ctarget_DeepLe *obj
 *                const float inputsT_0_f1[784]
 *                float outputs_0_f1[10]
 * Return Type  : void
 */
void DeepLearningNetwork_callPredict(c_coder_internal_ctarget_DeepLe *obj,
                                     const float inputsT_0_f1[784],
                                     float outputs_0_f1[10])
{
  static const float t0_Weights[5880] = {
      -0.0141585972F,   -0.0661425218F,   0.020035876F,     -0.0530837737F,
      0.0142497597F,    0.0830685496F,    0.0659431517F,    -0.0832514912F,
      0.0550897568F,    0.0829532668F,    -0.00425191689F,  0.0600500926F,
      0.0821696669F,    0.0308362674F,    -0.0797379315F,   -0.0689156279F,
      0.0466544107F,    0.0337211117F,    -0.0346832946F,   -0.09044227F,
      0.101566896F,     0.0125770867F,    -0.0321631283F,   0.0776235834F,
      -0.0116130887F,   0.00196335511F,   -0.0566688254F,   0.00465052715F,
      -0.0658045486F,   -0.0591215715F,   -0.0226285737F,   0.000793224841F,
      0.0771153271F,    0.00756085571F,   0.0903919116F,    -0.0130976522F,
      -0.0881621614F,   -0.0232795347F,   0.0146401823F,    -0.0251174569F,
      -0.0519443601F,   -0.0974883139F,   0.0743463337F,    0.0921618342F,
      0.0224661697F,    0.0895961449F,    0.0376855507F,    -0.0364877172F,
      0.0308997929F,    -0.0736477822F,   0.0816457793F,    -0.0347003117F,
      -0.06392F,        0.0748261586F,    0.00782722048F,   -0.0603829101F,
      -0.0966976136F,   0.0875463188F,    0.0586138926F,    -0.0868154466F,
      0.0340338908F,    0.059574388F,     -0.0190790817F,   -0.0671642646F,
      0.00631909352F,   0.0510320403F,    -0.0575612262F,   -0.0149454828F,
      -0.0939556F,      -0.0903393179F,   0.0444719605F,    -0.0848188624F,
      -0.0563187823F,   0.0889163613F,    -0.0943817049F,   -0.00602481328F,
      -0.0290887803F,   -0.0725104883F,   -0.095959492F,    -0.0805645064F,
      0.0634850487F,    -0.0658153221F,   0.0203681774F,    -0.0662794635F,
      -0.0702147558F,   -0.0474443734F,   -0.0739962235F,   -0.0254925266F,
      -0.0725857317F,   -0.0192886591F,   0.121102922F,     -0.162611723F,
      0.0166453235F,    -0.0513551831F,   -0.0694491193F,   -0.0128600337F,
      0.0283505619F,    -0.0427165739F,   0.0698609576F,    -0.0498839281F,
      0.0320135169F,    0.00799162406F,   -0.0381701179F,   -0.126024753F,
      -0.0431051478F,   -0.0775717944F,   -0.00191896607F,  -0.0643990934F,
      -0.0946459249F,   -0.0725917518F,   0.00509725697F,   -0.0151376417F,
      -0.0510547385F,   0.0408242531F,    -0.034199819F,    -0.0697475225F,
      0.0435192548F,    0.0345159322F,    -0.00740404567F,  -0.0199046768F,
      -0.0543275066F,   0.000581846107F,  0.0816144869F,    0.0607974678F,
      -0.00855809357F,  -0.0490434952F,   0.0427363142F,    -0.0858418643F,
      0.0471940227F,    -0.0248179492F,   -0.0386010818F,   -0.0078819273F,
      -0.069767572F,    0.05084344F,      -0.0206687432F,   -0.0928753093F,
      -0.0169773344F,   0.050262358F,     0.0902548507F,    0.0806249753F,
      0.000683025806F,  -0.0545747653F,   0.0612990595F,    -0.10518717F,
      -0.00275974395F,  -0.0997125953F,   -0.0208749771F,   -0.0142483516F,
      0.0312949829F,    -0.0996906236F,   -0.088250123F,    0.175641283F,
      -0.0260968637F,   -0.0665814206F,   -0.11755567F,     -0.0500685647F,
      0.0238155611F,    0.0446762182F,    -0.0860855654F,   -0.0731289387F,
      0.0540094376F,    0.115537368F,     -0.044263F,       -0.0829874724F,
      -0.0196122229F,   0.0263568796F,    0.0895787328F,    0.0254779272F,
      -0.0410414487F,   -0.0200461913F,   0.0616205744F,    0.0821672156F,
      -0.0711153522F,   -0.184880048F,    -0.0560215414F,   0.0474029481F,
      0.13544862F,      0.0188256539F,    -0.0758492723F,   0.0652134866F,
      0.0165689569F,    0.071043767F,     -0.0924463347F,   -0.0598557F,
      0.0389381275F,    -0.0595487356F,   0.0291569F,       0.00909860432F,
      -0.121988826F,    -0.0314615779F,   -0.0252509248F,   -0.00666268775F,
      0.0282152593F,    -0.022781346F,    0.060903322F,     0.0152897686F,
      -0.0736357868F,   0.000726072467F,  -0.00458707288F,  0.0714412332F,
      0.0181793533F,    -0.052360598F,    -0.0466738418F,   0.0856297F,
      0.0407503285F,    -0.0759484321F,   -0.0205219351F,   0.0540894717F,
      0.0321934149F,    0.0416344404F,    0.0194784924F,    0.00102945301F,
      0.00093830371F,   -0.0220446717F,   -0.0507802479F,   -0.0729699358F,
      0.0503675118F,    -0.02033698F,     -0.0348157957F,   0.0404954851F,
      -0.0434488393F,   0.13057588F,      0.0316467099F,    -0.0462612845F,
      -0.0124707697F,   -0.165053681F,    -0.0251991563F,   0.0377517119F,
      -0.0524926372F,   -0.00756355654F,  0.0192139521F,    0.208100513F,
      0.0127282189F,    -0.103157371F,    -0.00730258692F,  -0.017540032F,
      0.00546953036F,   0.00423108507F,   -0.208631873F,    -0.0234547928F,
      0.000757772883F,  0.260640442F,     -0.0789368823F,   -0.128744081F,
      -0.0813994184F,   -0.00780502521F,  0.0214289185F,    0.128556117F,
      -0.0514665246F,   0.100688696F,     0.0478779972F,    0.0476085246F,
      0.0489079691F,    -0.103005596F,    0.133440882F,     -0.102078237F,
      -0.0111499568F,   0.106829174F,     0.00646937359F,   -0.040967878F,
      -0.0920566469F,   0.0783946514F,    0.0422970727F,    0.0169979613F,
      -0.00660089636F,  -0.0150565291F,   0.0388134681F,    -0.0400857702F,
      0.0257786028F,    -0.0618269F,      -0.0944307595F,   0.0687701628F,
      -0.0175175946F,   0.0428651F,       0.0720574632F,    7.58126553E-5F,
      0.0581089556F,    -0.0443771183F,   -0.0475664772F,   0.0907894745F,
      -0.0756741241F,   -0.0382708684F,   -0.0365443416F,   -0.108455017F,
      0.00904220808F,   -0.0107524432F,   0.0417195223F,    0.0605783872F,
      0.0669068471F,    0.0896418542F,    0.0415069386F,    -0.104545459F,
      0.127405614F,     -0.0156125342F,   0.0575313568F,    -0.202171147F,
      -0.0465980768F,   0.117223755F,     0.00338954153F,   0.14820157F,
      0.144928768F,     -0.122906581F,    0.0811490193F,    0.00336249638F,
      -0.0389188603F,   -0.0625252053F,   -0.0620985627F,   -0.0799062476F,
      -0.078263104F,    -0.000158080016F, -0.0773848F,      -0.143611521F,
      -0.122583315F,    0.0662245154F,    0.0364712626F,    0.0844666436F,
      0.0667754114F,    -0.0455987044F,   -0.0676769F,      -0.0438970141F,
      0.00605963543F,   -0.0645426959F,   -0.154047042F,    -0.0115078874F,
      0.086926043F,     0.085216172F,     0.036115732F,     0.0863705F,
      -0.059782166F,    0.0683036447F,    0.0283411406F,    0.0531580858F,
      0.0999140441F,    0.0321966261F,    0.086261F,        0.0394971669F,
      0.0561836F,       0.0452182628F,    -0.0176106747F,   -0.0499998741F,
      0.0205247588F,    0.0706909299F,    -0.0611229353F,   -0.0598857068F,
      0.0690931901F,    -0.0589067303F,   -0.107836954F,    -0.0377351269F,
      0.0131390421F,    -0.0441140682F,   -0.0376928337F,   0.0857144296F,
      -0.0224312078F,   0.0920403749F,    -0.07293161F,     -0.000279785512F,
      -0.0247323941F,   0.0131131969F,    -0.0110908439F,   -0.0253100675F,
      0.0981640443F,    0.0416445062F,    0.0747042522F,    0.062816225F,
      0.0606920756F,    0.011786405F,     -0.0308924485F,   0.0445031598F,
      0.0155844102F,    0.0452655479F,    0.121319138F,     -0.060636878F,
      -0.0375785343F,   -0.0337319896F,   -0.0498090684F,   0.0509739779F,
      -0.0829641372F,   -0.0726389587F,   -0.0445769913F,   0.10429208F,
      0.00530187506F,   -0.129985616F,    -0.031576369F,    0.101262532F,
      -0.0712656453F,   0.0352252759F,    0.0166285578F,    -0.0545400642F,
      -0.0681875646F,   -0.00783510599F,  0.0593164973F,    -0.0342888683F,
      -0.0828678086F,   -0.00512113143F,  0.0788160115F,    -0.0450376458F,
      0.00977425277F,   -0.0964190066F,   0.0934895501F,    0.00275828154F,
      -0.0491248444F,   -0.0385141522F,   0.0618200749F,    0.0855137333F,
      -0.0531121828F,   0.0952076092F,    -0.0515625F,      -0.0726862326F,
      -0.0324385427F,   -0.0706241131F,   0.0794148445F,    -0.00351983286F,
      0.069818832F,     -0.0232098233F,   0.0956231803F,    -0.061920546F,
      0.0424645953F,    0.0223148987F,    0.0962808654F,    0.023801649F,
      -0.000846197887F, 0.0875666F,       -0.002169176F,    -0.0675682575F,
      0.0252499692F,    0.0116965408F,    0.0346695185F,    -0.0575166456F,
      -0.0909125656F,   -0.047238782F,    -4.60890697E-5F,  -0.074954845F,
      -0.0347372591F,   -0.0664349273F,   0.0101629337F,    -0.0768349841F,
      -0.0216265023F,   0.0872547105F,    -0.0142935347F,   -0.0369066149F,
      0.0373305082F,    -0.0147464117F,   -0.0584595837F,   -0.0779180527F,
      0.0561576597F,    -0.0497722961F,   -0.0343290083F,   -0.0168458838F,
      0.0531809F,       -0.0887520388F,   0.0763435662F,    0.00764020672F,
      0.0413043909F,    0.0483438931F,    -0.0864367634F,   -0.0307475831F,
      -0.0637249276F,   0.0687131584F,    0.00572213531F,   -0.055976361F,
      -0.0127092982F,   -0.0102837915F,   0.0111695398F,    0.0707878545F,
      0.057003811F,     -0.0071222093F,   -0.0663832426F,   -0.0207165796F,
      0.0754398331F,    0.0503504872F,    -0.00752361491F,  0.0796777308F,
      0.0102536008F,    0.0438545272F,    -0.0352454446F,   -0.0441251546F,
      0.0364433117F,    0.0234311875F,    0.0636146218F,    -0.0444099531F,
      0.0656990707F,    -0.0173645653F,   0.0966499895F,    0.0745383129F,
      0.0280598961F,    0.0855009F,       0.0248107985F,    0.0711601824F,
      -0.0170901157F,   0.0862730071F,    -0.01315415F,     -0.053624019F,
      0.0565974675F,    -0.00635816483F,  -0.0218759347F,   0.0198061895F,
      -0.00432633935F,  0.0577725694F,    0.08696F,         0.0781433508F,
      0.00913484488F,   0.0509552695F,    0.0152743971F,    0.0544358194F,
      -0.0286818948F,   -0.0349927805F,   -0.0271174777F,   -0.0963490382F,
      0.0144514162F,    -0.00568576111F,  -0.100988403F,    0.0330304764F,
      0.0295261461F,    0.00341557059F,   0.00621819124F,   -0.0181014836F,
      0.0307398513F,    -0.071019344F,    0.0344962925F,    0.00785205048F,
      0.0387330912F,    -0.0215210356F,   0.0161686912F,    0.0616101064F,
      -0.0580915213F,   0.0307020359F,    0.0854992494F,    0.0598344356F,
      0.0816403F,       -0.0854822919F,   -0.0374537706F,   0.00531267095F,
      0.0149589563F,    -0.0159961265F,   0.0417094678F,    -0.0344959497F,
      0.0783174857F,    -0.0132067241F,   -0.0376063697F,   -0.059072841F,
      0.0384247899F,    0.0993906185F,    -0.0458378829F,   0.0311332848F,
      -0.0376172587F,   -0.0595432073F,   0.0266147908F,    -0.0678514F,
      -0.0604434945F,   -0.0168364774F,   -0.0891462341F,   -0.0955762714F,
      -0.0201812983F,   0.091263026F,     0.083700411F,     0.0570210926F,
      -0.0885271952F,   0.00295115635F,   0.0925436765F,    0.0846571922F,
      -0.00179166591F,  -0.00776566518F,  -0.039596267F,    -0.0163177066F,
      0.0319345109F,    -0.0190812796F,   -0.0237108674F,   0.00129549F,
      0.0583794303F,    -0.0552159362F,   0.105343379F,     0.120758288F,
      0.0552003272F,    0.059850134F,     0.0676787421F,    -0.0860345662F,
      -0.00786257442F,  -0.0878734961F,   0.061614342F,     -0.111842893F,
      0.073947221F,     0.131336495F,     0.0707917288F,    0.0141326226F,
      -0.0793861076F,   0.0696729496F,    -0.0646984056F,   0.0553521961F,
      -0.0028527223F,   0.0876643956F,    -0.0591883957F,   0.101627529F,
      -0.0900137946F,   0.00482782396F,   0.0901112631F,    -0.0339435115F,
      -0.0247194357F,   -0.0852295384F,   -0.0687231F,      -0.0582159646F,
      -0.0756773F,      0.0518535636F,    0.0976540595F,    0.0366134271F,
      -0.103283346F,    -0.0787977651F,   0.00060360611F,   0.0260012243F,
      -0.0655652657F,   -0.0295051783F,   -0.0967164263F,   0.0592569597F,
      0.0282313749F,    0.0724483728F,    -0.0314710587F,   -0.00127857027F,
      0.0103249643F,    0.0612712391F,    0.0218331292F,    0.0670276135F,
      0.0438620187F,    0.0563494042F,    0.0901141316F,    -0.0581610873F,
      0.0183571037F,    0.0361135304F,    -0.092645593F,    0.02485664F,
      -0.0173207894F,   0.0404943153F,    0.0894889534F,    -0.0501208864F,
      -0.0983439907F,   0.0518976F,       0.00282566389F,   -0.0387129299F,
      -0.0905128F,      0.0173915196F,    -0.0699268058F,   -0.0264968537F,
      0.00396698527F,   -0.0362739563F,   -0.0853112042F,   0.0649894103F,
      0.0249969419F,    0.0630785152F,    0.0367280766F,    -0.101686127F,
      0.0361F,          -0.115445711F,    0.0225727484F,    -0.0274958648F,
      0.0761785358F,    -0.0654469207F,   0.0516642593F,    -0.0661907941F,
      -0.0633829F,      -0.0277495924F,   -0.0494903699F,   0.0571882911F,
      -0.0863058418F,   -0.0903252661F,   0.00336242653F,   0.06739977F,
      -0.0943643823F,   0.0271012429F,    0.0689324141F,    -0.0149935428F,
      0.0148427552F,    0.0331456773F,    0.0271279477F,    -0.0272510555F,
      -0.0989984274F,   0.0726210698F,    0.059258081F,     0.0457875617F,
      -0.0577674359F,   0.0320136733F,    0.0735707581F,    -0.0770212561F,
      0.00695348717F,   -0.0277008F,      -0.0412300415F,   0.0734491125F,
      0.0492165573F,    -0.0395493172F,   0.0498102605F,    0.0268739276F,
      -0.032177832F,    0.0871439725F,    -0.0696394667F,   -0.0120660039F,
      0.0552509427F,    -0.0231589302F,   -0.0507161245F,   0.0153732756F,
      0.00397146214F,   0.053807985F,     -0.0186881181F,   0.0267008133F,
      0.00811602F,      -0.0181908403F,   0.163533986F,     -0.0265174601F,
      0.0125169987F,    -0.0218001325F,   -0.202699065F,    0.0358749442F,
      -0.0544366501F,   0.0894845575F,    -0.0253208429F,   0.0777454F,
      0.0729350299F,    0.0867615417F,    -0.100788623F,    -0.0971526727F,
      0.0527954064F,    -0.0836974382F,   0.073906377F,     -0.0601345114F,
      -0.0405413434F,   0.0847986862F,    -0.0450032614F,   0.0391229205F,
      0.0444942378F,    0.033203207F,     -0.0602231734F,   0.0602706373F,
      -0.0169690885F,   -0.0834588185F,   -0.052401267F,    0.0039674649F,
      0.0315951332F,    0.0620421581F,    -0.00992531143F,  -0.0292496346F,
      0.0747524425F,    0.0320480354F,    0.0651408136F,    -0.0971083418F,
      -0.00690618251F,  -0.0266461484F,   -0.0295540281F,   -0.0698311552F,
      0.0486734472F,    0.00869072787F,   -0.0740986913F,   0.0753450692F,
      -0.000868019182F, -0.0964090228F,   -0.0932601616F,   -0.0610120445F,
      -0.025617728F,    -0.0406251103F,   0.0384344794F,    -0.0256015398F,
      -0.0846602544F,   0.0683754385F,    0.00841341354F,   0.0523252226F,
      0.00159789203F,   0.0808022097F,    -0.105316959F,    -0.0982127F,
      -0.00218962901F,  -0.0446349122F,   0.0725299F,       -0.0572476462F,
      -0.0562614314F,   0.0446374975F,    -0.0853691101F,   0.0579844266F,
      0.0592593439F,    0.0991658345F,    -0.141938835F,    -0.00499486085F,
      -0.0323828273F,   -0.0294961073F,   0.0386905F,       -0.147035792F,
      -0.00386378099F,  0.00831448752F,   -0.0142598413F,   -0.00541132037F,
      -0.0468219407F,   -0.165180892F,    0.0757655799F,    0.0553711839F,
      0.0205725767F,    -0.0196257196F,   -0.0627883077F,   -0.0718615428F,
      0.0615217872F,    0.0219591372F,    -0.0681726784F,   0.146218434F,
      -0.0159110166F,   -0.0363532193F,   0.0499142371F,    -0.00258342829F,
      0.0241793F,       -0.0393783376F,   -0.044276163F,    0.0791308F,
      -0.0862068757F,   -0.0543216839F,   0.157275841F,     0.0770574361F,
      -0.0502338335F,   -0.0532782897F,   -0.0374358334F,   0.0176708456F,
      -0.0238701347F,   0.0518479869F,    -0.0530082472F,   -0.0631586686F,
      0.00301760738F,   -0.0134496791F,   -0.00267143128F,  0.0808243379F,
      0.0466820933F,    0.116858557F,     -0.0603268668F,   -0.0477126054F,
      -0.0483478196F,   0.0104151908F,    -0.0853427F,      -0.0414473638F,
      -0.0643525869F,   0.0753410384F,    0.111732826F,     0.0948031694F,
      -0.0777801F,      -0.0390586704F,   -0.0340331383F,   -0.042326875F,
      0.0295777097F,    -0.0823594257F,   0.0914361F,       0.00926315412F,
      0.0845605358F,    -0.0757607594F,   -0.016281696F,    -0.0281945877F,
      -0.0175167806F,   -0.0986159518F,   0.0284553673F,    -0.041841805F,
      0.0842465162F,    0.0250476748F,    0.0718733147F,    0.0632875338F,
      0.117482901F,     -0.137288868F,    -0.125935346F,    -0.0232993644F,
      -0.112141602F,    -0.0178431701F,   0.0234224796F,    0.0678021386F,
      -0.0148631334F,   0.0694473535F,    0.0155764064F,    -0.0209924169F,
      -0.0894702226F,   0.0173527636F,    0.137830883F,     0.0459123403F,
      0.0730792359F,    0.0313297361F,    -0.096049048F,    -0.0279169176F,
      -0.0346171F,      0.0568110533F,    0.0680061057F,    -0.0872395F,
      -0.0916774F,      -0.00300599425F,  -0.0987216458F,   -0.0339227132F,
      -0.0262419954F,   0.000584907131F,  -0.0614422671F,   -0.0752412677F,
      0.0272534434F,    -0.0441195257F,   -0.0259901211F,   -0.0361882895F,
      -0.0893364698F,   0.0981027633F,    0.00440992881F,   0.0399352275F,
      -0.0232000016F,   0.0695026591F,    -0.0565563217F,   0.0585917234F,
      -0.0898986682F,   -0.011082083F,    0.0914515108F,    0.0167518817F,
      0.0427133143F,    -0.0490175337F,   0.059024889F,     0.0932188556F,
      -0.0918059349F,   0.0269916281F,    0.0244813059F,    -0.0213006772F,
      0.0280337743F,    -0.0192737412F,   0.00963407F,      -0.0219497811F,
      0.0106314542F,    -0.0464811139F,   0.0847092F,       -0.0431281701F,
      0.0245162062F,    0.0972472206F,    0.0945203602F,    0.0151750855F,
      -0.0024751164F,   -0.0927614123F,   0.0106289005F,    0.0428415127F,
      0.00245653116F,   0.000969309476F,  0.0439908914F,    -0.0464155562F,
      0.0216191299F,    0.0427213758F,    0.0425955F,       0.13515617F,
      0.0456920266F,    0.0569068119F,    0.0621614531F,    -0.0659985617F,
      -0.104852699F,    0.0264531951F,    0.0658870786F,    -0.0374636464F,
      0.0758050531F,    0.0971630514F,    -0.074413389F,    0.0619664155F,
      -0.0990364403F,   -0.0546215735F,   0.0310704391F,    0.00263163F,
      0.0729964748F,    -0.0304225106F,   0.0498923138F,    -0.0622212775F,
      -0.0371731594F,   0.0621468239F,    -0.08958444F,     0.0533233136F,
      0.00480554579F,   0.11331109F,      -0.0946868509F,   0.0106596481F,
      0.0270902943F,    0.0956785381F,    -0.0761790872F,   0.0694209F,
      0.0680696219F,    0.0154951569F,    -0.0275590178F,   0.093222104F,
      -0.0577751361F,   0.126966506F,     -0.0727175102F,   -0.0244377144F,
      -0.0937887058F,   0.0381314866F,    -0.101606689F,    -0.0279752612F,
      0.0188727025F,    0.0516298413F,    0.0760549828F,    0.0113371359F,
      0.0668970644F,    -0.024697639F,    -0.0646364242F,   -0.0236183628F,
      -0.0563961267F,   -0.00305336388F,  -0.113518775F,    -0.00425036112F,
      -5.61571433E-5F,  0.0947512239F,    -0.112638377F,    0.0187633391F,
      0.0102442233F,    0.108734787F,     0.035876397F,     -0.026760377F,
      -0.0285314713F,   0.189258933F,     0.0760544166F,    -0.0883532241F,
      0.00824656151F,   -0.0261544F,      0.0455925316F,    -0.00128412375F,
      0.235790327F,     0.0501508489F,    0.0125449579F,    0.0361607783F,
      -0.11431475F,     -0.212994099F,    -0.178225085F,    0.0284769498F,
      0.162535518F,     0.0680125F,       0.0115750832F,    -0.0286052339F,
      -0.0574029498F,   -0.0473590754F,   -0.140576139F,    -0.105750293F,
      -0.178390175F,    0.131777316F,     0.152457535F,     0.222412899F,
      -0.0913056061F,   0.159150049F,     -0.28340885F,     -0.131305978F,
      -0.120069191F,    0.0679296702F,    -0.138253048F,    0.0052309176F,
      0.0260525923F,    0.11031694F,      -0.0160495806F,   0.0819256F,
      -0.068414F,       -0.1432129F,      -0.14504452F,     -0.0643051416F,
      -0.0456082113F,   -0.0644822419F,   -0.0531630144F,   -0.0850978643F,
      0.0120659927F,    -0.0402764082F,   -0.0992562696F,   0.090001449F,
      0.0544603318F,    0.0266062655F,    -0.11740388F,     -0.0581062846F,
      0.0398345552F,    0.189423516F,     -0.0580993295F,   -0.0096622631F,
      -0.040273346F,    0.0838542283F,    0.0500417948F,    0.0361891426F,
      -0.120273717F,    -0.00655710651F,  0.049057629F,     0.0610728674F,
      -0.0605356917F,   0.107088745F,     -0.113072291F,    0.0895305499F,
      -0.0950604305F,   -0.127424702F,    -0.103239372F,    -0.0787743181F,
      0.013066438F,     0.0664362311F,    0.0414381325F,    0.0113921734F,
      0.00622332F,      -0.0772451907F,   -0.118969366F,    -0.00265272218F,
      -0.258655578F,    0.117472611F,     0.197443843F,     0.177138031F,
      0.0392822623F,    -0.0695452541F,   -0.207891494F,    0.0327986442F,
      0.0262297224F,    -0.00569258956F,  -0.111836888F,    0.228230685F,
      0.0111579765F,    0.253256291F,     -0.0622069314F,   0.107776195F,
      -0.195819199F,    -0.027160285F,    -0.217220604F,    -0.0379477218F,
      -0.0733922645F,   0.222625449F,     0.0950245708F,    0.0588851683F,
      -0.0680960044F,   0.132139847F,     -0.0654914528F,   -0.140154704F,
      -0.118242703F,    -0.0221591201F,   0.0115295751F,    0.0302807745F,
      -0.0151462695F,   -0.0950115919F,   0.0915050432F,    -0.0933375F,
      -0.0488166027F,   0.0780793056F,    -0.0207483266F,   0.0391708128F,
      -0.0920129046F,   -0.101108804F,    -0.0260684472F,   0.114365801F,
      -0.0970300362F,   0.0904005542F,    -0.100892462F,    0.0799608603F,
      0.00596791646F,   0.00219383F,      -0.0479913056F,   0.0265602637F,
      -0.0911775455F,   -0.00869482942F,  -0.150358424F,    0.17045033F,
      -0.252406955F,    0.0710452646F,    0.0187709183F,    -0.0185884051F,
      0.0472487696F,    0.116252989F,     -0.0416777804F,   0.0551312193F,
      0.0765321329F,    -0.0724436417F,   -0.0553161316F,   -0.0361565761F,
      -0.134338021F,    0.195854172F,     -0.0514525846F,   0.105929472F,
      -0.0346192159F,   0.00204796274F,   0.0483909F,       0.0970854908F,
      0.0677140057F,    -0.167791829F,    0.0452813916F,    0.118013419F,
      0.0674245283F,    0.0951624364F,    0.00508516934F,   -0.0273587909F,
      0.0499742329F,    0.0950250253F,    0.112356611F,     -0.0978298187F,
      -0.112499356F,    -0.100112125F,    0.127274603F,     -0.130792305F,
      0.145125344F,     0.0391536914F,    -0.0638152659F,   0.106726848F,
      -0.0677316859F,   -0.106518321F,    -0.0609410517F,   -0.0315894224F,
      0.10027197F,      -0.0781766698F,   0.0654741526F,    -0.0608300716F,
      -0.0244554F,      0.070753634F,     -0.0200449452F,   0.0973265916F,
      0.058721792F,     0.0503225476F,    0.00493789185F,   -0.113198906F,
      -0.0956600681F,   0.0793663F,       -0.119408652F,    0.0188088212F,
      -0.10075254F,     0.0519082472F,    0.0163023658F,    -0.0935554951F,
      -0.073567383F,    -0.0109073883F,   -0.0518732034F,   0.00820156559F,
      -0.201875895F,    0.0802021399F,    0.100455739F,     0.286233068F,
      -0.113699302F,    -0.112890817F,    0.125244424F,     0.0759245604F,
      0.00309744314F,   -0.104257673F,    -0.0172980987F,   0.0167866219F,
      -0.165628105F,    0.176403031F,     0.0141093787F,    0.131992102F,
      0.0321170948F,    -0.0058708475F,   0.00552027F,      -0.0584974922F,
      -0.110803977F,    0.0376572944F,    -0.0294360071F,   -0.0488325395F,
      -0.0539666452F,   -0.0322765335F,   0.111165278F,     0.10908509F,
      0.0804467127F,    -0.0992644131F,   -0.0374718122F,   -0.0305275097F,
      0.0512201041F,    -0.045249451F,    -0.00182578806F,  0.061257F,
      0.0635014847F,    0.0353085436F,    -0.0289165787F,   -0.0988296643F,
      0.0303027537F,    -0.0376984F,      -0.0743980482F,   0.0731976405F,
      -0.10991589F,     -0.0686727837F,   0.0399495251F,    -0.0200076252F,
      0.0574535169F,    -0.00513283303F,  0.0172025729F,    -0.0591106974F,
      -0.0109287482F,   0.0318072774F,    0.0612923838F,    0.0390801169F,
      -0.094573006F,    -0.0617978573F,   -0.0993113F,      -0.0703414902F,
      0.0613965F,       -0.0232875161F,   0.0219504237F,    0.0270268954F,
      0.0292606261F,    -0.0120555852F,   0.107146651F,     -0.00546167558F,
      -0.101825058F,    -0.0378112905F,   -0.113041796F,    0.109268717F,
      0.0374489799F,    0.0759335384F,    -0.17596589F,     0.00561464904F,
      -0.13795568F,     -0.131080076F,    -0.0626627F,      -0.113823779F,
      -0.0119688855F,   0.161750808F,     0.00671581086F,   0.224264622F,
      -0.0127552748F,   -0.0138169248F,   -0.00357702468F,  0.017376164F,
      -0.0088372333F,   0.0782654434F,    0.00735240569F,   0.112527788F,
      -0.0666659772F,   0.106630623F,     0.0298812687F,    -0.0855993927F,
      0.0242735501F,    -0.0153812096F,   0.019432446F,     -0.0259923246F,
      -0.136173651F,    0.0280270111F,    0.00895622F,      -0.0801967829F,
      -0.0678503513F,   0.0191616621F,    0.0754811615F,    -0.0123453382F,
      0.0154559361F,    -0.0207749866F,   0.0299851447F,    -0.00395863038F,
      0.0522960573F,    0.0982052833F,    -0.018308524F,    0.0552147068F,
      0.0481391214F,    -0.0441027693F,   -0.0881975815F,   -0.0946475267F,
      -0.0370365977F,   -0.0290958881F,   -0.0821423307F,   -0.0901207F,
      -0.0917303562F,   0.00914244819F,   -0.0389903076F,   0.0370992534F,
      0.0146738933F,    0.08293394F,      0.0458482578F,    0.0135303419F,
      0.0147775486F,    -0.0013994691F,   -0.0174103957F,   0.028701188F,
      -0.0733639449F,   -0.0449321456F,   0.0687785521F,    0.0722748786F,
      -0.0692689568F,   -0.0725364F,      0.0280296523F,    0.0729429051F,
      -0.0584157482F,   0.071840845F,     0.0316431187F,    -0.0114293993F,
      -0.0730936304F,   0.0212242231F,    -0.00188845186F,  0.117346644F,
      0.0357079655F,    -0.0532598123F,   -0.0256791711F,   -0.082673721F,
      -0.00267994683F,  -0.101022616F,    0.0717980862F,    -0.0151797747F,
      0.0443923064F,    0.13273485F,      0.0348904803F,    0.00184810546F,
      -0.0154298972F,   -0.0478992201F,   0.0316708274F,    -0.0657336041F,
      0.0192536898F,    0.0129229203F,    -0.0171990562F,   0.105200835F,
      0.0100524472F,    -0.0134044047F,   -0.071659036F,    -0.0269945897F,
      -0.0218787473F,   0.0144983297F,    0.0771938413F,    0.011217528F,
      -0.090717338F,    0.0883122F,       -0.0527386069F,   -0.0728154629F,
      -0.0715667456F,   -0.0317862593F,   -0.0313739665F,   0.033406131F,
      0.0569527559F,    0.00134754786F,   0.0648642927F,    -0.0855480656F,
      0.0319354534F,    -0.0353734046F,   0.0351592191F,    0.0608632118F,
      0.0478725433F,    -0.0321224F,      0.0252848901F,    0.0563390329F,
      0.0186787024F,    -0.0738516375F,   0.0639209226F,    0.0352591798F,
      0.00193879218F,   -0.050651934F,    -0.0287458412F,   0.0203948263F,
      -0.0481673591F,   -0.00452056061F,  -0.0533979535F,   0.0308390241F,
      -0.0837850869F,   -0.0891705528F,   0.0268622953F,    0.0285730064F,
      0.00158413837F,   0.0678426176F,    0.0292668212F,    -0.0718479678F,
      0.0761769563F,    0.0392887443F,    0.0385989062F,    0.0770877227F,
      -0.0352394208F,   -0.0645074174F,   -0.002739958F,    0.0987415388F,
      0.0895331278F,    -0.017610183F,    -0.03887159F,     0.00574480556F,
      0.042258054F,     -0.0678228214F,   0.0755708218F,    0.0540561378F,
      -0.0438674614F,   0.00582992146F,   -0.0138493292F,   -0.0365432613F,
      0.0640440732F,    -0.0957779288F,   0.0922910199F,    -0.0356117971F,
      -0.109153174F,    0.100110359F,     -0.112805493F,    -0.0552207232F,
      -0.0702818483F,   -0.0576358214F,   0.0673397332F,    0.00977681577F,
      -0.0405665413F,   -0.0450137444F,   -0.0292940345F,   -0.0156083219F,
      0.0343033522F,    -0.0724615529F,   -0.0276674312F,   0.0510087833F,
      0.102048486F,     -0.0136636598F,   0.0692131817F,    0.0721315593F,
      -0.0687721819F,   -0.0958123F,      0.00235073059F,   0.0156081114F,
      0.00955891702F,   0.0573496409F,    -0.0528823771F,   0.0616344921F,
      0.000223639348F,  0.0420464501F,    -0.0156749561F,   0.0492641F,
      -0.0695154816F,   -0.077614665F,    0.0432471558F,    -0.0460235365F,
      0.029163735F,     0.0545754023F,    0.00948462542F,   0.016468199F,
      0.00186677021F,   -0.0885989293F,   -0.0149559546F,   -0.0557379164F,
      -0.0897955F,      -0.0956443548F,   -0.0563518107F,   0.00533850677F,
      0.0258019492F,    -0.0935294926F,   -0.0385349356F,   0.146750197F,
      -0.00620555505F,  0.0116157606F,    0.0479835495F,    -0.138800874F,
      -0.027784897F,    -0.0162168927F,   0.00423234841F,   -0.0136213312F,
      -0.0108685149F,   0.098014839F,     0.0206086412F,    -0.0670879111F,
      -0.0741948113F,   -0.107170507F,    0.163204119F,     -0.0343974456F,
      0.11553818F,      -0.0315885469F,   0.108694278F,     -0.12964654F,
      0.057623446F,     -0.0864825174F,   0.124561541F,     -0.032173343F,
      -0.0108554689F,   -0.0390132815F,   0.0656233579F,    0.0518701486F,
      0.0795574412F,    -0.00719813164F,  -0.0401636511F,   -0.0148571068F,
      0.0351307914F,    -0.0466451682F,   -0.0585108213F,   0.0182075109F,
      -0.0198875F,      0.0524690934F,    0.0524093285F,    -0.00792729389F,
      0.00114354817F,   0.0326069891F,    -0.0855691954F,   -0.0905488506F,
      0.013019762F,     -0.0310093127F,   0.0895433F,       -0.0771562532F,
      0.07484667F,      -0.0465945F,      0.028832227F,     0.0117629431F,
      -0.136316195F,    0.0371586159F,    -0.108732089F,    0.152603745F,
      -0.0355155F,      0.0278128069F,    0.0499924868F,    -0.0369278F,
      0.0598959513F,    -0.171374798F,    -0.0171367489F,   0.0241028778F,
      -0.151335061F,    0.110368453F,     -0.130073905F,    -0.0449627899F,
      0.216374323F,     0.0981025F,       -0.0731630176F,   -0.00542745786F,
      0.0655546933F,    0.156906813F,     -0.0879268572F,   0.0117105143F,
      -0.103058852F,    -0.0161064379F,   0.0824870467F,    0.00657710433F,
      -0.0178137049F,   -0.0154466F,      0.0221199598F,    0.134448037F,
      0.0260825604F,    -0.0407115258F,   0.0299915355F,    -0.12611267F,
      0.115135647F,     -0.120262638F,    -0.103058837F,    -0.116698936F,
      0.0475428849F,    -0.00321524404F,  0.140363902F,     -0.0368133336F,
      0.0644861087F,    -0.0340898968F,   0.103824F,        0.0342266224F,
      0.050070487F,     -0.094416365F,    0.0857289881F,    0.108134091F,
      0.0609576218F,    -0.0161986817F,   0.0874314606F,    -0.0360832438F,
      -0.0582039729F,   -0.17735067F,     -0.0865032598F,   0.0610216893F,
      -0.0220165402F,   -0.064475581F,    -0.0774078518F,   0.115659133F,
      -0.0905818194F,   -9.61065671E-5F,  -0.0388953798F,   0.067140907F,
      -0.0301314872F,   0.0756094381F,    -0.0486428626F,   0.0199530274F,
      0.083435379F,     0.100347839F,     0.031736888F,     0.0561426766F,
      0.0580539927F,    0.0264247339F,    -0.0709957853F,   -0.0567874834F,
      -0.0551901981F,   0.108829975F,     -0.0560445935F,   -0.109942071F,
      -0.11895214F,     0.0690532923F,    -0.0287062153F,   -0.0764328465F,
      -0.134500206F,    -0.0582137182F,   0.100304447F,     0.0269187596F,
      -0.0900792629F,   -0.015989041F,    -0.00329273148F,  0.0306004919F,
      -0.0321403109F,   0.0447090864F,    -0.109936833F,    -0.0589508861F,
      -0.065323554F,    0.123834088F,     0.0119326208F,    -0.0618186519F,
      0.0787905678F,    0.0569426157F,    0.1901467F,       -0.132227793F,
      0.023285713F,     -0.148371488F,    0.084337458F,     -0.00597808324F,
      0.214549363F,     -0.0394903421F,   0.0268678535F,    -0.18941249F,
      0.0733328F,       -0.0541177094F,   -0.109272905F,    0.10414467F,
      0.0292265192F,    0.0536816865F,    0.0186701883F,    -0.0210133679F,
      -0.00302120345F,  -0.0833409205F,   0.0424572602F,    0.0387143418F,
      0.0307155047F,    -0.0714454129F,   -0.0764002725F,   0.0346438177F,
      0.0430609062F,    0.0250852946F,    0.057208661F,     -0.0807051659F,
      0.0912873149F,    -0.05871154F,     0.059846241F,     0.0308630913F,
      0.0801927373F,    0.00869357307F,   0.0127889374F,    0.0317853838F,
      0.0666196123F,    -0.0904289633F,   -0.00487649627F,  -0.0554076694F,
      -0.0205919687F,   0.042405F,        0.0877430886F,    0.00632149074F,
      -0.0343309529F,   0.129370153F,     -0.0278408434F,   0.103103787F,
      -0.0778602511F,   0.0384293683F,    0.05557587F,      0.0292712413F,
      0.0178509187F,    -0.102518089F,    0.0437358581F,    -0.0946000889F,
      0.0421804227F,    0.114579439F,     -0.100217894F,    -0.0648511F,
      0.0754707158F,    -0.0191655532F,   0.0314011052F,    0.0667823404F,
      0.0271729697F,    -0.0391664356F,   -0.0756577179F,   0.0397261F,
      0.0161134619F,    -0.0260460339F,   0.0649402812F,    0.121620953F,
      0.104873471F,     -0.195710838F,    -0.0122500556F,   -0.0961345583F,
      0.128477797F,     -0.0236156881F,   -0.0896504298F,   -0.0205107965F,
      0.111076117F,     -0.0993290767F,   -0.0142742377F,   0.0086025605F,
      -0.0377099216F,   0.00979037F,      0.0448463F,       -0.0584025048F,
      -0.0178189054F,   -0.107716881F,    0.0235357266F,    0.00708644884F,
      -0.035235F,       -0.0685398F,      -0.00350971031F,  -0.0810241476F,
      0.0100652911F,    -0.0220506601F,   -0.0875003636F,   -0.039177008F,
      0.0732801929F,    -0.0852134898F,   -0.0190078467F,   0.0624428615F,
      0.0917809829F,    -0.0890170634F,   0.0639478788F,    -0.0948054343F,
      0.0713527724F,    0.0348493271F,    -0.00326125626F,  0.00631833402F,
      -0.049619332F,    -0.0889410526F,   -0.0275993384F,   -0.0278600603F,
      0.0113912076F,    0.06111845F,      -0.00506766653F,  -0.0861161575F,
      0.0917102F,       0.0744662359F,    0.00892367307F,   -0.139780626F,
      -0.0803900883F,   -0.0289943032F,   0.0407283865F,    0.0282067F,
      0.0644123331F,    0.0389658958F,    -0.0617268085F,   0.157431215F,
      -0.0364320613F,   0.0826281831F,    -0.0590581633F,   -0.0525751896F,
      -0.0920044705F,   -0.0214009248F,   0.00700056925F,   0.0763577074F,
      -0.122824855F,    -0.0772192404F,   -0.046522703F,    0.0488384888F,
      0.0668598264F,    0.02944245F,      -0.0639107674F,   0.0121319499F,
      -0.0795652643F,   -0.087886408F,    0.0290918965F,    -0.0360614844F,
      -0.111521736F,    0.0546151698F,    0.0847920775F,    0.0732826069F,
      -0.0275431052F,   -0.0846493095F,   -0.0309195071F,   0.0473347381F,
      -0.0797047839F,   -0.0571679622F,   -0.0956006497F,   0.0343230292F,
      -0.0336214155F,   0.0422539972F,    -0.0159829017F,   0.0517787188F,
      0.0564057939F,    -0.0682825893F,   0.0954199582F,    0.00512887444F,
      0.0939551592F,    -0.0718909F,      -0.00361793092F,  0.017548034F,
      0.030735556F,     0.0901050344F,    0.0515792631F,    -0.0615538247F,
      -0.101602651F,    -0.0837058499F,   -0.060355939F,    -0.081509456F,
      -0.0841911F,      -0.102490477F,    -0.0370204709F,   0.00890287571F,
      -0.0200011525F,   0.037942335F,     -0.0570946485F,   -0.0133894579F,
      0.00215440919F,   -0.0246526226F,   -0.00101607561F,  0.1090298F,
      0.0600425787F,    0.0253435802F,    -0.139471754F,    0.162508249F,
      -0.0839777142F,   -0.0855093896F,   -0.0331715047F,   0.00884573627F,
      -0.028009085F,    0.283673406F,     0.107306108F,     -0.00905283168F,
      0.0130818486F,    0.103144087F,     -0.0549873561F,   -0.0822427496F,
      0.0280399621F,    0.0414279252F,    0.16269815F,      0.00984820165F,
      -0.074892737F,    0.000846824201F,  -0.0806135461F,   -0.00609836262F,
      -0.0783353448F,   -0.0912329927F,   -0.0412918776F,   0.0738889724F,
      0.169271961F,     0.0280414168F,    0.0116449017F,    0.0226067957F,
      -0.0769680962F,   0.00314049097F,   0.0178699847F,    0.071859926F,
      0.0276805889F,    0.0298220403F,    -0.0523125641F,   -0.0378133878F,
      -0.0853435174F,   -0.053275872F,    -0.0280897F,      0.0907528698F,
      0.0103824195F,    -0.0392336659F,   0.0091725979F,    0.06786713F,
      -0.0858646408F,   -0.00495196693F,  0.00869121868F,   0.0595304184F,
      0.0553038344F,    0.0369877182F,    -0.0447413921F,   -0.0227017961F,
      0.0381207541F,    -0.00560408272F,  -0.0150840124F,   -0.00191311038F,
      0.0312253367F,    0.0372255221F,    -0.0249715522F,   0.056826409F,
      0.0247792695F,    0.0481163338F,    0.0686318874F,    -0.0540853F,
      -0.0870641395F,   -0.109293014F,    -0.0751841739F,   0.0589054376F,
      -0.107329428F,    0.0892441645F,    0.0868445113F,    -0.0146725085F,
      0.0337629318F,    0.00947982166F,   -0.0248551853F,   -0.11004588F,
      0.0202767253F,    0.0126879066F,    0.0921475142F,    0.209329501F,
      -0.0766178817F,   -0.173717961F,    -0.0677133426F,   0.167523831F,
      -0.0637744516F,   -0.0734427646F,   -0.0426594F,      -0.0549570955F,
      -0.0307723489F,   0.168759316F,     0.00658881571F,   -0.0334806181F,
      0.0129266847F,    -0.0585329346F,   -0.0878684372F,   0.0114651071F,
      0.0336107835F,    -0.0156530514F,   -0.0223809518F,   0.0228133257F,
      -0.0221641306F,   0.00664182F,      0.0298041068F,    0.000598760322F,
      0.0209091939F,    -0.0421313569F,   -0.0409809649F,   0.0196359195F,
      -0.0590008199F,   -0.00747252628F,  -0.0565287396F,   0.0402455814F,
      0.0532243736F,    -0.0919407681F,   -0.0307257138F,   0.0512831546F,
      -0.0422101021F,   0.00649394933F,   -0.00157390058F,  0.104304604F,
      -0.01788445F,     -0.0219795108F,   0.0572435446F,    -0.0532494634F,
      -0.0453011F,      0.0234030355F,    0.00216732477F,   0.0146969724F,
      -0.0777892917F,   -0.0299795829F,   0.045075018F,     -0.076777257F,
      -0.132721364F,    0.00319964439F,   0.0744881481F,    0.113443397F,
      0.0235901214F,    0.095254F,        0.0524948426F,    -0.0757000148F,
      0.0817089826F,    -0.0256783701F,   -0.0625867173F,   -0.105059557F,
      0.110286929F,     -0.0155048724F,   0.0686560944F,    0.0412191786F,
      0.0847592801F,    0.0306202322F,    0.0841882601F,    0.0709041F,
      -0.00537964283F,  0.0869313553F,    0.104349263F,     0.058489F,
      -0.0683977231F,   -0.0720766112F,   0.0287546031F,    0.0555052608F,
      -0.0754315183F,   0.0422531664F,    -0.0849496648F,   -0.0196784735F,
      -0.029696418F,    0.0487050153F,    0.00452409219F,   -0.04936276F,
      0.0234968197F,    0.0462648F,       -0.0549880378F,   -0.139172375F,
      -0.0245815124F,   -0.0208315589F,   0.102627262F,     0.026956521F,
      0.0569842309F,    0.0946706161F,    0.0361472256F,    0.0646427348F,
      -0.104206361F,    -0.00822531339F,  -0.012841098F,    -0.124602355F,
      0.140210524F,     -0.0558197238F,   0.0182768609F,    -0.00199850672F,
      0.0469176583F,    0.0954871699F,    -0.0227155033F,   0.0857883915F,
      -0.00386753655F,  -0.125276133F,    0.0725835636F,    0.0606969371F,
      -0.106459692F,    -0.164446771F,    -0.0556817912F,   -0.0640299395F,
      -0.100881189F,    0.0730983838F,    -0.135141537F,    0.120108888F,
      0.119715564F,     -0.0244094115F,   -0.02223536F,     -0.156661168F,
      0.176454827F,     0.0584188364F,    0.188230932F,     -0.0258682258F,
      -0.111982107F,    -0.0380494893F,   0.0073812576F,    0.039745979F,
      0.165604115F,     -0.0261775889F,   0.0938928574F,    -0.0755629763F,
      0.18679516F,      -0.076341562F,    -0.124627121F,    -0.0800041F,
      0.0682677F,       -0.0854681134F,   0.0392709076F,    0.0234560929F,
      -0.0420366116F,   -0.178459749F,    0.12169642F,      -0.0890368074F,
      -0.0103437919F,   -0.0461850762F,   0.00375475315F,   0.0792924613F,
      0.0942146182F,    -0.0369779132F,   0.192476809F,     -0.0411408F,
      -0.115638278F,    -0.0316089466F,   -0.0492580831F,   0.0857741535F,
      -0.103383608F,    0.020249553F,     -0.0447374769F,   0.188289925F,
      0.0931390077F,    0.0177542586F,    -0.0353844129F,   -0.0094122272F,
      -0.0601954348F,   0.00391820306F,   0.059158612F,     -0.0112871751F,
      -0.00284686545F,  0.011131837F,     -0.0187462792F,   -0.153407305F,
      -0.187112674F,    0.171080783F,     -0.0508594811F,   0.177110776F,
      0.12103837F,      -0.137236744F,    -0.16119796F,     -0.156400666F,
      0.068144843F,     -0.250753671F,    -0.0943133235F,   0.244123012F,
      0.0661660507F,    0.235424027F,     0.0775215179F,    0.066122748F,
      -0.0603050031F,   0.0107364384F,    0.0169611555F,    -0.215318784F,
      -0.146530643F,    0.131663024F,     -0.0476474129F,   -0.0476286039F,
      -0.174385116F,    0.124400333F,     -0.0517896824F,   -0.00671733916F,
      -0.0368538238F,   -0.0438221395F,   0.0528346859F,    0.213238835F,
      0.0200716574F,    -0.0846391767F,   -0.0205988362F,   -0.0514415763F,
      0.0916647166F,    0.210895717F,     -0.0556637198F,   -0.0292440038F,
      0.0402417928F,    -0.0832559317F,   0.00283787237F,   -0.0178201459F,
      -0.0823929F,      0.0302551668F,    0.0766045898F,    0.118217014F,
      -0.0369471759F,   -0.0437241159F,   0.0183647834F,    -0.0592575073F,
      0.0802120343F,    -0.0601493269F,   -0.0384556055F,   0.107799038F,
      -0.144236088F,    0.0436930023F,    0.0060190768F,    0.0413103327F,
      -0.0973197371F,   -0.0528853498F,   -0.0767366961F,   -0.00620217901F,
      0.180180922F,     -0.0850667283F,   -0.068991594F,    0.00921310857F,
      0.0664976239F,    0.0154987779F,    0.00673208944F,   -0.0783826187F,
      0.223795041F,     0.140853211F,     0.141752526F,     -0.133491755F,
      -0.0824934766F,   -0.00192675623F,  -0.154285863F,    -0.0147785563F,
      -0.00211590412F,  -0.0645290241F,   -0.0520995669F,   -0.0820334107F,
      0.0494514443F,    0.101326406F,     -0.0827519447F,   0.00518284412F,
      -0.129045457F,    -0.12266095F,     -0.0768618137F,   0.0633129179F,
      -0.0558331981F,   0.0201933868F,    -0.110638827F,    0.208417729F,
      -0.0441681519F,   -0.0766963065F,   -0.0143331457F,   -0.0458363593F,
      0.0399226472F,    0.0796124488F,    0.0384607241F,    0.0852031559F,
      -0.0948585495F,   -0.0177737884F,   0.0102506308F,    0.164731115F,
      0.0148041379F,    -0.005129111F,    0.0179970022F,    0.0134187173F,
      -0.0243705474F,   -0.0895618424F,   0.00609210972F,   0.0825876519F,
      -0.062130712F,    0.054459393F,     0.0194069F,       0.0043581347F,
      0.0947854F,       0.0434602425F,    0.0343999602F,    -0.0844931751F,
      -0.0606837F,      0.0332250372F,    0.0743374F,       -0.0166794937F,
      -0.0419925265F,   0.0660299361F,    0.0353335515F,    0.0324800909F,
      -0.0738066733F,   -0.0455113836F,   0.018333897F,     -0.0234292727F,
      0.0186647512F,    -0.0606524386F,   0.0414595306F,    0.0862986F,
      0.00402467651F,   0.0402412377F,    0.0336038321F,    0.0854501575F,
      0.0156249544F,    0.0767975897F,    0.000341603358F,  0.038881924F,
      0.0292776693F,    0.104149438F,     0.0294099618F,    -0.0522211939F,
      0.00168956909F,   -0.0669050589F,   -0.0667205453F,   -0.0355865434F,
      -0.0972171724F,   0.0631276593F,    0.0273610763F,    0.0345350206F,
      0.097220175F,     -0.098466821F,    0.0299061593F,    0.094272241F,
      0.0104125058F,    0.0297278184F,    -0.0802141726F,   -0.112676814F,
      -0.0438444614F,   0.0255735554F,    -0.0394702889F,   -0.0788043961F,
      0.0343723F,       -0.0422898605F,   -0.0698344633F,   0.0895877182F,
      -0.0974459946F,   0.052158311F,     -0.0360709019F,   0.0512675F,
      0.0112179127F,    -0.0760055557F,   -0.0710093528F,   -0.0975253507F,
      -0.024720056F,    -0.047290694F,    -0.0935904533F,   -0.0266799107F,
      0.0286571197F,    0.0553453751F,    0.0535934381F,    -0.0197210684F,
      0.0558873303F,    0.0271426234F,    -0.0453597F,      0.00533668417F,
      -0.0556747727F,   0.040723F,        0.130934939F,     0.100564912F,
      0.0140825966F,    -0.000366145163F, 0.0253545344F,    0.0200358F,
      0.0356988907F,    0.113534093F,     -0.0508865304F,   0.0752118453F,
      0.123063639F,     0.012142987F,     0.0146539137F,    0.0501946695F,
      -0.0891223F,      0.0677770823F,    -0.000902358268F, -0.0668518469F,
      0.0416301973F,    0.0125129633F,    0.104972474F,     -0.0880416259F,
      -0.0749481916F,   0.0751635432F,    0.017533198F,     -0.0361643769F,
      0.0328894518F,    -0.0847661793F,   0.102601483F,     0.015728008F,
      0.0599761643F,    -0.0539005324F,   0.0586683191F,    -0.053161487F,
      0.0029221375F,    -0.0744070932F,   -0.0748701915F,   0.0930018F,
      -0.0657533929F,   0.0837941691F,    0.0559372902F,    0.0445148908F,
      0.0510036126F,    -0.0895702839F,   -0.0546004735F,   -0.0143143376F,
      -0.0789122432F,   -0.0395769924F,   -0.0073158443F,   -0.0669773519F,
      -0.0524882562F,   -0.00111228169F,  0.029205367F,     -0.010650754F,
      -0.0399200954F,   0.0202590842F,    -0.0735339671F,   0.00888805F,
      -0.0853520408F,   0.0612305515F,    0.039142061F,     0.0827348456F,
      -0.0729379132F,   -0.102052636F,    0.0023418F,       -0.014951325F,
      -0.0385621861F,   -0.034915071F,    -0.0455061644F,   -0.0207962431F,
      0.110529274F,     0.00992552377F,   -0.0877265558F,   0.0677440688F,
      0.00906764157F,   -0.0468764864F,   -0.0182086937F,   -0.030266393F,
      -0.0276424438F,   0.0930513814F,    0.0793095827F,    0.0245716739F,
      -0.00828510523F,  0.0444863886F,    -0.0315761231F,   0.0709048659F,
      -0.0284470804F,   -0.0617878363F,   -0.0463990644F,   0.0463440828F,
      0.0458179191F,    0.0507727787F,    -0.0841958821F,   0.0455527902F,
      -0.0483536273F,   -0.0522683412F,   0.0752687082F,    -0.081353873F,
      -0.0242979433F,   0.0295965876F,    -0.0654202923F,   -0.0857789293F,
      0.0208730418F,    0.100113489F,     -0.0593650639F,   0.0415602438F,
      -0.0670344681F,   0.0937385932F,    -0.00649862085F,  -0.00296497415F,
      0.0584307797F,    -0.0456958972F,   0.0574164875F,    -0.0772360414F,
      0.0126168681F,    0.0898385644F,    0.0775608346F,    -0.0672795549F,
      0.081564717F,     -0.0512133352F,   0.038233608F,     0.0299176183F,
      -0.0683374554F,   -0.0633189306F,   0.0199139174F,    -0.0311215091F,
      -0.0885792375F,   0.0705455691F,    0.029295709F,     -0.0597055592F,
      0.0358308926F,    0.089675881F,     -0.00489778118F,  -0.0848831534F,
      0.0563993F,       -0.00171538361F,  -0.020211149F,    -0.0122395316F,
      0.0949161574F,    -0.0493053682F,   0.0903715193F,    0.0704441369F,
      -0.0380335189F,   0.0389123634F,    0.0933940932F,    -0.0857015848F,
      -0.0093322359F,   0.0496031083F,    0.0838878527F,    0.0946124047F,
      0.0730564147F,    0.00755796814F,   0.093637608F,     0.00270386878F,
      0.0595233515F,    0.0743691176F,    -0.0600349233F,   -0.0520814732F,
      0.034588661F,     -0.0808084905F,   0.0234159045F,    -0.030091675F,
      -0.0413703844F,   0.0116651841F,    -0.0969306454F,   0.0230401028F,
      -0.0345901363F,   -0.0422936305F,   -0.00557618588F,  0.0303897019F,
      -0.0313475654F,   -0.0418127887F,   0.068194367F,     -0.0595264658F,
      0.0246184245F,    0.075760223F,     -0.0824135914F,   -0.0951128155F,
      -0.0709700137F,   -0.0711257756F,   0.0711217448F,    0.0396536216F,
      -0.0348653086F,   0.0103471242F,    0.0102759413F,    0.0312351529F,
      -0.0166316144F,   0.0834892541F,    -0.0662498251F,   0.0163652115F,
      -0.00473771524F,  -0.0397599824F,   -0.0955709592F,   0.0809471756F,
      -0.0963525698F,   -0.0339222103F,   -0.079869993F,    0.0582528375F,
      -0.0790031701F,   0.0767602548F,    0.024255868F,     0.090522185F,
      -0.0124636777F,   -0.0592595674F,   0.0694550276F,    -0.0381541401F,
      -0.0442205593F,   -0.0132376105F,   0.00534821209F,   0.0341150202F,
      0.0167892519F,    -0.0893465206F,   -0.050343547F,    0.101982966F,
      0.0691176131F,    0.0109819146F,    -0.0609272F,      0.0546940565F,
      -0.0940925255F,   -0.0759663656F,   0.0902692825F,    0.00813372806F,
      -0.0532362796F,   -0.0794964805F,   -0.0331476294F,   -0.0665114671F,
      0.0589450262F,    0.0378997251F,    -0.0659430847F,   0.0354507528F,
      0.059908703F,     -0.0977093056F,   0.00404874375F,   0.0619288646F,
      0.0617609732F,    -0.0937332734F,   0.00644828053F,   0.0256665125F,
      -0.000916375255F, 0.0838888064F,    0.0694904476F,    0.0241489504F,
      0.0788786784F,    -0.0510530174F,   0.0827795193F,    -0.0314411111F,
      -0.0350414701F,   -0.00873683766F,  -0.00843701512F,  -0.107379317F,
      0.074045904F,     -0.0927848816F,   -0.0163851324F,   0.0130274417F,
      -0.00576532446F,  0.091048561F,     0.0572715253F,    -0.019227704F,
      -0.0768170133F,   -0.0332731716F,   0.0947958529F,    -0.0474489443F,
      -0.0154452594F,   -0.0544056855F,   -0.0988433734F,   0.0734813958F,
      0.082086F,        -0.069321F,       0.0437861718F,    0.0786691532F,
      0.111050986F,     0.0862210616F,    0.0513052419F,    0.0688782558F,
      0.0727345869F,    0.0824352801F,    -0.0272698738F,   0.0605686866F,
      -0.0418518968F,   0.00473103346F,   0.0876551569F,    0.077534318F,
      0.0614323951F,    0.0886429474F,    0.0656544268F,    0.0865966156F,
      0.0411982723F,    -0.0149091287F,   -0.0910218805F,   0.0664502457F,
      -0.0824980438F,   -0.0611107647F,   -0.0797552243F,   -0.0170496721F,
      -0.0263782106F,   0.0756123886F,    -0.0180608518F,   0.0106387213F,
      0.00924661849F,   -0.0638051927F,   -0.0804375038F,   0.0104547422F,
      0.0398650914F,    -0.0716967955F,   -0.0716948137F,   -0.0929204449F,
      -0.0689700842F,   -0.0483068898F,   0.013687972F,     -0.09631975F,
      -0.0382088572F,   -0.0790595189F,   -0.0296906158F,   0.0321008228F,
      -0.107883923F,    -0.065487057F,    -0.0440925024F,   0.0706985444F,
      -0.0595557876F,   -0.0302632693F,   -0.0391475148F,   -0.0973816812F,
      0.0899912044F,    0.119615227F,     0.0584506057F,    0.0603490621F,
      -0.0128638111F,   -0.0793028101F,   0.0656028315F,    0.0618671365F,
      -0.0541375242F,   0.046272248F,     0.102230437F,     0.00210192869F,
      -0.0571635626F,   -0.023895368F,    -0.0158049837F,   0.0437430888F,
      -0.0329730026F,   0.012290597F,     -0.024449788F,    -0.0705290139F,
      -0.121850759F,    0.060363587F,     -0.006862232F,    -0.0309201758F,
      -0.0179296751F,   -0.00237990683F,  0.0982871577F,    -0.101457745F,
      -0.00902042F,     0.0366148725F,    0.0732587799F,    0.120364636F,
      -0.00798923522F,  0.116121776F,     0.0317204185F,    0.0518187955F,
      -0.0063781864F,   0.0117644947F,    -0.0767815858F,   0.0448286459F,
      -0.0260838456F,   0.183480322F,     0.0903250352F,    0.0307264943F,
      0.0338556767F,    0.0275585651F,    -0.0469675697F,   0.0618055165F,
      -0.0984578952F,   -0.0400973596F,   0.06185041F,      0.131751969F,
      -0.00367559493F,  0.0544472709F,    -0.00198319275F,  0.0485008396F,
      -0.0871939F,      -0.0697727054F,   -0.0539542809F,   0.0375592746F,
      0.00730093522F,   0.209108248F,     -0.165275335F,    -0.012761971F,
      -0.0735088661F,   -0.0255945083F,   -0.122073755F,    0.0690356344F,
      -0.0285500791F,   0.0063284249F,    -0.102589853F,    -0.0271455646F,
      -0.084031567F,    -0.094231151F,    -0.123831138F,    -0.00242055161F,
      -0.116668649F,    0.202130318F,     -0.0240574218F,   0.100807674F,
      0.147635207F,     -0.0144093605F,   -0.0856415927F,   0.0187066961F,
      -0.019558236F,    -0.047660619F,    -0.0486131199F,   0.0028710016F,
      -0.0360445864F,   0.0606489405F,    -0.109320343F,    -0.0164611302F,
      -0.0919971243F,   0.0410877205F,    0.0838769451F,    -0.091163151F,
      -0.126977384F,    -0.0511484481F,   0.00998693F,      -0.0133834435F,
      -0.111831479F,    -2.59912631E-5F,  0.105043501F,     0.0444524139F,
      -0.153500214F,    -0.124217391F,    -0.0065196366F,   0.0294587333F,
      0.0665960535F,    0.0264541171F,    -0.027827559F,    0.178750187F,
      0.0356039554F,    0.028324306F,     -0.0278729443F,   -0.0981409848F,
      0.00233442592F,   0.180372238F,     -0.166781723F,    -2.99330495E-5F,
      -0.0895537063F,   0.102923475F,     -0.127676398F,    -0.0323359333F,
      -0.0757631883F,   -0.0367025621F,   -0.205438077F,    0.175637677F,
      -0.000723664416F, 0.121951088F,     -0.0646654814F,   0.0965208039F,
      -0.280848116F,    0.0312194619F,    0.0742732137F,    0.0081673041F,
      -0.0911742523F,   0.1162678F,       0.0433363244F,    0.138392374F,
      -0.0542622693F,   -0.034416642F,    0.0182837099F,    0.0295036621F,
      0.0315900557F,    0.00821294636F,   -0.0803437904F,   0.205016404F,
      0.0531292967F,    0.0583113022F,    0.0117736366F,    0.00255615334F,
      0.057065811F,     -0.0129457023F,   -0.0175380409F,   0.0541359447F,
      -0.0556318648F,   0.01515547F,      -0.130277038F,    0.0933048651F,
      -0.0157441441F,   -0.174504608F,    0.12367586F,      0.0692691F,
      0.0358607806F,    0.0273441486F,    -0.0175405405F,   0.0815744F,
      0.0607258491F,    0.0276394337F,    0.0729208961F,    0.00545344502F,
      0.145635158F,     0.0948146507F,    0.150869593F,     -0.230852395F,
      -0.162125289F,    -0.0557832904F,   0.0759688243F,    0.0896753147F,
      0.121072724F,     0.0366230682F,    -0.0199130904F,   0.0267493892F,
      0.059906479F,     -0.293043613F,    -0.254323721F,    0.00464660535F,
      -0.179848477F,    0.235476822F,     0.137807593F,     -0.0639884844F,
      -0.280315101F,    0.00538169919F,   -0.00759095885F,  0.0332695469F,
      -0.182743505F,    -0.0362089686F,   -0.151513532F,    0.174229681F,
      0.038737867F,     -0.215942279F,    -0.268145978F,    0.131149635F,
      0.0449222F,       0.141928285F,     -0.0720340163F,   0.0536703914F,
      0.0186093524F,    0.159351423F,     -0.0983612612F,   -0.119818211F,
      -0.056357231F,    0.0101369107F,    0.0241088383F,    0.00773170032F,
      -0.0836673602F,   0.0249487832F,    -0.0760193914F,   0.062000487F,
      -0.0729501173F,   0.062633343F,     0.127891541F,     0.0725420192F,
      -0.100919314F,    -0.0461019874F,   -0.0140633304F,   0.0127871893F,
      -0.00535661122F,  0.0904717669F,    0.13036947F,      -0.128045917F,
      0.0910499617F,    0.112716183F,     0.0278973542F,    0.0327410661F,
      -0.0120555563F,   -0.0137784127F,   0.0459027626F,    0.0135259F,
      -0.00545770628F,  -0.169005156F,    0.113115914F,     0.0921755657F,
      -0.0976344198F,   -0.173925668F,    -0.0828483254F,   -0.0202124882F,
      0.0844585F,       0.0785149112F,    0.105891652F,     -0.0817784443F,
      0.0729897469F,    0.0716538727F,    -0.0264044143F,   -0.110164516F,
      -0.223684281F,    -0.0217461474F,   0.0148574691F,    0.239528313F,
      -0.089220576F,    -0.151833043F,    0.00568143092F,   0.119785726F,
      0.0200424176F,    -0.154918566F,    -0.0361262411F,   -0.233824864F,
      0.0720498934F,    0.276519477F,     -0.120371521F,    -0.119126759F,
      -0.063608177F,    0.0443175547F,    -0.0354979672F,   0.110961765F,
      0.0253068209F,    -0.11247275F,     -0.000965198909F, 0.0130641814F,
      -0.0381951369F,   0.0905627683F,    -0.00900288578F,  0.0282924641F,
      -0.120997533F,    0.0430167951F,    -0.00770312408F,  -0.08537817F,
      -0.0874988735F,   -0.026831F,       0.0686223F,       -0.0574873425F,
      -0.0502652153F,   -0.0813267827F,   -0.0483382121F,   0.0716923F,
      -0.0367637835F,   0.0556167029F,    -0.0816818476F,   -0.0274326224F,
      0.0876614F,       -0.0807550475F,   0.0859008878F,    0.0133806691F,
      -0.0840164572F,   -0.0328522734F,   -0.0625222847F,   -0.0749485418F,
      0.0175800696F,    -0.080858171F,    -0.0905363336F,   0.0888979733F,
      0.0436031669F,    0.0956946164F,    -0.0667089894F,   0.0509514734F,
      -0.101726517F,    0.0536490344F,    -0.0716163442F,   -0.00263504544F,
      -0.0286362357F,   -0.0751302689F,   0.0203553475F,    0.0547778644F,
      0.0461029932F,    0.0291520804F,    0.0300420187F,    0.160181805F,
      -0.0255209468F,   -0.0471026711F,   -0.0678052083F,   -0.0121912F,
      -0.011998916F,    0.0113296285F,    -0.0140591124F,   -0.0992323607F,
      0.10020633F,      0.0050812331F,    0.140585914F,     -0.200687602F,
      -0.000443519966F, 0.0314590707F,    0.028289197F,     -0.0272969585F,
      -0.0917759612F,   0.0251913313F,    -0.109370627F,    -0.0523303673F,
      0.140882224F,     0.0157205034F,    0.0386334471F,    -0.147000983F,
      -0.0924087763F,   0.0236248672F,    -0.0904755741F,   0.0285450071F,
      -0.0103835193F,   -0.0953374654F,   0.0873045921F,    0.0908418074F,
      -0.100387521F,    -0.0108864037F,   0.0422426F,       0.000186473349F,
      -0.0274724085F,   0.00693067955F,   0.0530576147F,    -0.115810052F,
      0.0564873666F,    0.00117602304F,   -0.000243812552F, -0.00271490659F,
      -0.0385987647F,   0.047295969F,     -0.0359605327F,   -0.0919794068F,
      -0.0700159892F,   0.137502342F,     -0.0811954737F,   0.028111577F,
      0.102653235F,     0.0993694067F,    -0.000512469443F, -0.0111723151F,
      -0.0649517253F,   -0.12164329F,     -0.0271762758F,   0.125290141F,
      0.0537689738F,    0.0177217945F,    -0.039732635F,    -0.00464182906F,
      0.11769449F,      -0.0770770609F,   0.023217205F,     -0.0472723395F,
      -0.145354137F,    0.250522405F,     -0.0536194518F,   0.0641104728F,
      -0.0770649165F,   -0.0105743585F,   0.0433655865F,    0.0910255909F,
      -0.0916591585F,   0.0296323244F,    0.0144307883F,    0.00510007329F,
      -0.0893589F,      -0.0266107358F,   0.135787204F,     0.118944883F,
      -7.42551347E-5F,  -0.0427158363F,   -0.0906967372F,   -0.00825785752F,
      0.101120435F,     0.111022718F,     -0.0838889405F,   -0.0398197733F,
      0.174165204F,     0.0694619492F,    0.0603446439F,    -0.124064811F,
      -0.195353612F,    -0.0382190943F,   0.172732726F,     -0.125859261F,
      0.0231077075F,    -0.117570877F,    0.0112756575F,    0.0394285098F,
      -0.0588266589F,   0.0748894811F,    0.0276108775F,    -0.0149588082F,
      0.24452953F,      -0.216046378F,    0.101139374F,     -0.19436796F,
      0.064255707F,     -0.0111274496F,   -0.00941142254F,  0.0973101333F,
      -0.0211593229F,   -0.125638112F,    -0.0342188515F,   0.137838364F,
      -0.164556786F,    -0.051574219F,    0.0638262704F,    0.000823104172F,
      -0.0609808452F,   -0.0522969142F,   0.0133577976F,    -0.08336F,
      -0.0633036494F,   -0.0149851302F,   0.0521666482F,    -0.0220326521F,
      -0.082544975F,    0.0640876591F,    0.0400557704F,    -0.0922243446F,
      0.106973164F,     0.07673724F,      -0.00477329222F,  0.208806932F,
      -0.0725513101F,   -0.0811279565F,   -0.0133010745F,   0.125548765F,
      0.0129262321F,    -0.251766205F,    -0.0535165146F,   0.0371117778F,
      -0.0209896863F,   0.0198123865F,    -0.0454713926F,   -0.131980211F,
      0.067345418F,     -0.0432660356F,   -0.044891607F,    0.112470463F,
      -0.00559475925F,  0.0943471F,       0.0746474788F,    -0.00102747255F,
      -0.0525112F,      -0.113053843F,    -0.0404695F,      0.0629696921F,
      0.173670039F,     -0.167925403F,    -0.0287318919F,   -0.138554975F,
      0.155317038F,     0.104823619F,     -0.0929202363F,   -0.137989298F,
      0.0611660965F,    -0.138664335F,    0.141568065F,     -0.09817563F,
      0.021885952F,     -0.0051601883F,   0.138058469F,     -0.000513213221F,
      0.0689031705F,    -0.137789637F,    0.0990750343F,    -0.0364591517F,
      0.0313176513F,    0.100348502F,     0.0641459525F,    -0.0568857864F,
      -0.0510810129F,   0.0351811238F,    -0.123890668F,    0.0665431321F,
      0.166637734F,     0.117938079F,     0.0906601325F,    0.00995722692F,
      0.00140800851F,   -0.186285406F,    0.0820175856F,    -0.0406299457F,
      0.0193625912F,    0.0408236533F,    0.0590414F,       0.0108630201F,
      -0.0209085308F,   -0.0276254974F,   -0.0285933558F,   0.136118561F,
      -0.0561406128F,   0.0792573541F,    -0.00879340898F,  0.127613217F,
      0.284134358F,     -0.0765990689F,   0.0796958953F,    -0.168357208F,
      -0.0526287779F,   -0.0777593255F,   -0.0886296257F,   0.0236963313F,
      -0.067043215F,    -0.143583477F,    0.125291526F,     -0.0733461529F,
      -0.00993064605F,  -0.150951937F,    0.0352760144F,    0.131417587F,
      -0.048937045F,    -0.0225080755F,   -0.0412225276F,   -0.114044666F,
      -0.0975365192F,   -0.032399673F,    -0.011360934F,    -0.124281354F,
      0.133392572F,     -0.126132414F,    -0.145273F,       0.026923541F,
      0.0376899652F,    -0.0344764702F,   0.0125503046F,    -0.0835379735F,
      0.0636781231F,    -0.114657946F,    0.130647257F,     -0.0215870626F,
      -0.0557521693F,   0.148081228F,     -0.1627599F,      0.0440726876F,
      0.0467022322F,    0.0108242501F,    0.0637070611F,    0.0671055466F,
      0.0207399074F,    0.0844381154F,    -0.00722531183F,  0.0303847957F,
      -0.127725F,       0.0468002111F,    0.0613424443F,    0.0718857199F,
      0.0720889717F,    0.1105555F,       0.0485001653F,    -0.322262198F,
      -0.0913772807F,   -0.0106404731F,   -0.0810926631F,   0.0261889827F,
      0.02754464F,      0.194151178F,     0.0517832153F,    0.0459821038F,
      -0.0941966251F,   0.034255933F,     0.0578044169F,    0.0873571F,
      -0.096942924F,    0.000541835208F,  0.115546644F,     0.178188547F,
      -0.064024739F,    0.0538502708F,    -0.143949479F,    -0.00278671249F,
      -0.0894870088F,   0.0358730927F,    -0.166442513F,    -0.0303088762F,
      0.00259004789F,   0.278560817F,     0.056734141F,     -0.0691385865F,
      -0.124421149F,    -0.0612038709F,   -0.157164454F,    0.229363814F,
      0.100204319F,     -0.138946921F,    -0.161448687F,    0.0587832481F,
      -0.0309381578F,   -0.0344745107F,   0.0672953129F,    -0.0365496911F,
      -0.0166909602F,   0.100559697F,     0.0702367425F,    0.0825217366F,
      -0.0544316322F,   0.0710280389F,    -0.148118496F,    0.0454107709F,
      0.0770413205F,    0.0772806108F,    -0.0707007498F,   0.0973898619F,
      -0.0393315926F,   0.0648138598F,    -0.0703646764F,   -0.11566063F,
      0.0677868947F,    0.11802844F,      -0.0490951613F,   0.105085514F,
      -0.0196357537F,   0.0447111838F,    -0.0333071165F,   0.0146210846F,
      0.149610087F,     -0.0656361356F,   0.0587827303F,    0.0914712921F,
      -0.000431969063F, -0.0582038425F,   -0.00884350296F,  0.0262162704F,
      -0.0594929494F,   0.0361410901F,    -0.00228745956F,  0.0172926672F,
      0.0349804759F,    0.155296624F,     -0.16415441F,     0.0650946125F,
      -0.0682553425F,   0.00563825201F,   0.127204835F,     0.0035648644F,
      -0.0291224569F,   0.167757943F,     -0.0134512903F,   0.04438987F,
      -0.210601181F,    -0.0826932F,      -0.0888488442F,   0.178617567F,
      0.0060746395F,    0.212217778F,     -0.124932483F,    0.00130781531F,
      0.00206171046F,   -0.110492267F,    -0.0862074196F,   -0.0434314348F,
      -0.0452322662F,   0.18832168F,      0.0258477349F,    0.263832569F,
      0.0438169241F,    -0.0830087662F,   -0.223289967F,    -0.0117907468F,
      -0.0645199791F,   0.106083244F,     -0.010612132F,    0.0578628741F,
      -0.0896070153F,   0.0403803363F,    -0.0718261227F,   -0.119177066F,
      -0.0362495035F,   -0.00960606802F,  -0.0654593855F,   -0.0526444465F,
      -0.00687299669F,  -0.0696820468F,   0.0127060059F,    0.00467134826F,
      -0.114948079F,    -0.169930637F,    -0.0764688F,      -0.154903337F,
      0.000749218103F,  0.0379756503F,    0.0165950246F,    0.0662071258F,
      0.120570794F,     -0.026223328F,    -0.00797020085F,  -0.0076420554F,
      -0.037408486F,    0.0386975F,       0.00649941899F,   0.00946232211F,
      0.0374710187F,    0.0625456274F,    0.0378905088F,    -0.00214817468F,
      0.0468053445F,    -0.0501380786F,   -0.0357904062F,   0.112879105F,
      0.0680064857F,    0.252826363F,     0.00662371051F,   -0.0318085738F,
      0.0915737227F,    -0.0399371088F,   0.021003481F,     -0.0441955626F,
      0.0535195731F,    0.0279162917F,    0.153496683F,     -0.115635045F,
      -0.033328373F,    -0.123867564F,    0.07811106F,      0.103587441F,
      0.00399896456F,   0.00779271638F,   0.0842963606F,    0.00969416F,
      -0.00625817664F,  -0.0650561377F,   0.00397896813F,   0.0435022041F,
      -0.0906422213F,   0.0271066427F,    0.066486828F,     -0.0939914137F,
      0.00829702802F,   0.0131224701F,    -0.0615212247F,   0.0882811099F,
      0.0519100055F,    0.0684543F,       0.0144104445F,    0.141054943F,
      0.0106300162F,    -0.0504914112F,   0.00807137229F,   0.127615765F,
      -0.0383247174F,   0.00869368F,      -0.0520284325F,   -0.0795611143F,
      0.0302612F,       -0.0534359589F,   0.0116725881F,    0.0506377F,
      -0.0806896612F,   0.0237896256F,    0.0819430873F,    0.0475095473F,
      0.0456750803F,    0.0799070075F,    -0.00555927958F,  0.0362802334F,
      0.0164397564F,    -0.0743337125F,   -0.0731676295F,   -0.128915116F,
      -0.0253559779F,   0.0269246809F,    0.0167456921F,    -0.0158621538F,
      -0.0364952758F,   -0.0630489439F,   0.0501721762F,    -0.0431795195F,
      0.0163144059F,    -0.0360572487F,   0.00908324216F,   -0.00301690726F,
      0.0593994707F,    -0.0993473083F,   -0.0591690056F,   -0.0190554094F,
      0.0778381228F,    0.0800105706F,    -0.0885263756F,   -0.0313528329F,
      -0.0718866289F,   -0.101970188F,    0.0697423369F,    -0.0673521F,
      0.0181613583F,    -0.00647121435F,  0.0369391367F,    -0.0347911827F,
      0.0173911434F,    0.0376742482F,    -0.0237949714F,   0.0349217132F,
      -0.0663023219F,   -0.00980468281F,  0.0312526301F,    -0.0752095729F,
      0.04543918F,      0.0762544274F,    -0.071907185F,    -0.0523868427F,
      -0.0669507608F,   -0.0946987569F,   -0.0112721557F,   0.0778866559F,
      0.0465901755F,    0.072277F,        0.0804795101F,    0.00168498443F,
      -0.0683218613F,   0.0935441628F,    0.0570220947F,    -0.0408531949F,
      0.0563792773F,    0.00397786219F,   -0.0357548594F,   -0.0762674734F,
      0.0278554261F,    -0.0342033505F,   -0.0735719353F,   0.0583490767F,
      0.111908011F,     0.0793705136F,    0.0430265404F,    -0.0243112016F,
      -0.0117393574F,   0.00118610566F,   -0.0142122535F,   0.0184759218F,
      0.0200712811F,    -0.0333101973F,   0.119550474F,     0.0285507496F,
      -0.0179205146F,   0.112017877F,     -0.155760452F,    -0.0423935764F,
      0.135822877F,     0.029740883F,     0.0983459949F,    -0.0812577158F,
      0.107192539F,     0.0089379F,       -0.0984288678F,   0.00790857524F,
      -0.0909742F,      -0.0601542816F,   0.0890566632F,    0.158184394F,
      0.0710923448F,    -0.2451801F,      0.0380217694F,    -0.0882538855F,
      0.0378737375F,    0.0146864951F,    0.0467028F,       -0.208064988F,
      -0.0230775215F,   -0.0669011101F,   0.0181068648F,    0.0102311382F,
      0.00635721674F,   0.0404667184F,    0.0060743182F,    0.102308102F,
      -0.0575392209F,   -0.12843959F,     0.00178340124F,   -0.105096027F,
      0.0305070095F,    -0.000341699633F, 0.0704263076F,    0.0783969387F,
      0.0929003F,       -0.0343541577F,   0.030792471F,     0.0218145605F,
      -0.00575662777F,  -0.00339468475F,  -0.0475391932F,   -0.100280166F,
      -0.082587108F,    0.0023810917F,    -0.0668920428F,   0.0656957254F,
      -0.0907187834F,   -0.0479042567F,   -0.192906037F,    0.0944442675F,
      -0.0307551399F,   0.0526361056F,    0.115574397F,     0.0070928717F,
      0.0506702475F,    0.0262606442F,    -0.0347578339F,   -0.0363505669F,
      -0.0198515616F,   -0.0221916027F,   -0.0271743294F,   -0.0476362035F,
      -0.00673420401F,  0.159329385F,     -0.125041798F,    0.0434076F,
      -0.0427990295F,   0.0761170164F,    0.0858418047F,    -0.051113829F,
      0.0752834156F,    0.0538122915F,    0.10750404F,      0.120722234F,
      0.0610223375F,    -0.118208297F,    -0.123752274F,    0.100478396F,
      -0.0727131292F,   0.127315253F,     -0.0328780189F,   -0.120125465F,
      0.0176409781F,    0.0283676572F,    0.0764538F,       0.064308241F,
      -0.00587029383F,  -0.0729105547F,   0.129311875F,     0.115233473F,
      0.134922609F,     -0.0364040732F,   0.0260600876F,    -0.165876701F,
      -0.0661575943F,   0.0110576181F,    -0.00678497786F,  -0.084749043F,
      0.001703482F,     -0.0890739411F,   0.0804077F,       0.083009325F,
      0.00595634291F,   0.109620273F,     0.0162537452F,    0.000623294036F,
      -0.0958687961F,   -0.0791874155F,   0.0667219907F,    -0.0346517377F,
      0.0776168257F,    0.0856966525F,    0.096729964F,     0.0377540812F,
      -0.0743338093F,   -0.0449388549F,   -0.0596109517F,   -0.0899826661F,
      -0.0164402779F,   0.0308023896F,    -0.0562172905F,   0.0127162728F,
      0.0621056594F,    -0.115586311F,    -0.16135487F,     -0.0876592323F,
      0.190502122F,     0.0505417474F,    0.0374071188F,    0.148841009F,
      0.0749056041F,    -0.0491610132F,   0.198383048F,     -0.334558606F,
      -0.115980752F,    -0.0566951558F,   -0.0031961028F,   0.0899423212F,
      -0.0709183F,      0.102603458F,     -0.0825984851F,   -0.143389583F,
      0.221186101F,     0.00606508274F,   0.0522934124F,    -0.09074267F,
      0.101769365F,     0.0235321112F,    -0.168660566F,    0.142649367F,
      0.0487873815F,    0.183357835F,     0.248003051F,     -0.0980563834F,
      -0.201674432F,    -0.113531694F,    -0.0134991659F,   0.0168255512F,
      0.044792898F,     0.175672352F,     0.165681273F,     0.0223508403F,
      -0.0132603291F,   -0.102511846F,    -0.128435344F,    -0.0300870631F,
      0.0505186915F,    -0.149912149F,    0.0352257118F,    -0.0824944079F,
      0.128515124F,     0.048423294F,     0.0533106476F,    -0.00202356745F,
      0.0707123876F,    -0.0180371758F,   0.0283238664F,    -0.136309609F,
      -0.0520363972F,   0.0454065502F,    -0.068210572F,    0.0407161973F,
      0.0792676F,       0.0235273F,       0.0622042529F,    0.0727930069F,
      -0.0529243164F,   0.0707458779F,    0.0854950696F,    -0.062717244F,
      -0.0268415883F,   0.069153443F,     -0.0334307328F,   -0.0803938F,
      -0.154185653F,    -0.00597122777F,  0.0360143818F,    0.0789975375F,
      0.134385213F,     0.0408032201F,    0.0207949057F,    -0.117729194F,
      0.0720229894F,    -0.2898103F,      -0.0562970825F,   0.0888763815F,
      -0.139690906F,    0.178341731F,     -0.0251001138F,   0.140585735F,
      -0.048750069F,    -0.0575543158F,   0.0844351947F,    0.0701764449F,
      0.0658796355F,    0.0587142184F,    -0.127424151F,    -0.0278998502F,
      -0.135316253F,    0.15919514F,      -0.111024082F,    -0.0134583581F,
      0.0327468254F,    0.103301987F,     -0.12596415F,     0.0272984821F,
      -0.0176957529F,   -0.0568781681F,   0.170439124F,     -0.00308813015F,
      0.00496584782F,   -0.110996075F,    0.0657078847F,    0.104347043F,
      0.0676214F,       -0.0511786453F,   -0.074040927F,    -0.131062344F,
      -0.0497319363F,   -0.0764109716F,   0.146989286F,     0.0921704769F,
      -0.00718413573F,  0.0641156F,       -0.0187791418F,   -0.0219285302F,
      -0.125818461F,    -0.10186331F,     -0.0166250188F,   0.0986646637F,
      0.0551445819F,    -0.0714269F,      0.0786558837F,    -0.0529178828F,
      0.014707421F,     -0.0634698495F,   -0.0624974F,      -0.0535358861F,
      0.112361081F,     -0.0423343F,      0.0635253415F,    0.0219152104F,
      -0.184071332F,    0.0750986785F,    -0.0630686879F,   0.0675773546F,
      0.0312009268F,    0.192002818F,     0.0270691104F,    -0.156974062F,
      0.0557410568F,    -0.0493274517F,   -0.231734395F,    -0.0897706449F,
      -0.0341249369F,   0.0194483232F,    0.0856614411F,    0.101232633F,
      0.0671802536F,    -0.1254621F,      0.0340779945F,    -0.0537363701F,
      -0.154390663F,    0.114149868F,     0.00655581802F,   -0.0688219145F,
      0.0772908852F,    0.0295923632F,    -0.00764300581F,  0.133848622F,
      -0.0938505754F,   0.0260969624F,    -0.010568643F,    0.100779206F,
      0.147504643F,     0.0397811793F,    0.144542634F,     -0.119639039F,
      -0.0667224601F,   0.0674584731F,    0.0943261161F,    0.0816425532F,
      -0.016600335F,    0.071103707F,     0.0880110413F,    -0.0247676261F,
      -0.00140121114F,  0.0370276645F,    0.0706343129F,    0.0398449451F,
      0.0141625796F,    0.00521771F,      0.0720394254F,    -0.0205260739F,
      0.0767424926F,    0.0276914146F,    0.0650110617F,    -0.0266880952F,
      0.0627875105F,    -0.0510220565F,   -0.0465744585F,   0.0951898545F,
      0.0491351038F,    -0.0291741211F,   -0.0695990622F,   0.00220469828F,
      0.0764277801F,    -0.0157691166F,   -0.132002816F,    0.0688393787F,
      -0.0614292771F,   0.00620994531F,   0.0443677194F,    0.0549228787F,
      0.00319214584F,   0.0407388285F,    0.131929472F,     0.0279973783F,
      0.035017319F,     -0.0938216746F,   -0.0165188108F,   -0.0433352031F,
      -0.0890338421F,   0.0940118805F,    0.038259875F,     0.0186011102F,
      -0.061705932F,    -0.0409235507F,   -0.0156527683F,   -0.0442096367F,
      -0.0923095867F,   -0.073993437F,    -0.0747450367F,   0.141867921F,
      0.00699192379F,   -0.0307813138F,   0.0806731582F,    0.0905324444F,
      -0.0577492155F,   0.0420096479F,    -0.073357977F,    -0.071646817F,
      -0.0239914265F,   0.00998838525F,   0.0276599824F,    -0.015676897F,
      -0.0584210791F,   0.0961593091F,    -0.0561345816F,   0.0419226065F,
      0.0707484782F,    0.0262369756F,    -0.0146778589F,   -0.0492187217F,
      -0.0437374301F,   0.00921235234F,   -0.0010614671F,   -0.0886707753F,
      0.090295285F,     -0.0344823673F,   -0.0438108146F,   -0.0812471583F,
      0.00250434F,      -0.051739417F,    -0.0487641F,      -0.014915132F,
      -0.0444840156F,   0.0939061642F,    -0.0694619417F,   -0.0872804374F,
      0.00816116855F,   0.0715786442F,    0.0796907246F,    0.0704153106F,
      -0.0160454307F,   0.0388689041F,    0.0882432684F,    -0.0760581F,
      -0.0441416651F,   0.00664522732F,   -0.0941856131F,   -0.0744555667F,
      -0.000519593188F, -0.0695065856F,   0.0732522607F,    -0.0340990163F,
      0.0729179084F,    -0.0433485135F,   -0.0706276819F,   0.0111961178F,
      0.00875664F,      0.0563542284F,    0.0668657646F,    0.0139937F,
      -0.0279231891F,   0.0572501495F,    -0.0627395138F,   -0.0589650273F,
      -0.0722122639F,   0.0303870924F,    0.0774283931F,    0.121926039F,
      0.0514973067F,    0.0689388886F,    0.0327469893F,    0.0649086758F,
      0.050336156F,     0.0574563183F,    -0.0635091439F,   -0.00187168387F,
      -0.0200751945F,   -0.0387120545F,   -0.0762949437F,   -0.0264010187F,
      -0.0581813604F,   -0.057634823F,    0.0698714256F,    0.0423675813F,
      0.00721064396F,   0.0443011448F,    0.00445565255F,   0.0073140827F,
      0.010080453F,     -0.125150517F,    0.0250108596F,    0.172381312F,
      -0.00419250736F,  -0.03297567F,     0.0733762234F,    -0.00828637F,
      0.0343569256F,    0.0115585048F,    0.009861839F,     0.11796771F,
      0.0452751108F,    -0.000877085433F, -0.0572163053F,   -0.0923112F,
      -0.0925017595F,   -0.0766085312F,   -0.0436710864F,   0.0438492857F,
      0.0921066701F,    -0.0779677927F,   0.0470541269F,    -0.0321500488F,
      0.0122675039F,    0.0260459892F,    0.0103418352F,    -0.0192637444F,
      -0.00180690584F,  0.0253168736F,    -0.0548279658F,   0.0669633448F,
      -0.000207240839F, 0.0641126782F,    -0.0815768391F,   0.0643347725F,
      -0.0188545045F,   0.0289268214F,    0.0279172268F,    -0.0866388232F,
      -0.0451255403F,   -0.0755321F,      -0.00928388815F,  -0.0263976827F,
      -0.0164314713F,   0.0340942293F,    0.0642474517F,    -0.0188843124F,
      0.0615340024F,    0.0711408481F,    0.00594309485F,   -0.0684379414F,
      -0.0465843752F,   0.0796475857F,    0.053990446F,     0.0348190814F,
      0.0187887866F,    0.0878004134F,    0.109996989F,     0.0170084722F,
      -0.0271386914F,   0.0299268942F,    0.0649359673F,    0.027159771F,
      0.00774922781F,   0.0798114911F,    -0.0243632719F,   0.00563985528F,
      0.146135405F,     -0.0257446133F,   -0.0328712799F,   -0.00737473089F,
      -0.111106493F,    0.144327983F,     0.0353923589F,    0.00473693898F,
      -0.06728632F,     0.0867091343F,    -0.0347460322F,   0.00896979123F,
      -0.0660056397F,   0.0711135715F,    0.0477753915F,    -0.0673543066F,
      -0.0147060435F,   -0.0720332935F,   -0.0462473407F,   -0.00134146819F,
      -0.0763231143F,   0.00712804962F,   0.0584828146F,    0.0874298289F,
      -0.024819022F,    -0.0404013023F,   0.0241376944F,    -0.036962118F,
      -0.052090358F,    0.00133740192F,   0.0815700367F,    0.0711576268F,
      -0.0108717019F,   -0.00841206685F,  -0.0349017046F,   0.0823065042F,
      0.026682077F,     0.0855657682F,    0.12675637F,      -0.0212536566F,
      0.0318667144F,    -0.0842790157F,   -0.071498394F,    0.00471682893F,
      0.0466441251F,    -0.06571199F,     0.073403582F,     -0.0616380833F,
      -0.0230807792F,   0.0751407892F,    -0.0172530469F,   -0.0209597498F,
      -0.101705067F,    -0.039179258F,    0.100456342F,     -0.0527508408F,
      0.0393943377F,    -0.0955997407F,   -0.0467196219F,   0.0986756384F,
      0.117904402F,     -0.087460421F,    0.00146426493F,   -0.0358029194F,
      -0.0107416818F,   -0.0199566893F,   -0.0978821516F,   -0.110279217F,
      -0.0557686165F,   -0.0941008106F,   0.109060459F,     -0.0295817629F,
      -0.031157909F,    0.0636468753F,    -0.1217167F,      0.167387933F,
      0.0572500788F,    0.0419513062F,    -0.104762785F,    0.147683769F,
      -0.177584603F,    0.0234769527F,    -0.0469425023F,   0.0173604F,
      -0.0328264087F,   0.0481051F,       0.0297049284F,    0.0545298494F,
      -0.00414824951F,  -0.100873403F,    0.0236950573F,    -0.0191368144F,
      -0.0224476531F,   0.0119342823F,    0.0359386392F,    0.0105666798F,
      -0.0490097031F,   -0.105473451F,    -0.0437928028F,   -0.126678839F,
      0.0932156444F,    0.024275694F,     -0.0583128333F,   -0.00271968171F,
      -0.0310964957F,   -0.0452757366F,   0.051664032F,     -0.100686729F,
      0.11578811F,      -0.0259891115F,   -0.0550960675F,   -0.0631301254F,
      -0.0793747306F,   -0.110152982F,    -0.0102897407F,   -0.0577489324F,
      0.0315631367F,    -0.015781207F,    -0.0207002852F,   0.101659596F,
      -0.0192267857F,   0.0876411349F,    -0.0392250977F,   0.0307840556F,
      -0.00132284127F,  0.0532127507F,    -0.0451417565F,   0.012889375F,
      -0.0437480807F,   -0.0221261363F,   0.130703598F,     -0.0927450135F,
      -0.0968885943F,   -0.000221853348F, 0.0229156222F,    -0.0292992126F,
      -0.104855247F,    -0.0676859319F,   -0.0961450413F,   0.0971988589F,
      -0.00834489055F,  0.0601388924F,    -0.0798215196F,   0.25854373F,
      0.09413708F,      -0.137789041F,    -0.228794783F,    0.0711110681F,
      -0.031355191F,    -0.01718737F,     0.0120418789F,    0.0495165698F,
      -0.128529653F,    -0.0598083884F,   -0.0516698472F,   -0.115900077F,
      0.0095816981F,    -0.0788534582F,   0.055779051F,     -0.00820856448F,
      0.156300649F,     -0.0996022522F,   -0.0353835151F,   -0.156369939F,
      0.1179519F,       -0.0587236695F,   0.075076811F,     -0.165115699F,
      0.0861624F,       -0.0742354542F,   -0.0623976663F,   0.0327184573F,
      -0.0462244563F,   -0.00230969F,     0.0668545216F,    0.0380069464F,
      -0.00402135402F,  0.0277337451F,    -0.000698499382F, -0.0398935154F,
      -0.0518556535F,   -0.0720472634F,   0.0340027846F,    -0.0141563332F,
      -0.0219276492F,   0.0370827094F,    -0.012144438F,    0.125623897F,
      -0.0581408776F,   -0.0436204597F,   0.00170295138F,   -0.0210147724F,
      -0.0466812626F,   -0.116844214F,    -0.0422376432F,   0.0459514819F,
      -0.00218308577F,  -0.0536193885F,   0.114613891F,     -0.0470730402F,
      0.389554471F,     -0.210907444F,    -0.216957778F,    -0.0770098716F,
      -0.163669378F,    -0.00635199388F,  -0.224869877F,    0.227038175F,
      -0.0628519431F,   -0.0923802927F,   -0.143437937F,    0.0587712228F,
      -0.273789227F,    0.357676804F,     0.211949497F,     -0.190524578F,
      0.128797829F,     -0.0927928761F,   -0.0448143445F,   -0.174641594F,
      -0.0509501211F,   0.22356084F,      -0.129647076F,    0.13588582F,
      0.132075131F,     -0.195078596F,    0.318678826F,     -0.161646351F,
      -0.010558526F,    -0.14793402F,     0.0566076115F,    -0.126674116F,
      0.15801394F,      0.00775761157F,   0.0623875111F,    -0.00460071582F,
      0.177971184F,     -0.0841889083F,   0.0701912F,       -0.0192443803F,
      0.0249400865F,    -0.0449005701F,   0.0575664192F,    0.0335090533F,
      -0.039172858F,    0.0507078283F,    -0.0280403271F,   0.076841563F,
      0.0413328931F,    0.0118793054F,    -0.0586400181F,   -0.0644202456F,
      -0.0836776569F,   -0.000231036538F, 0.075286217F,     -0.102026016F,
      0.0352422148F,    0.0535444953F,    0.0718571097F,    -0.0111098364F,
      0.137751982F,     0.0821464583F,    -0.0351348035F,   -0.172905713F,
      0.0331711583F,    0.00773536786F,   0.11099837F,      0.00229950296F,
      0.224006012F,     -0.0237886794F,   0.330642819F,     -0.103188172F,
      -0.242587313F,    -0.151395515F,    0.0424675718F,    0.0135620125F,
      -0.13837108F,     0.0246056207F,    0.191949919F,     -0.249310613F,
      -0.158437684F,    0.079069294F,     -0.340112209F,    0.370251089F,
      0.18570219F,      -0.0633581281F,   0.0030364152F,    0.0330210626F,
      -0.0912125632F,   -0.148646533F,    -0.132291436F,    0.0849986672F,
      0.0175927542F,    0.388671845F,     0.122344606F,     -0.120138988F,
      0.100522421F,     -0.123216957F,    -0.171158358F,    0.00674240943F,
      -0.0406128392F,   -0.0609308742F,   0.159925684F,     -0.0488992557F,
      0.0148315681F,    0.135065556F,     0.0812264383F,    -0.0410395376F,
      -0.0306221955F,   -0.00652714912F,  -0.10579215F,     -0.0975380093F,
      0.0948591456F,    0.0678474084F,    -0.00618933281F,  0.0469070859F,
      0.0470761F,       0.0448011309F,    -0.0347526632F,   0.0836554542F,
      0.0205447953F,    -0.0184550788F,   -0.0889221206F,   0.00165867875F,
      -0.0419386961F,   0.0214147698F,    -0.0895672217F,   0.0589696F,
      -0.123558357F,    -0.013194087F,    0.0936837569F,    -0.0777104124F,
      -0.0403923281F,   0.00375560764F,   0.0103821149F,    -0.0308545176F,
      0.0370689221F,    -0.0540697761F,   -0.0918566138F,   -0.155547649F,
      0.0171833578F,    0.0187960174F,    -0.0995111F,      -0.106610544F,
      -0.00685763359F,  -0.0657714F,      0.127839491F,     -0.105013333F,
      -0.00824056286F,  -0.140555859F,    -0.0159797817F,   0.138724461F,
      -0.0725575387F,   -0.0246921442F,   0.0307158437F,    -0.0801367536F,
      0.146821246F,     0.102496475F,     -0.138854116F,    -0.0869111493F,
      0.0281585567F,    0.192563921F,     0.0216859393F,    0.0172806028F,
      0.0609779097F,    0.0216015726F,    0.0518621318F,    0.0867053792F,
      0.00884811394F,   0.0356685556F,    -0.063324146F,    -0.0339384601F,
      0.162683934F,     -0.0319792293F,   0.131513566F,     -0.0359920673F,
      0.0457655229F,    -0.013313299F,    -0.0681426525F,   0.0424452834F,
      -0.0917691588F,   -0.0724434406F,   0.095672071F,     -0.107735947F,
      -0.00878271833F,  0.105677448F,     0.021442825F,     0.0463319421F,
      0.0303281285F,    -0.0442137569F,   0.033744622F,     -0.069847852F,
      -0.0853274688F,   -0.0232596025F,   0.0713469461F,    0.0205385666F,
      0.0592204034F,    -0.0441901609F,   -0.00975613F,     -0.0175077897F,
      0.0259694699F,    -0.055747252F,    0.00801460724F,   0.0547147132F,
      0.0663606748F,    0.0553575344F,    -0.172031417F,    0.117886022F,
      0.245487258F,     -0.068429023F,    0.00834087376F,   -0.0376585275F,
      -0.105069682F,    -0.117918134F,    0.370372713F,     -0.151681423F,
      0.128989518F,     -0.167587891F,    0.0690131262F,    -0.0633408204F,
      0.0486903191F,    -0.0291529484F,   -0.0146215567F,   -0.25724262F,
      0.323394597F,     -0.126749203F,    0.0881608F,       -0.115334898F,
      -0.0967484117F,   -0.0786619782F,   -0.0217160825F,   0.0243938155F,
      -0.0960747F,      -0.0178582631F,   -0.043476928F,    0.0406459682F,
      -0.0345943272F,   -0.013016738F,    0.00409364421F,   -0.0582202896F,
      -0.0474889614F,   0.0394069217F,    -0.0857251883F,   -0.0213346258F,
      -0.0588101F,      0.0568300672F,    -0.0239522103F,   0.0320565589F,
      -0.164902374F,    -0.050135944F,    -0.0283226892F,   -0.00322796358F,
      0.018785378F,     -0.018122131F,    0.121238597F,     -0.0301180072F,
      -0.000667953631F, -0.0259983633F,   -0.180969015F,    0.103566594F,
      -0.115285642F,    -0.219598114F,    0.0448287837F,    0.203664586F,
      -0.00246647885F,  -0.118200228F,    0.200808808F,     -0.00147516443F,
      0.0431113318F,    -0.135495827F,    -0.150364131F,    -0.161064699F,
      0.00175322115F,   0.154690593F,     0.187719092F,     -0.197657496F,
      -0.0523541383F,   0.150685593F,     0.147425488F,     -0.101265609F,
      -0.148538291F,    -0.260584623F,    0.053016752F,     -0.0688105F,
      0.338683039F,     -0.123158492F,    -0.115284353F,    0.00837839F,
      0.197441369F,     -0.0156543981F,   0.028126359F,     -0.148514867F,
      -0.113133207F,    -0.0571268387F,   0.35162124F,      0.0634064898F,
      0.0162532497F,    -0.283810139F,    0.10948433F,      -0.131327644F,
      0.168798149F,     -0.00994771253F,  -0.033559639F,    0.0262184832F,
      0.138592884F,     0.0128986174F,    0.0878020227F,    -0.145822078F,
      -0.0929807052F,   0.0654532313F,    -0.0886376F,      -0.0232027043F,
      0.0370513387F,    -0.0756063759F,   -0.00372963725F,  -0.0348409265F,
      -0.00391732715F,  0.0648783073F,    -0.117698222F,    -0.0411923F,
      -0.100131951F,    0.0363913812F,    0.00832657889F,   -0.111880675F,
      -0.0943288133F,   0.0147243179F,    0.133054376F,     0.032745719F,
      -0.0542881265F,   0.0450182036F,    0.020780744F,     -0.0799789801F,
      0.158258438F,     -0.00824694335F,  0.0463893674F,    -0.121822625F,
      0.216855243F,     -0.0948009714F,   -0.0400684439F,   -0.0475742258F,
      -0.275553167F,    -0.124629155F,    -0.0712730065F,   0.159304321F,
      0.0608161613F,    -0.327181369F,    0.154615149F,     0.160033345F,
      0.194125414F,     -0.133635432F,    -0.0465375036F,   -0.199439883F,
      0.0470943414F,    0.0270126928F,    0.346064925F,     -0.0845313892F,
      -0.129714832F,    0.108104087F,     0.00375599531F,   0.0750738904F,
      -0.0255221948F,   -0.176272407F,    -0.0388953499F,   0.00439189142F,
      0.192898527F,     0.117354035F,     -0.165709779F,    -0.150384456F,
      0.0429343358F,    -0.0953300446F,   0.202506348F,     -0.0536789671F,
      -0.0900531039F,   0.00495376391F,   0.0417473651F,    0.121810988F,
      -0.100111373F,    -0.19437255F,     -0.0767751485F,   0.0951008573F,
      -0.0226401873F,   0.0434167422F,    -0.0904262438F,   0.0540826805F,
      0.0714105144F,    -0.0203603078F,   0.0413634814F,    0.00474931439F,
      -0.0462444723F,   -0.0220933873F,   -0.0469064452F,   -0.00288860779F,
      -0.0582072921F,   -0.14701657F,     -0.092108354F,    0.0256094206F,
      0.135824412F,     0.187538624F,     0.0655586645F,    -0.166312009F,
      0.0792162791F,    -0.0753636062F,   -0.0349946953F,   -0.105365783F,
      -0.191467315F,    0.119810604F,     0.0117739877F,    0.0160552226F,
      -0.0478739887F,   0.0758793727F,    -0.0615725778F,   -0.0858930796F,
      0.0735762268F,    -0.00366565329F,  0.177382991F,     -0.141060561F,
      0.37527588F,      -0.140952751F,    -0.0814215F,      0.14101024F,
      -0.00727207679F,  0.0105403922F,    0.127683118F,     -0.06276761F,
      0.1033848F,       0.00714357244F,   0.00826082751F,   0.00430901442F,
      0.0642982125F,    0.0663569048F,    0.0621724389F,    -0.155111581F,
      0.105356157F,     -0.0706206784F,   0.0035657112F,    0.0186135974F,
      -0.131180629F,    -0.0456766747F,   -0.0818563774F,   -0.059257444F,
      0.199648678F,     0.00952971634F,   0.0398736745F,    -0.0966710597F,
      0.0164291989F,    0.114000402F,     -0.0512645729F,   -0.0392215922F,
      -0.0481178127F,   0.0137566095F,    -0.048177097F,    0.0786953047F,
      0.0936722383F,    -0.0982773229F,   0.044500228F,     0.0213385951F,
      -0.0681013614F,   -0.0463381447F,   0.109891735F,     -0.109304741F,
      -0.017023094F,    0.12970607F,      -0.0172905512F,   -0.147865787F,
      -0.0160387065F,   -0.0219684038F,   0.00941190682F,   0.0464478135F,
      0.0866969749F,    -0.0888583735F,   0.0645621F,       -0.000407673622F,
      -0.0628351F,      -0.191573292F,    -0.0385855213F,   -0.0706469789F,
      0.0506385528F,    0.187167466F,     0.0384434126F,    -0.103889503F,
      0.0656078309F,    -0.161589146F,    0.0135465683F,    0.254100263F,
      -0.0218407102F,   0.0566572659F,    -0.0711319372F,   0.0982008576F,
      -0.0366247557F,   0.0438491F,       -0.0820237696F,   -0.0470992066F,
      0.103094339F,     0.0249146726F,    -0.0478081107F,   -0.0386218578F,
      0.0468114913F,    0.0411359519F,    -0.0169913359F,   0.00332028535F,
      0.0515102111F,    -0.0141094057F,   0.115837589F,     0.0740658268F,
      0.0146946851F,    0.0269209146F,    -0.0541730374F,   -0.0894079357F,
      0.0865109265F,    0.0163310394F,    0.0543735474F,    0.0846011043F,
      0.0820862F,       0.00104965561F,   0.00499398541F,   0.038593851F,
      -0.025101494F,    -0.0530416F,      0.0188284591F,    -0.0227857716F,
      0.085506F,        0.0489249416F,    0.0729101449F,    0.0569227859F,
      -0.032425981F,    -0.0763822645F,   0.00830922741F,   -0.0192075111F,
      -0.000565114F,    -0.0130498763F,   -0.0331843607F,   -0.0112094786F,
      0.0420043655F,    -0.0163996797F,   -0.04279292F,     -0.0994708911F,
      0.103039809F,     0.0495655388F,    0.100670457F,     -0.0160284527F,
      0.0345249809F,    0.0461390764F,    0.0187559072F,    0.00293272408F,
      -0.0846866593F,   0.0170841422F,    0.039026808F,     -0.0192770958F,
      0.0203761328F,    0.0772143F,       0.00570752192F,   0.0476190597F,
      0.0730594769F,    0.090379186F,     0.0553941466F,    0.0297627524F,
      0.102415636F,     -0.04981222F,     -0.0366522633F,   0.056125138F,
      0.0254301429F,    0.0251413789F,    -0.0102829607F,   -0.0698329583F,
      -0.0855639353F,   0.0741420239F,    0.059657976F,     0.0329628773F,
      0.0279750489F,    -0.0177525058F,   0.0294029545F,    0.027792953F,
      0.0295357108F,    -0.0805496499F,   0.082588166F,     -0.0705671459F,
      0.043493934F,     -0.0734658539F,   -0.0358382463F,   0.096517235F,
      0.0366684645F,    0.0236225259F,    -0.0391210392F,   -0.085855186F,
      -0.048204381F,    0.0340476148F,    -0.0676736832F,   0.0238718204F,
      0.0134351877F,    0.0198737439F,    -0.0708837956F,   0.0487880744F,
      -0.0775143355F,   -0.0611444041F,   -0.0492540039F,   -0.0612982586F,
      -0.083033815F,    -0.0889377F,      0.0608418174F,    -0.0740406662F,
      0.0161730461F,    -0.0127953924F,   0.0377280973F,    -0.065612793F,
      0.0886855423F,    0.00832282845F,   0.0216154661F,    0.03154964F,
      -0.0713358298F,   0.048517365F,     0.0659499168F,    0.0774009228F,
      0.0772601888F,    -0.00190711673F,  0.0263916273F,    0.0206728242F,
      0.042839393F,     0.0956315771F,    0.0578298718F,    0.0783576593F,
      -0.0752690062F,   0.0138029968F,    0.0889547467F,    -0.0714340284F,
      0.0230038054F,    -0.0386540368F,   -0.0494244695F,   0.0843726769F,
      0.0477794185F,    -0.0669392198F,   0.0877290443F,    0.00863731466F,
