/*
 * Academic License - for use in teaching, academic research, and meeting
 * course requirements at degree granting institutions only.  Not for
 * government, commercial, or other organizational use.
 * File: callPredict.c
 *
 * MATLAB Coder version            : 24.2
 * C/C++ source code generated on  : 11-Mar-2025 17:19:10
 */

/* Include Files */
#include "callPredict.h"
#include "SoftmaxLayer.h"
#include "conv2dDirectOptimizedColMajor.h"
#include "digitsNetPredict_internal_types.h"
#include "rt_nonfinite.h"
#include <math.h>
#include <string.h>

/* Function Declarations */
static int div_nde_s32_floor(int numerator);
static int div_s32_floor(int numerator, int denominator);
static void macroKernel1(int M, int K, int N, const float *A, int LDA, const
  float *B, int LDB, float *C, int LDC);
static void matrixMultiply1(int M, int K, int N, int blockSizeM, int blockSizeK,
  int blockSizeN, const float *A, const float *B, float *C);
static void microKernel11(int K, const float *A, int LDA, const float *B, float *
  C);
static void microKernel12(int K, const float *A, int LDA, const float *B, float *
  C);

/* Function Definitions */
/*
 * Arguments    : int numerator
 * Return Type  : int
 */
static int div_nde_s32_floor(int numerator)
{
  int quotient;
  if ((numerator < 0) && (numerator % 7 != 0)) {
    quotient = -1;
  } else {
    quotient = 0;
  }

  quotient += numerator / 7;
  return quotient;
}

/*
 * Arguments    : int numerator
 *                int denominator
 * Return Type  : int
 */
static int div_s32_floor(int numerator, int denominator)
{
  int quotient;
  if (denominator == 0) {
    if (numerator >= 0) {
      quotient = MAX_int32_T;
    } else {
      quotient = MIN_int32_T;
    }
  } else {
    unsigned int absDenominator;
    unsigned int absNumerator;
    unsigned int tempAbsQuotient;
    bool quotientNeedsNegation;
    if (numerator < 0) {
      absNumerator = ~(unsigned int)numerator + 1U;
    } else {
      absNumerator = (unsigned int)numerator;
    }

    if (denominator < 0) {
      absDenominator = ~(unsigned int)denominator + 1U;
    } else {
      absDenominator = (unsigned int)denominator;
    }

    quotientNeedsNegation = ((numerator < 0) != (denominator < 0));
    tempAbsQuotient = absNumerator / absDenominator;
    if (quotientNeedsNegation) {
      absNumerator %= absDenominator;
      if (absNumerator > 0U) {
        tempAbsQuotient++;
      }

      quotient = -(int)tempAbsQuotient;
    } else {
      quotient = (int)tempAbsQuotient;
    }
  }

  return quotient;
}

/*
 * Arguments    : int M
 *                int K
 *                int N
 *                const float *A
 *                int LDA
 *                const float *B
 *                int LDB
 *                float *C
 *                int LDC
 * Return Type  : void
 */
static void macroKernel1(int M, int K, int N, const float *A, int LDA, const
  float *B, int LDB, float *C, int LDC)
{
  int idxB;
  int j;
  j = 0;
  idxB = 0;
  while (j <= N - 1) {
    int i;
    int idxA;
    int idxC;
    idxC = LDC * j;
    i = 0;
    idxA = 0;
    while (i <= M - 7) {
      microKernel11(K, &A[idxA], LDA, &B[idxB], &C[idxC]);
      idxA += 7;
      idxC += 7;
      i += 7;
    }

    while (i <= M - 1) {
      microKernel12(K, &A[idxA], LDA, &B[idxB], &C[idxC]);
      idxA++;
      idxC++;
      i++;
    }

    idxB += LDB;
    j++;
  }
}

/*
 * Arguments    : int M
 *                int K
 *                int N
 *                int blockSizeM
 *                int blockSizeK
 *                int blockSizeN
 *                const float *A
 *                const float *B
 *                float *C
 * Return Type  : void
 */
static void matrixMultiply1(int M, int K, int N, int blockSizeM, int blockSizeK,
  int blockSizeN, const float *A, const float *B, float *C)
{
  int b_j1;
  int i0;
  int i0_ub;
  int k0;
  int k0_ub;
  memset(C, 0, (unsigned int)((M * N) << 2));
  if (blockSizeM >= M) {
    blockSizeM = M;
  } else {
    blockSizeM = div_nde_s32_floor(blockSizeM) * 7;
    if (blockSizeM <= 0) {
      blockSizeM = 1;
    }
  }

  if (blockSizeN >= N) {
    blockSizeN = N;
  } else if (blockSizeN <= 0) {
    blockSizeN = 1;
  }

  i0_ub = div_s32_floor(M - 1, blockSizeM) + 1;
  k0_ub = div_s32_floor(K - 1, blockSizeK) + 1;
  for (b_j1 = 0; b_j1 < N; b_j1 += blockSizeN) {
    int N2;
    if (b_j1 > N - blockSizeN) {
      N2 = N - b_j1;
    } else {
      N2 = blockSizeN;
    }

    for (k0 = 1; k0 <= k0_ub; k0++) {
      int K2;
      int k;
      k = (k0 - 1) * blockSizeK;
      if (k > K - blockSizeK) {
        K2 = K - k;
      } else {
        K2 = blockSizeK;
      }

      for (i0 = 1; i0 <= i0_ub; i0++) {
        int b_i;
        int i;
        i = (i0 - 1) * blockSizeM;
        if (i > M - blockSizeM) {
          b_i = M - i;
        } else {
          b_i = blockSizeM;
        }

        macroKernel1(b_i, K2, N2, &A[i + M * k], M, &B[k + K * b_j1], K, &C[i +
                     M * b_j1], M);
      }
    }
  }
}

/*
 * Arguments    : int K
 *                const float *A
 *                int LDA
 *                const float *B
 *                float *C
 * Return Type  : void
 */
static void microKernel11(int K, const float *A, int LDA, const float *B, float *
  C)
{
  float b_c;
  float c;
  float c_c;
  float d_c;
  float e_c;
  float f_c;
  float g_c;
  int idxA;
  int idxB;
  int k;
  idxA = 0;
  idxB = 0;
  c = C[0];
  b_c = C[1];
  c_c = C[2];
  d_c = C[3];
  e_c = C[4];
  f_c = C[5];
  g_c = C[6];
  for (k = 0; k < K; k++) {
    float b;
    b = B[idxB];
    c += A[idxA] * b;
    b_c += A[idxA + 1] * b;
    c_c += A[idxA + 2] * b;
    d_c += A[idxA + 3] * b;
    e_c += A[idxA + 4] * b;
    f_c += A[idxA + 5] * b;
    g_c += A[idxA + 6] * b;
    idxA += LDA;
    idxB++;
  }

  C[0] = c;
  C[1] = b_c;
  C[2] = c_c;
  C[3] = d_c;
  C[4] = e_c;
  C[5] = f_c;
  C[6] = g_c;
}

/*
 * Arguments    : int K
 *                const float *A
 *                int LDA
 *                const float *B
 *                float *C
 * Return Type  : void
 */
static void microKernel12(int K, const float *A, int LDA, const float *B, float *
  C)
{
  float c;
  int idxA;
  int idxB;
  int k;
  idxA = 0;
  idxB = 0;
  c = C[0];
  for (k = 0; k < K; k++) {
    c += A[idxA] * B[idxB];
    idxA += LDA;
    idxB++;
  }

  C[0] = c;
}

/*
 * Arguments    : c_coder_internal_ctarget_DeepLe *obj
 *                const float inputsT_0_f1[784]
 *                float outputs_0_f1[10]
 * Return Type  : void
 */
void DeepLearningNetwork_callPredict(c_coder_internal_ctarget_DeepLe *obj, const
  float inputsT_0_f1[784], float outputs_0_f1[10])
{
  static const float t0_Weights[15680] = { 0.0138710458F, 0.024659019F,
    0.0344908573F, -0.0287418682F, 0.00787900761F, 0.0174934492F, -0.0182823725F,
    -0.0300442781F, -0.0496185869F, -0.0502885953F, 0.0486592F, -0.0509331F,
    -0.0555868074F, -0.0591300614F, 0.0105193676F, -0.0272745732F, 0.0225219075F,
    -0.0519876257F, 0.0373283513F, 0.0155881168F, 0.0231032632F, 0.0109050656F,
    0.0389086157F, 0.0484876037F, -0.0444018282F, -0.0359919854F, -0.0557170585F,
    -0.0137696434F, 0.061291F, -0.0123958522F, -0.0580585822F, 0.0475445502F,
    -0.0296584852F, 0.033286158F, -0.000321403466F, 0.01808252F, -0.0599309169F,
    0.0341231935F, -0.037209779F, 0.0226543657F, -0.0562170669F, 0.012552768F,
    0.0796569511F, 0.00835403F, -0.0610215925F, 0.0271013286F, 0.0569043346F,
    0.0613225363F, 0.0251549669F, -0.0632195F, -0.041595798F, 0.0154962773F,
    0.0621607155F, -0.0396240577F, -0.0478359312F, -0.0561096594F,
    -0.0174206682F, 0.0272830762F, 0.024279194F, 0.0431417041F, 0.0579711795F,
    -0.0198668614F, -0.0862067342F, -0.0183573887F, 0.0723691732F,
    -0.0711256862F, 0.0398442857F, -0.0456544198F, 0.0355718359F, 0.0629641637F,
    -0.0472435094F, -0.0122182425F, 0.0111605283F, -0.0190060865F,
    -0.0510670766F, -0.022119863F, -0.0363473259F, 0.0559374F, -0.0560029559F,
    -0.0272000302F, -0.0105209965F, -0.0321046114F, 0.0443168133F, 0.0229186453F,
    0.0176980849F, -0.0505167134F, 0.00649930444F, -3.13004712E-5F,
    0.0261044521F, 0.00343775563F, 0.0146559728F, -0.00400701165F, 0.0531125441F,
    -0.0604407936F, 0.0279783215F, 0.000405843457F, 0.0782487392F, 0.018779207F,
    0.00513772108F, 0.00750481896F, 0.0459891893F, 0.0421903506F, 0.092976F,
    0.0125344666F, -0.0172269102F, 0.033004459F, -0.0417171307F, -0.0119137904F,
    -0.0420030728F, -0.043935705F, -0.0795712247F, -0.0388370082F, 0.108872108F,
    -0.0254170578F, -0.080461964F, 0.0353987329F, -0.00265670172F,
    0.00422351202F, -0.012664183F, -0.000875409285F, 0.0337474085F,
    -0.00123368436F, -0.0505061746F, -0.0162712391F, 0.0496353507F,
    0.0650741905F, -0.00845986512F, 0.0258065183F, -0.0692948774F, 0.0316113532F,
    0.0278088395F, 0.0136625683F, 0.00733689498F, 0.00979968812F, -0.0166306272F,
    -0.0322073922F, 0.00941808242F, -0.0316220857F, -0.0503242798F,
    0.0552460887F, 0.0143501442F, -0.0823063776F, 0.0221025012F, 0.0390937962F,
    0.0135990549F, 0.081203647F, 0.00731114391F, -0.0553749166F, 0.0277296472F,
    0.0588802509F, 0.0716814324F, -0.0519706421F, 0.00840874F, 0.0401933715F,
    0.00823369436F, 0.0175389796F, 0.0578527823F, 0.0238923933F, -0.00572939031F,
    -0.0399349928F, 0.0246863067F, -0.0879618302F, 0.0246251207F, 0.0276777428F,
    0.0709518343F, 0.0223394372F, 0.0772178248F, 0.0567210317F, -0.0355388261F,
    -0.0326684453F, 0.019287888F, -0.00136636768F, 0.0273760296F, -0.0331041068F,
    0.0604620837F, 0.0280916747F, 0.00489015458F, 0.0755703226F, 0.0270534176F,
    -0.0597371645F, -0.0492354035F, 0.0706869587F, 0.0167170148F, -0.0787656F,
    0.0221157279F, 0.0578394793F, 0.0238376558F, -0.0369943231F, -0.00236656098F,
    -0.00284244446F, 0.0354864635F, -0.0408759825F, -0.0429726467F,
    0.0385261849F, -0.0874225572F, 0.0544617288F, 0.0368284173F, -0.0516846F,
    -0.000454207562F, 0.0462931469F, 0.0145079959F, -0.0322603732F,
    0.0184224937F, -0.014696626F, 0.0623171069F, -0.0704867318F, -0.015841173F,
    0.0252361037F, -0.0106123295F, -0.0722676665F, -0.0767670721F,
    -0.0382909849F, -0.023693271F, -0.0077877962F, 0.0128476992F, 0.105078213F,
    0.11627765F, -0.0075920471F, -0.0031921831F, -0.0401800498F, -0.0462786369F,
    -0.0266092792F, 0.00182978495F, 0.0145002743F, 0.00264050718F,
    -0.00248278538F, 7.67179E-5F, 0.0282473061F, -0.0399627276F, 0.10201408F,
    0.0424853899F, -0.0336465463F, 0.0444096029F, 0.0404313393F, 0.0394233F,
    0.000194429085F, -0.0173329171F, -0.0161705855F, -0.0584183373F,
    0.0223815646F, -0.0247937832F, -0.0268873014F, 0.0823511109F, -0.0493284278F,
    0.0299655367F, 0.01304809F, 0.0124737266F, 0.04948695F, -0.0553176F,
    0.013688555F, -0.0366589427F, 0.0462158658F, -0.0162339434F, -0.100130424F,
    -0.0374181382F, 0.0568594411F, -0.039431449F, 0.0170148015F,
    -0.000322426873F, -0.0251867305F, -0.0183806848F, 0.0544432625F,
    0.0840341225F, -0.0808377564F, 0.0146070858F, 0.0179551989F, -0.0146533391F,
    -0.00365093141F, 0.0192663744F, 0.0440904722F, 0.0329755954F, -0.0128542455F,
    -0.0553899035F, -0.0559118576F, -0.0376755372F, -0.00178969174F,
    -0.0511700772F, 0.0130515657F, -0.00899837725F, -0.0530705154F,
    -0.0696425661F, -0.0769046098F, 0.000628777F, -0.0259190463F, 0.0534048155F,
    0.0800415203F, 0.0473673083F, 0.0144497091F, 0.0243849549F, 0.0548989028F,
    0.00661343196F, 0.00229744543F, 0.0386336036F, -0.038069915F, 0.0136957215F,
    0.0149037922F, -0.0488556325F, 0.0401769429F, -0.029242076F, 0.0923230425F,
    0.0167633183F, 0.0229919069F, 0.00853541587F, -0.0736195296F, -0.030668987F,
    0.0290930849F, 0.0227094311F, -0.0660328716F, -0.035932444F, 0.0666251108F,
    0.0283692926F, 0.0836807489F, 0.0137044964F, 0.014899021F, 0.0186061263F,
    0.026774101F, -0.000294492405F, 0.0285348315F, 0.0501312576F, -0.0401589274F,
    0.0199047308F, -0.000820581F, 0.00288248132F, -0.0825872868F, 0.029795045F,
    -0.0217796154F, -0.0280947946F, 0.0081651872F, -0.0406317785F,
    -0.0504505225F, 0.0305962488F, 0.0420019403F, 0.100455701F, 0.0526957139F,
    -0.0223748684F, 0.063352786F, 0.0460722744F, -0.0721372887F, -0.0502347872F,
    0.0134292291F, 0.0525683872F, -0.0241034087F, -0.0135278068F, 0.0634298399F,
    0.0156770293F, 0.0339594148F, -0.0328316428F, -0.0134425126F, 0.0558469668F,
    0.00703522842F, 0.0275953636F, -0.000320709602F, 0.0450662039F, 0.0450125F,
    -0.0318984687F, -0.0154841971F, -0.039405711F, 0.0625366941F, -0.0381796956F,
    -0.0553020164F, 0.0283066723F, 0.0697829649F, 0.0169002935F, -0.0587077104F,
    0.0355503745F, -0.0408029966F, -0.0185582563F, -0.0206946917F, 0.0191736054F,
    -0.00522623258F, 0.0593734309F, -0.0253862534F, -0.0314374976F, 0.00608057F,
    -0.0101567106F, 0.00026626754F, 0.0185885914F, 0.0316250511F,
    -0.00744606461F, -0.00527583435F, -0.0262853131F, 0.0718677863F,
    0.020658521F, 0.0344711207F, 0.0279810745F, -0.00177024479F, 0.00528190657F,
    -0.0142472219F, -0.00968021713F, -0.055543635F, 0.0106765917F,
    0.00145725743F, -0.0590228774F, 0.00534185953F, -0.059139777F, 0.0486259F,
    -0.0547588244F, 0.0400154553F, 0.0312792212F, 0.00849154312F, -0.0134807276F,
    -0.0397710577F, 0.0305798929F, -0.0292838719F, -0.0396178253F,
    -0.0545838289F, 0.00343108666F, -0.0313812457F, 0.00615084497F,
    -0.0061419108F, 0.0272838529F, 0.0311918706F, 0.050147146F, -0.0433059148F,
    0.0386132635F, -0.0402130187F, -0.00940387696F, -0.05330915F, 0.0133257695F,
    0.0328500047F, 0.0176616143F, -0.0584293604F, 0.0573898517F, 0.0188913364F,
    0.0147368954F, -0.000230628779F, -0.0176409911F, 0.0462095104F,
    0.0757448673F, 0.0411860459F, -0.0108442986F, -0.0648985729F, -0.043712616F,
    0.039560955F, 0.0532830469F, 0.00712960353F, 0.0110435309F, -0.0120572299F,
    0.0249827765F, -0.0152133368F, 0.0374774337F, 0.0718832761F, 0.0326114073F,
    -0.0137829287F, 0.0152760958F, 0.0461886637F, -0.0552439094F, 0.0621867441F,
    0.00779678812F, -0.0174744334F, 0.010929375F, -0.0132457735F, 0.0608836226F,
    -0.0711485296F, -0.0504663177F, 0.0146421846F, 0.00175859779F, 0.0373685397F,
    -0.0514955297F, 0.0211799908F, 0.0186058246F, -0.0352138057F, 0.00518200267F,
    -0.0280112978F, -0.0707811117F, -0.0353894047F, -0.0354876108F,
    0.0385177657F, 0.0431608893F, 0.046632424F, 0.0209514741F, 0.00414060662F,
    -0.058449883F, 0.0320583098F, 0.0223696269F, 0.0246763062F, 0.0334936604F,
    -0.0434918627F, 0.0400338471F, 0.0287907068F, 0.0257769842F, 0.028454259F,
    0.042857483F, -0.00734698959F, -0.0260638017F, 0.0562989227F, 0.0568437055F,
    -0.0459777489F, 0.0243248846F, 0.0262561981F, -0.0107589234F, -0.0125471363F,
    -0.00644450122F, 0.0556609593F, -0.00346900104F, 0.0170932058F,
    -0.0497724228F, 0.0634499565F, 0.00616315659F, 0.0269070193F, -0.0575295463F,
    -0.017416032F, -0.032238F, 0.0456903875F, 0.0199175775F, 0.0628510416F,
    0.0162986126F, 0.0573720671F, 0.0371722616F, 0.0226896573F, -0.00867499597F,
    -0.0150860529F, -0.00311231171F, 0.0149139613F, 0.0167236775F,
    -0.0154327704F, 0.0423264019F, 0.044143986F, -0.0104739675F, 0.0516506694F,
    0.0347384438F, -0.0490684547F, 0.0450608842F, 0.0953940749F, -0.0162350629F,
    0.0249684285F, -0.0398718752F, 0.0824477375F, -0.0707953349F, 0.0534827635F,
    0.0399195962F, -0.0464418F, 0.0450384915F, -0.0267111044F, -0.072785072F,
    0.0232015979F, -0.0268389955F, -0.0177984033F, -0.0217001F, -0.0449907F,
    0.051491674F, 0.0510896146F, -0.0451027043F, 0.0173775479F, 0.0717238709F,
    0.0512420572F, -0.042286288F, -0.0257140715F, 8.28309712E-5F, 0.0103079183F,
    -0.00203874358F, 0.0304045472F, 0.0299213212F, -0.0371243916F,
    -0.0110465791F, 0.0112088453F, -0.00737770088F, -0.0169704743F,
    0.0328935049F, 0.058511015F, 0.0449215099F, 0.0580638796F, -0.00555664953F,
    0.00807672087F, -0.0351099521F, -0.0421398543F, -0.00656377245F,
    0.0350976475F, -0.0238309782F, -0.0453583151F, -0.033735279F,
    -0.00424972177F, 0.00142359978F, 0.012447943F, 0.0779447332F,
    -0.00817590579F, 0.053989891F, 0.0398553461F, -0.0445688218F, 0.00672306493F,
    -0.0663669F, -0.0856696293F, -0.0706169531F, 0.0412407778F, 0.0395578407F,
    0.0393594392F, -0.0536766425F, 0.0438098572F, 0.0548677333F, -0.0554623343F,
    0.0550248474F, 0.0616629794F, 0.0126062687F, 0.00501921121F, 0.00406508287F,
    -0.118468508F, 0.0179903675F, 0.0237081908F, -0.0330028497F, -0.0874017328F,
    0.0760233328F, -0.00823364779F, -0.00928768795F, 0.0193418656F, -0.0672046F,
    -0.0879124627F, -0.00211279F, 0.0380668677F, -0.0110580409F, -0.114306033F,
    -0.0526119284F, 0.024316771F, 0.0755377412F, 0.0425834507F, 0.0165142454F,
    -0.0697239116F, -0.0763522685F, 0.123385765F, -0.0254808366F, 0.0402754247F,
    -0.0385677889F, 0.0257241223F, -0.0693390071F, -0.027864404F, 0.0606894866F,
    -0.0582022667F, -0.0105350511F, 0.0604327284F, -0.0089805983F, 0.0336256698F,
    -0.0404299088F, -0.00351713784F, 0.0127497781F, 0.0187372472F, 0.0258684233F,
    -0.0797306374F, -0.00527328905F, 0.0254424494F, -0.0254212357F,
    0.0491698422F, 0.0514600128F, 0.072261788F, 0.00619216729F, -0.0162546262F,
    0.0124044856F, -0.0454680733F, -0.0189462043F, 0.0103829075F, -0.076542452F,
    0.0324087143F, -0.0299217347F, -0.0113188913F, -0.121270731F, -0.0448593125F,
    0.0206673238F, 0.129878446F, 0.123069994F, 0.0130898431F, 0.100111492F,
    -0.0470293909F, 0.0526327044F, -0.00420285668F, 0.0517746247F,
    -0.0355501771F, 0.0206360798F, 0.086252F, 0.0421856903F, 0.0349320509F,
    0.00269534811F, -0.0856031F, 0.180707797F, 0.0859013945F, 0.0244888142F,
    -0.00524927443F, -0.156988338F, -0.00981258694F, 0.0189295802F,
    -0.0567969494F, -0.0433053896F, -0.0750143602F, -0.0303072147F,
    -0.0717434809F, 0.00309188734F, 0.0133930417F, 0.0450275205F, 0.0312572047F,
    -0.0449140556F, 0.0464192033F, -0.0899066F, 0.103140034F, 0.0105971638F,
    -0.0110257175F, -0.0468635894F, 0.0723108F, 0.0694577619F, 0.0296194516F,
    -0.0184380561F, 0.0147956256F, -0.0681230575F, 0.0273442511F, -0.0197949782F,
    -0.0661526918F, 0.02184893F, 0.0403671078F, 0.0306448843F, -0.0679939911F,
    -0.0169989057F, 0.0302934349F, -0.0259130094F, -0.0552835092F, 0.0150473779F,
    -0.0732696429F, 0.0759448707F, -0.0376884565F, 0.00306396349F,
    -0.0133971842F, 0.00405075122F, 0.0211396962F, -0.103838146F, 0.0288782269F,
    -0.161079139F, 0.0142218219F, -0.165196672F, -0.0737516209F, -0.0918323621F,
    0.226277083F, 0.131432474F, 0.06279248F, -0.0818384066F, 0.036420729F,
    0.0324512795F, -0.12712197F, 0.0376194865F, -0.0940502137F, -0.0264034159F,
    -0.00251980755F, 0.190378278F, 0.0264267921F, -0.10055723F, 0.0181540027F,
    0.0956131592F, 0.0252145771F, 0.0486047529F, 0.0149141587F, -0.109230429F,
    -0.0816196576F, 0.0517044812F, 0.0773947835F, -0.0178067125F, -0.0981279537F,
    0.0204990283F, 0.00912284385F, 0.0835189223F, 0.0671779364F, -0.109600939F,
    -0.0741147324F, -0.00534348283F, 0.0416238047F, -0.0444200337F,
    0.0543712527F, -0.051790338F, 0.00475896616F, 0.0915979519F, 0.0867553875F,
    0.00912667345F, -0.009489F, -0.0295698289F, -0.119848073F, -0.0203889925F,
    -0.00126809278F, 0.0357800722F, -0.0190876164F, 0.0720554516F, 0.0249750596F,
    -0.0151209664F, -0.000261855341F, -0.00260434113F, 0.032675039F,
    0.0838571191F, 0.0720273256F, -0.000297659484F, -0.072361283F,
    -0.0109212352F, -0.0149084022F, 0.00120131637F, 0.0676863F, 0.0897730291F,
    0.0118040713F, 0.037823353F, -0.0793384537F, -0.00988458F, -0.0514977537F,
    -0.0576938912F, 0.0677619353F, 0.11290665F, 0.0778562948F, 0.0761066675F,
    -0.0231370907F, 0.0273304097F, -0.074236609F, -0.0552283F, 0.0177525766F,
    -0.0170454215F, -0.0746132508F, 0.0170604754F, 0.00732556311F, 0.0322192125F,
    -0.0721949413F, 0.0415103585F, -0.0282022934F, 0.0849296674F, 0.0915790871F,
    0.050511498F, -0.0817422345F, -0.0257916208F, -0.0195974912F, -0.0473963246F,
    0.0371265262F, -0.0442345962F, -0.0415079258F, 0.11402747F, -0.0362153873F,
    0.0546382517F, 0.0177176334F, -0.0722615719F, -0.0409359932F, -0.0780288279F,
    0.014598419F, -0.00265318947F, -0.0177407209F, 0.00222049258F, 0.0148128141F,
    0.10960602F, 0.018886691F, 0.0101153776F, 0.0638375804F, -0.0683242455F,
    -0.0960707217F, -0.0641261712F, 0.0434229F, 0.0434024408F, -0.0714642107F,
    -0.0307378434F, 0.00824623276F, 0.0163534787F, 0.0026151936F, 0.0423982777F,
    -0.0284894183F, 0.0767954439F, -0.0145981014F, -0.000230246558F,
    0.0118216965F, 0.0188634414F, -0.0123376912F, -0.0456519462F, -0.0355020948F,
    -0.0404564515F, 0.0554993972F, 0.0932137F, 0.0358227231F, -0.0522781685F,
    0.0167256687F, -0.0729449689F, 0.00909888651F, 0.103337102F, -0.0878258F,
    -0.0154418778F, 0.0360654593F, -0.0177563168F, -0.00541554298F,
    -0.107814178F, 0.0729825869F, -0.00878915098F, -0.00771255279F, 0.137643337F,
    -0.0468116142F, 0.00787600316F, -0.0789664686F, 0.0104024932F,
    -0.0336269252F, -0.0579213165F, 0.100195765F, 0.0369212218F, -0.0781232417F,
    -0.0511571169F, 0.0468452908F, -0.00915729813F, 0.0502246507F, 0.0353732109F,
    0.000875630183F, 0.0305049866F, -0.0503744744F, 0.0292449724F, 0.0450865142F,
    -0.0169264451F, 0.0308912434F, 0.042564813F, 0.0482658632F, -0.00887463801F,
    -0.0419825688F, 0.0361464955F, -0.0203130301F, 0.000523883209F,
    -0.00679586595F, 0.0383759327F, -0.0313395411F, -0.0449631438F,
    -0.0565727688F, 0.0358352438F, -0.0832001045F, 0.051243864F, 0.00256053521F,
    0.013235799F, 0.0247605406F, 0.0370674618F, 0.0303603951F, 0.0570139587F,
    -0.00318944524F, -0.00843174662F, 0.00662336685F, 0.0105885696F, -0.0752268F,
    0.051591F, -0.018428525F, 0.0144042326F, -0.0547075272F, 0.0206316058F,
    0.0587899871F, 0.0423310436F, 0.0722669065F, -0.0229454208F, -0.00790993869F,
    0.0962323844F, 0.00856873766F, 0.0348667093F, -0.060239803F, -0.0613535643F,
    0.0803192258F, 0.00795482378F, 0.0919069275F, -0.0162262283F, -0.0011437753F,
    0.00785056129F, -0.0224079061F, -0.0544548519F, -0.0232194755F,
    0.0136749325F, 0.00157812471F, -0.0788053274F, 0.012886486F, -0.0105788419F,
    -0.069081977F, -0.0113894306F, -0.0207966585F, -0.034192238F, 0.0723636374F,
    -0.00633401703F, -0.0815509856F, 0.0329785869F, -0.0526110083F, 0.020884037F,
    0.022047516F, 0.07459075F, 0.00199058838F, 0.0248081852F, -0.0587804392F,
    -0.00306223915F, 0.0515855625F, 0.0188565943F, -0.0230713431F,
    0.000716085313F, 0.0157514084F, -0.0257935654F, 0.00819875952F,
    0.0320555381F, -0.0198154096F, -0.0522831529F, -0.0263746642F,
    -0.00359229511F, 0.0216660034F, -0.0392075069F, 0.00940957945F,
    0.0634302422F, 0.0476677977F, 0.0203640517F, -0.0149951912F, -0.0584863126F,
    0.0422854759F, 0.0491321199F, 0.0538218431F, -0.0281600263F, 0.0393793322F,
    0.0154328914F, 0.0320599787F, -0.0389933549F, -0.0211003479F, -0.0354343578F,
    0.0747855F, 0.0384200774F, -0.0253225584F, -0.0240521058F, 0.015428423F,
    0.0378533266F, 0.0208249763F, 0.0268680509F, -0.00874733645F, 0.0275865458F,
    -0.00403907802F, -0.0201685745F, 0.00353081664F, -0.0521294624F,
    -0.00309670623F, 0.0830398798F, 0.0838651881F, -0.011821921F, 0.10185679F,
    -0.00880483F, -0.0493135266F, 0.0221376121F, -0.027108172F, -0.00947623141F,
    0.0439928323F, -0.0221310128F, -0.00547252921F, -0.0548800379F, 0.084469758F,
    -0.0342575908F, 0.0473764464F, -0.030621225F, 0.0792432353F, -0.00233676075F,
    -0.0406926125F, 0.0287088379F, -0.028497899F, -0.0112928394F, 0.0544887669F,
    0.0252841562F, 0.0537209623F, -0.0288893562F, -0.0147481756F, -0.0220941827F,
    -0.0185847301F, 0.0272999294F, 0.0296279602F, -0.0472205803F, -0.0310158487F,
    -0.0542545505F, 0.0761463419F, -0.0125655653F, 0.032313183F, 0.0251489561F,
    -0.0377888456F, -0.0454774685F, 0.0234922655F, 0.0323768221F, -0.0515457876F,
    -0.021718353F, 0.0759754404F, -0.0451413319F, 0.0336052179F, 0.0444470085F,
    0.00873708539F, -0.0117964447F, 0.0553747527F, 0.0603067875F, -0.0667684525F,
    -0.0442980789F, 0.0173378959F, -0.0531343818F, 0.000847185263F,
    -0.0399325714F, -0.0520340689F, 0.0245944578F, -0.0381582752F, 0.109795898F,
    0.0397683047F, 0.0440374687F, -0.0324944407F, 0.0114662237F, -0.085419327F,
    -0.0262134038F, -0.0211700425F, 0.0694733635F, -0.0110322181F, 0.019263668F,
    0.0425647348F, -0.071089223F, 0.00408385508F, 0.0323954523F, 0.0177913383F,
    0.0317015238F, -0.0153063023F, 0.109742083F, 0.0413832627F, -0.132995158F,
    0.0503500029F, 0.0344226398F, 0.0409431122F, 0.0531939231F, 0.00887461F,
    -0.0765884221F, -0.0406967737F, 0.0695761219F, -0.0456566177F,
    -0.0538584441F, -0.0266062506F, 0.0402440317F, -0.0672765449F, 0.0327479318F,
    -0.0167618152F, -0.00768689718F, -0.0622308515F, -0.0527826957F,
    0.0497568548F, -0.0230065F, 0.00482754828F, -0.0551046506F, 0.0048506F,
    9.94692891E-5F, 0.0152272927F, -0.0797581077F, 0.0254989788F, 0.0345859379F,
    0.0603516139F, 0.028166F, -0.0464650616F, 0.0347338393F, 0.0435166173F,
    0.0867740363F, 0.030550966F, 0.0481867231F, 0.0706561133F, -0.0158041772F,
    -0.0219701808F, 0.0519936755F, -0.13617681F, -0.0725890845F, -0.00329411565F,
    0.00166993635F, 0.0551152527F, 0.0608236641F, 0.0559171811F, -0.0601214208F,
    0.0472483449F, 0.00229971204F, 0.0457912572F, 0.0532895885F, -0.106978253F,
    0.042891454F, -0.0898920447F, -0.0303556F, 0.0298821647F, -0.0454320274F,
    0.0769229F, 0.00464589894F, 0.0436831936F, -0.00393815432F, -0.0817954689F,
    0.0247583222F, 0.0184636414F, 0.0276878793F, 0.0623735897F, 0.0563377254F,
    0.027417874F, -0.0731824487F, -0.0148525806F, -0.0336462371F, -0.0344419219F,
    0.0166730396F, -0.0488967896F, -0.0455338545F, 0.062494494F, 0.0508922562F,
    0.0408488363F, -0.0603846F, 0.0887879804F, -0.00630265148F, -0.120361358F,
    -0.0286293197F, 0.0461500809F, -0.00631396F, 0.0123020373F, 0.00138930371F,
    -0.035343159F, 0.0496008433F, 0.033656802F, 0.0313583873F, 0.0290477742F,
    0.0375306942F, 0.0128201051F, -0.0408996195F, -0.0680775121F, 0.0377070792F,
    0.0749882385F, -0.0728443339F, -0.0720015615F, -0.0382785052F, 0.0963408276F,
    0.0761791F, -0.00715234689F, 0.122894742F, -0.0185089465F, 0.0818468332F,
    0.0606550798F, -0.117156334F, -0.118736126F, -0.117996544F, 0.010538429F,
    -0.080127269F, 0.0965888277F, -0.0583817326F, 0.111851051F, -0.00442012865F,
    -0.0291563421F, 0.0454335585F, 0.0539452173F, 0.13712889F, 0.0539611913F,
    -0.0183664951F, -0.108198352F, -0.143936232F, 0.093920514F, 0.0153796989F,
    0.115358934F, -0.0453994162F, 0.100483388F, 0.0428494811F, 0.151271492F,
    0.0533292741F, -0.18856217F, -0.0621694066F, -0.0233074F, 0.13075839F,
    0.0783456F, 0.00588167971F, -0.101862833F, -0.0529759191F, 0.179336309F,
    -0.0989977419F, -0.0682462826F, -0.0753651187F, -0.0347037278F,
    0.0238555372F, 0.0363362767F, -0.0599080622F, 0.00836018287F, 0.0316007473F,
    0.105261512F, -0.0811426267F, -0.127433538F, 0.0245064255F, -0.0587377623F,
    0.0660613179F, -0.0219371151F, 0.0439125076F, -0.0205676295F, 0.0596246272F,
    0.00963790808F, -0.071140483F, -0.0252900068F, -0.0465014465F, -0.122459374F,
    0.0699988231F, 0.0769803599F, -0.0453119799F, 0.0114540011F, -0.0745055377F,
    -0.0416465737F, 0.0646874532F, 0.0474734F, 0.0915466771F, -0.0689797103F,
    0.0480733737F, -0.0010805591F, -0.0196701568F, -0.014038343F, -0.0885681137F,
    0.035895776F, 0.0364685059F, 0.0912679434F, 0.0213714335F, -0.00433849776F,
    -0.0737796798F, 0.0021670796F, -0.108873427F, 0.0298927017F, 0.00945846085F,
    0.0657865F, -0.072650224F, 0.153695598F, 0.0194802862F, 0.00251934119F,
    -0.0239736624F, 0.131414801F, -0.00845336076F, 0.128219336F, -0.0479426384F,
    0.0374246463F, -0.00203383248F, -0.0607841648F, 0.00113396964F,
    -0.00874425936F, 0.0984618142F, 0.0350172296F, 0.103923522F, 0.0209810343F,
    -0.0793439746F, 0.0931140184F, 0.00550960936F, -0.0533953309F,
    -0.0531211644F, 0.0630451888F, -0.0468284078F, 0.00755433459F, 0.0747058615F,
    -0.0341561437F, -0.087933F, 0.109664574F, -0.0331133753F, 0.0423913635F,
    -0.025094701F, 0.0566465892F, 0.036331296F, -0.055073224F, -0.031338919F,
    -0.0825116F, -0.0681584626F, 0.10174723F, -0.0763918236F, 0.0292527173F,
    -0.0707947388F, -0.0396508351F, -0.0467852689F, -0.0428365171F,
    -0.0744549632F, 0.00573316077F, -0.0181456432F, -0.0223766286F,
    0.0633275807F, 0.0437747836F, 0.0276808068F, -0.11277882F, 0.04824071F,
    -0.0646932721F, -0.0132950908F, -0.0638940558F, 0.0256279595F, 0.0180204194F,
    -0.00147740217F, 0.0721398816F, -0.00709803076F, -0.0747414902F,
    -0.0771098062F, -0.0393478721F, -0.0279878266F, 0.0710632652F, 0.060741581F,
    0.100118391F, -0.0524900407F, 0.0901140422F, 0.0561136976F, -0.0031435506F,
    -0.016488228F, 0.0408406481F, -0.0246705022F, -0.0433613844F, 0.0462139174F,
    -0.0418615378F, -0.0469105653F, 0.0122705922F, 0.0401708782F, -0.0550421663F,
    0.0239554737F, 0.0113149034F, 0.0209997203F, 0.0178167578F, -0.0341602676F,
    0.0245418344F, -0.00775022106F, -0.0235963576F, 0.0355455F, 0.0192372855F,
    -0.0309569258F, 0.0308117419F, 0.0564475022F, 0.032242287F, 0.0560363941F,
    0.0127320681F, -0.0537752323F, 0.0554967523F, 0.0473732688F, 0.0613212287F,
    0.0254651029F, -0.0630811751F, -0.0066868267F, -0.0285329875F,
    -0.0526810661F, -0.0455565117F, -0.0131555246F, -0.0286630467F,
    0.0169889405F, -0.0270491857F, -0.0423117392F, -0.0251380615F, 0.038377434F,
    -0.0306462981F, -0.0508835465F, -0.00532834372F, -0.0483328626F,
    -0.0203259327F, 0.0399307571F, 0.0159770548F, -0.0472093262F,
    0.000119812772F, -0.0494622365F, -0.00968385F, 0.0606867224F,
    -0.00578863872F, 0.000562777452F, 0.0187480226F, -0.0509855226F,
    -0.0159406867F, -0.0216721445F, 0.0114873704F, -0.0219060611F,
    -0.0342944227F, 0.0389715508F, 0.000326997222F, 0.00871194899F,
    -0.0613444597F, -0.0117919156F, -0.0189452469F, -0.0286515914F, 0.0510786F,
    -0.0407307744F, -0.0293824058F, 0.0505898185F, -0.0147343492F,
    -0.0296315029F, -0.0465989038F, 0.0171914194F, 0.01139272F, -0.0162191615F,
    -0.0204082988F, 0.0168760177F, -0.0037836202F, -0.046380017F, 0.0432166457F,
    -0.00928267F, -0.0477283783F, 5.21164975E-6F, 0.00259461091F, 0.0261681192F,
    0.0181247853F, -0.0610289872F, 0.029398622F, -0.00782392826F, -0.0461064726F,
    -0.00742886355F, -0.0178202316F, -0.00652101962F, -0.0194290895F,
    0.0467574932F, 0.0181309786F, 0.0126885585F, -0.0480616689F, -0.0586138666F,
    -0.0465721712F, -0.0343750305F, -0.0222060513F, 0.0350975208F,
    -0.0637426674F, -0.0163653381F, 0.0609655045F, 0.0528098084F, 0.0273669641F,
    0.0361755118F, 0.0302772913F, -0.0118720457F, -0.0574007258F, 0.0373637117F,
    0.0100239301F, -0.0515046641F, 0.0351797268F, 0.00760189444F, -0.0468076877F,
    0.0698064044F, -0.0426629186F, 0.0549384095F, -0.0504628941F, 0.00659102248F,
    -0.00105910131F, -0.0110386387F, 0.0245870445F, 0.0419442318F,
    -0.0537318699F, 0.0460934155F, 0.0228271019F, 0.00588155631F, -0.0627007335F,
    0.0433651432F, -0.000983659294F, -0.0544142239F, -0.00505067827F,
    -0.00258334656F, 0.035969343F, -0.00839867443F, 0.0294433869F,
    0.000469839346F, 0.0184699614F, -0.0239707641F, -0.00126597856F,
    -0.0134811094F, -0.0205848739F, -0.00961509533F, -0.000400854857F,
    0.00952707138F, -0.0181086492F, -0.0492433347F, -0.0301422123F,
    -0.0625725463F, 0.0253927335F, -0.0302315019F, 0.0300801713F, -0.0161851104F,
    0.0201192666F, -0.0772521421F, -0.0553792678F, -0.0500965565F, 0.0534364097F,
    -0.0546503663F, -0.0425871313F, 0.00519777974F, 0.0182882249F,
    -0.00207183743F, -0.0225143563F, -0.0235429984F, 0.0146119092F,
    -0.0174043812F, 0.0526294261F, 0.0216498468F, 0.027875077F, 0.0459953882F,
    -0.00757369213F, 0.0236584321F, -0.0161074623F, -0.0631668642F, 0.028436346F,
    -0.0172861777F, -0.0145163499F, -0.0548233464F, 0.00827123225F,
    0.00782623328F, 0.0749628171F, -0.0611623265F, -0.0272350516F, 0.037956398F,
    0.103797942F, -0.0430185199F, 0.0271884892F, -0.00346379471F, -0.0375849977F,
    -0.00808949117F, 0.0572212636F, -0.0397593454F, 0.00971911568F,
    -0.0454893485F, 0.010719086F, -0.00902187545F, -0.109384023F, -0.0742937177F,
    0.0532503091F, 0.0380371548F, 0.0626497269F, -0.0319927409F, -0.106088653F,
    -0.0523509234F, 0.0220742319F, 0.0244026445F, -0.00250042207F,
    -0.0655540898F, 0.0487752892F, 0.0359512977F, 0.0856940076F, -0.0904312208F,
    0.0783321857F, -0.0462057665F, -0.0433141105F, 0.0500928946F, 0.0888493061F,
    0.0138734877F, 0.000241186179F, -0.0614861101F, -0.0538986847F,
    0.00687269727F, 0.0373771153F, -0.0163739119F, -0.0191966593F, 0.0415396467F,
    -0.00499447947F, 0.052596923F, 0.0225292519F, -0.048291292F, 0.0351266563F,
    -0.0845153555F, -0.033058092F, -0.027327491F, -0.00762080681F,
    -0.0347561501F, 0.00934999809F, -0.00223065214F, 0.00755032944F,
    -0.0370061472F, -0.0266635548F, 0.00372147397F, 0.0704290271F, 0.0560740978F,
    -0.0197317842F, 0.0397242755F, 0.000995136F, -0.04456646F, -0.0764963627F,
    -0.0423531495F, 0.0452028513F, -0.0417240262F, 0.000607960043F,
    -0.0244982988F, 0.0262040459F, -0.0295019038F, -0.0622286424F, 0.0345781744F,
    -0.0594377369F, -0.0245277453F, 0.0158667266F, 0.0541085489F, 0.0321519636F,
    0.0407754593F, 0.0259292927F, -0.0589346848F, 0.00676793838F, -0.0394519493F,
    0.0452136584F, 0.0393879674F, -0.0124487448F, 0.028328849F, -0.0879907236F,
    -0.0584586933F, -0.0114221014F, 3.15798534E-5F, 0.0270307697F, 0.0348204076F,
    -0.056611754F, 0.0565530211F, 0.0423396267F, -0.0716431215F, 0.0548491627F,
    -0.0932907164F, -0.0844438747F, -0.0289023463F, -0.0172307324F,
    0.0464916341F, 0.109978013F, -0.0905370116F, -0.00100748404F, 0.00665251259F,
    0.00331563619F, -0.0510689765F, 0.00482686888F, -0.0177256055F,
    -0.0145169403F, -0.0335200354F, 0.0056074406F, -0.00184177374F,
    -0.0739643797F, -0.0169434156F, 0.0343072042F, -0.0103443088F, 0.0143016456F,
    -0.0407130457F, -0.0394836403F, -0.0164350457F, -0.0335161313F,
    -0.0229602288F, -0.0496090241F, 0.056607265F, 0.0557851866F, 0.0820159242F,
    -0.00333745754F, 0.0231663864F, -0.0260006767F, 0.0295133479F,
    -0.0152449515F, -0.00838743709F, -0.0475934967F, 0.0470582359F,
    0.00739087444F, -0.0174523424F, -0.0812615603F, 0.0447425172F, 0.0279039F,
    -0.00284024957F, 0.0130142542F, 0.00231916411F, -0.0433656536F,
    -0.040012747F, 0.0216104705F, 0.0172435883F, 0.0664079F, 0.0590644963F,
    -0.0734684542F, 0.0150336111F, -0.03008347F, 0.0142625319F, -0.0593651459F,
    0.00712866243F, -0.0119100818F, 0.0830369666F, 0.0291096941F, 0.00142231886F,
    -0.042267587F, 0.0283705387F, -0.0181314033F, 0.0393165722F, -0.00804710109F,
    -0.144753456F, 0.0587444752F, 0.0970243216F, -0.0333236195F, -0.00292256335F,
    -0.0570011884F, 0.0794186816F, -0.0710670426F, -0.00691617699F,
    -0.000949903508F, -0.0660028F, 0.00745857414F, 0.0254637655F, -0.0184029695F,
    -0.0425543599F, 0.0460495F, 0.0276810639F, 0.0638959482F, 0.0721562877F,
    0.0535707697F, 0.0361180753F, -0.0351761803F, 0.0179380774F, 0.0612594076F,
    0.0258797538F, 0.0428142957F, -0.0590910204F, -0.00588629628F, 0.0198892895F,
    0.0166469552F, -0.0370979533F, 0.00684566051F, -0.0548140891F,
    0.00808001217F, -0.0187610295F, 0.0740913153F, 0.0082890233F, -0.0633924454F,
    -0.00424323138F, -0.0403082035F, 0.0586805269F, 0.0668883175F, 0.028280979F,
    -0.0567848273F, -0.0202492047F, 0.0397031717F, -0.0856759623F,
    -0.0544800907F, -0.0171742F, -0.0144737763F, -0.00442235079F, 0.0097265F,
    0.111207806F, 0.0343082286F, -0.0486275889F, -0.0960297063F, -0.0220511388F,
    0.000907078385F, 0.0988833159F, -0.0227177721F, 0.0382057354F,
    -0.0154631082F, -0.0541448109F, -0.0345413685F, 0.0634029284F,
    -0.0310922433F, 0.0623034276F, -0.0118686398F, 0.0161293615F, -0.0964233205F,
    0.014641813F, -0.0877995789F, 0.0259550307F, 0.0219138414F, 0.084070988F,
    -0.0383657143F, 0.0477901176F, -0.0386365131F, -0.0587460399F, -0.080119729F,
    -0.00630071061F, -0.0240238179F, 0.0412473381F, 0.0149118975F,
    -0.0399816893F, -0.0221092291F, -0.0404779576F, 0.0458770879F,
    -0.00129455142F, 0.0473730788F, 0.0816946775F, 0.0482189693F, -0.0601970144F,
    0.0570800938F, 0.0635525286F, -0.0650491565F, -0.0150573105F,
    -0.00531495037F, -0.0425078496F, 0.0353468023F, -0.0551100187F,
    0.0368981138F, 0.0178105924F, 0.0259739F, -0.0109450743F, 0.00220704614F,
    -0.00325626275F, -0.0868642107F, -0.0478291959F, 0.0400047973F,
    -5.98841652E-5F, 0.0697305426F, 0.04895081F, 0.00731170876F, -0.0102204718F,
    -0.0372273028F, 0.0423381291F, 0.0165429674F, -0.100301675F, -0.0479125F,
    0.0341689363F, 0.0889518633F, 0.0714787468F, -0.0342643149F, -0.033967793F,
    -0.0769510195F, -0.0483824871F, -0.00352298259F, -0.0398458093F,
    0.00564527605F, 0.0134491259F, -0.0166601315F, 0.0686016157F, 0.0178476423F,
    -0.00873660669F, 0.0281497985F, -0.0493645221F, 0.0305967815F, 0.0208215397F,
    -0.00845626928F, -0.0404167324F, -0.0563018061F, 0.0125308782F,
    0.0235136077F, 0.0746452659F, -0.0170990881F, -0.0281973034F, -0.0484271944F,
    0.0302006043F, 0.0110750264F, 0.0699469447F, -0.084724322F, -0.000382001977F,
    -0.0175683107F, 0.00934153423F, 0.0766781718F, -0.0276505928F,
    0.00478327181F, -0.0208219923F, 0.014188434F, -0.0557810552F, 0.0553554147F,
    0.00291053136F, 0.0592370629F, 0.0440930389F, -0.0260730051F, -0.0430605263F,
    0.00602272572F, 0.0433595665F, 0.0429288559F, 0.020748267F, 0.0330214873F,
    0.00157642458F, -0.0671919212F, 0.0409333333F, -0.0267281961F, 0.0429686233F,
    -0.072343491F, 0.0200281329F, 0.0066137109F, -0.00699534779F,
    -0.00974290445F, 0.0407720134F, 0.0592603758F, 0.0317826159F, -0.0427581035F,
    0.00250697113F, -0.0318458378F, -0.041635368F, -0.0214302149F, 0.058305826F,
    0.0204340611F, 0.0224695131F, -0.0263476111F, -0.0149274068F,
    -0.00829146896F, 0.0028199146F, 0.000121487574F, -0.0695290416F,
    0.0229717232F, -0.00305715576F, 0.0823203921F, 0.00979087781F, 0.0119026192F,
    0.00525406701F, -0.0103181545F, 0.0428192392F, 0.0451553464F, -0.0411549509F,
    -0.0344046615F, -0.0418383554F, 0.0182384718F, 0.0369251594F, 0.0321647115F,
    0.0730793178F, -0.0279837474F, 0.0404848047F, -0.00797777F, 0.0511578731F,
    0.0305391345F, 0.0150095187F, 0.0054702214F, -0.0351824686F, 0.0203033835F,
    0.038164787F, -0.0241928976F, 0.0488458313F, 0.060507F, 0.0440736F,
    0.0160055086F, 0.0405281261F, -0.0464101397F, -0.0492111817F, 0.0385197625F,
    -0.00261597F, 0.0647749F, 0.0260257609F, 0.0202093162F, -0.0344612785F,
    0.0388169587F, 0.058711905F, 0.0466825366F, 0.0196441896F, 0.0347647294F,
    -0.0323401466F, 0.00365584739F, -0.0629035085F, 0.0495875366F, 0.0116992649F,
    0.0107216984F, -0.0177940819F, -0.0202410016F, -0.0509022251F,
    -0.0273433644F, -0.0574260317F, -0.00189953228F, 0.0126160877F,
    0.0104980143F, 0.0325723886F, 0.121486142F, -0.0806021094F, -0.0650074258F,
    -0.110203646F, 0.0647859F, -0.0112343812F, -0.0371200554F, -0.0639136806F,
    -0.0385423414F, 0.0799397677F, 0.0737707615F, 0.0703174248F, -0.010104537F,
    -0.12547195F, 0.132397041F, -0.0200590529F, -0.00664381357F, -0.0364111625F,
    -0.0242099613F, 0.0432609394F, -0.0301003102F, 0.141124085F, -0.0526774637F,
    -0.0122063542F, 0.12397851F, -0.00756512862F, -0.0242959019F,
    -0.00413858704F, 0.0911963359F, 0.00347595965F, -0.0218670201F,
    0.0212004241F, 0.00196019211F, -0.0708147064F, -0.0171756055F,
    -0.0418662056F, 0.0802472457F, -0.0174094606F, 0.0743924603F, 0.0298505425F,
    0.0119464044F, -0.0700378418F, -0.0121495388F, 0.0562342107F, 0.00214904F,
    0.0406572185F, 0.0190357305F, -0.0171814077F, -0.0139085809F, -0.01421401F,
    0.0488372073F, 0.00865342189F, 0.00611702632F, 0.00764297554F, 0.0501815118F,
    -0.0129879983F, 0.0211875848F, -0.0141124353F, -0.0219608713F,
    -0.0180510841F, 0.0293642022F, 0.00476525119F, 0.0258986037F, 0.0274644122F,
    0.0260296352F, 0.0186067745F, -0.0446703248F, -0.053030394F, -0.0327358209F,
    0.0317207389F, 0.0519380979F, -0.0444991514F, 0.0397833139F, -0.0987547264F,
    0.149104387F, -0.0621361025F, -0.0638153F, -0.0697314069F, 0.0922077894F,
    0.0167738684F, 0.156738222F, 0.0039863009F, 0.0927311406F, -0.155800045F,
    -0.0189984199F, -0.00539249228F, 0.00661381194F, -0.073969163F,
    -0.0278343689F, -0.0558529086F, 0.0143456683F, 0.019394068F, -0.0103296963F,
    -0.118033469F, 0.0930509642F, -0.0767969F, 0.0792177469F, -0.013856099F,
    -0.0327864774F, -0.0151041346F, -0.030770734F, 0.0753018335F, 0.0204215758F,
    -0.0806401893F, -0.0798585F, -0.0815427229F, 0.177391678F, 0.0405314304F,
    -0.0204103775F, -0.0198249668F, 0.0455053039F, 0.0103211822F, 0.00191133958F,
    -0.0348748453F, -0.0797162727F, -0.0324253254F, 0.0904222727F,
    -0.0188413691F, 0.0564081557F, 0.0302326083F, -0.00321123959F, 0.0375123918F,
    0.0089154765F, -0.0187696125F, -0.0388879478F, -0.0629454926F,
    -0.0371077135F, -0.0328636616F, -0.0428976826F, 0.062789157F, 0.0248576179F,
    0.0443202332F, 0.015627332F, 0.0364408456F, 0.136709079F, -0.110137902F,
    -0.0100475112F, -0.0477144644F, 0.0970883518F, 0.0287295096F, 0.0554720685F,
    0.0443413146F, -0.0507019162F, -0.0268175453F, 0.131060123F, -0.137278423F,
    -0.127584204F, -0.0419669673F, 0.0727504194F, -0.00297576492F, 0.140156567F,
    0.00809447747F, -0.0233732406F, -0.132897153F, 0.0557198375F, 0.039288789F,
    0.0387777947F, -0.091756478F, 0.211842835F, -0.0868092552F, 0.175485F,
    -0.118170373F, 0.0345818363F, -0.0373905711F, -0.0565450639F, -0.0684711263F,
    0.0477498025F, -0.0924433619F, 0.0789193809F, -0.060927067F, 0.090727374F,
    -0.0890440196F, 0.12348181F, -0.101591088F, -0.0446510501F, -0.0340577587F,
    0.0520742F, -0.0426749215F, 0.0922926366F, 5.67713432E-5F, 0.00321167777F,
    -0.0174260084F, 0.061469771F, -0.0514161587F, -0.0319377221F, 0.0224016979F,
    0.0425204039F, -0.0447552912F, -0.0575489663F, -0.0785912424F,
    -0.0250207689F, 0.0218567569F, 0.00389565644F, 0.0215651616F, 0.0563862287F,
    -0.0156553034F, -0.0106909685F, -0.0376407355F, -0.011233096F,
    -0.0631999075F, -0.078638956F, 0.0204458591F, -0.00437356438F, -0.007013469F,
    0.0298906229F, -0.00792754348F, -0.0355717875F, -0.00995535F, 0.0329424664F,
    0.0765519664F, 0.180284813F, 0.0523744226F, -0.130521923F, 0.0449828058F,
    -0.0251918435F, -0.179094434F, -0.0632073805F, 0.0752708614F, 0.0011918759F,
    0.167508557F, -0.10697633F, -0.134840846F, -0.0234602317F, 0.0567338802F,
    0.121239096F, -0.168634668F, 0.0382010229F, 0.114590928F, -0.0531568453F,
    -0.053377863F, -0.0811141878F, -0.0623660311F, -0.0883846134F,
    -0.0550198667F, 0.00698437542F, 0.11304643F, 0.0101300338F, -0.011659815F,
    0.055920206F, -0.0687161312F, 0.112550668F, -0.113797285F, 0.0352547504F,
    -0.0144014228F, -0.0976608768F, 0.0177898016F, 0.0283796247F, -0.0264720321F,
    0.0132636633F, -0.0614890456F, 0.0278834105F, -0.0178088434F, 0.0319606364F,
    0.0456133261F, -0.0274487827F, 0.0332137272F, -0.0390176401F, -0.079675056F,
    0.0106955059F, 0.0285196546F, 0.00587958377F, -0.0326858051F, 0.0413835123F,
    0.0263687111F, 0.0591904521F, -0.0300768446F, -0.0258303024F,
    -0.00963081792F, -0.0385247357F, 0.0417222083F, -0.0823504F, -0.0389690399F,
    0.0196342487F, 0.0234694704F, 0.0151696401F, 0.0173787437F, -0.0177225862F,
    0.0046686451F, -0.00931682438F, -0.0268441662F, -0.000541288347F,
    -0.0175313912F, -0.0689715892F, 0.060419675F, -0.00219790451F,
    -0.0232589301F, 0.0606258474F, -0.0620872416F, 0.00441043358F, 0.123907819F,
    -0.0621704906F, -0.0832899287F, -0.0410376787F, 0.0863065124F, 0.108254522F,
    -0.0638424456F, -0.000370681577F, 0.104442567F, 0.0233463682F, 0.0742521137F,
    0.0298674516F, -0.0993876606F, -0.04772304F, 0.0629245713F, 0.0381723903F,
    -0.0526196696F, 0.0401485451F, -0.0433816202F, 0.00978780817F, 0.090546459F,
    0.0305133183F, -0.0595100932F, 0.0104857497F, 0.027607346F, -0.0813690275F,
    0.0615158789F, -0.0886870325F, 0.0538890809F, -0.00499110948F, 0.0133642638F,
    -0.0186505672F, -0.0508910231F, 0.0260050073F, -0.0293175373F, 0.0168168694F,
    -0.00652879663F, 0.0795935914F, -0.0428779572F, -0.0404287316F,
    -0.0171974264F, 0.0500442199F, -0.022046376F, 0.0426010862F, 0.0109125888F,
    0.0435994491F, -0.0238422751F, -0.0406701379F, -0.0575995483F, 0.0304955095F,
    -0.0439174399F, -0.0225456171F, -0.0453721322F, 0.0465976074F, 0.132805228F,
    0.00401585409F, -0.0112754609F, -0.114800252F, 0.0378800854F, 0.0187868662F,
    -0.0760343745F, -0.121554226F, 0.0259471033F, 0.0855669826F, 0.0528253727F,
    0.00635239156F, -0.00725330692F, -0.118181132F, -0.0269162357F,
    0.00525039481F, 0.0418693274F, -0.0894028321F, -0.0659745708F, 0.0429557301F,
    0.0457076915F, 0.0940247625F, 0.0308974963F, -0.0241782051F, -0.0636542514F,
    -0.0448645391F, -0.00369227189F, -0.130047262F, 0.0094768F, 0.0585246198F,
    0.0524686761F, 0.0424554683F, -0.0162369646F, 0.0293214135F, -0.0384706445F,
    0.0228395481F, 0.0647208542F, -0.0391065031F, -0.0128173418F, -0.0590775087F,
    -0.0919116661F, 0.0589876845F, 0.0810576F, -0.0500411876F, 0.0228095166F,
    -0.0127715142F, 0.0528960787F, -0.0763610452F, -0.00350447581F,
    -0.0445809104F, -0.0250894427F, -0.0412213355F, -0.00577837229F,
    -0.0570069775F, 0.00682615535F, -0.0498635471F, -0.0116876271F,
    -0.0224515051F, 0.0170930028F, 0.0199177358F, 0.0478228293F, 0.0417619646F,
    -0.0277261771F, -0.0487946048F, -0.0555063784F, -0.0179578569F,
    0.0127779292F, -0.0566065535F, 0.0238703433F, 0.0374538F, 0.134802282F,
    -0.0673800558F, -0.0239296276F, -0.0104215061F, -0.0826258585F,
    -0.0137585038F, 0.000848495227F, -0.0751991868F, -0.0460246876F,
    0.0791256651F, 0.0818578675F, 0.0717643201F, 0.0246060323F, -0.0598019399F,
    -0.0244306084F, 0.0101538785F, -0.0590310916F, -0.049499426F, 0.0130960345F,
    0.0869998485F, 0.0131047824F, 0.105670989F, 0.0571227074F, -0.00391867058F,
    0.033993911F, -0.0268517546F, 0.0237205364F, -0.0870466F, 0.102925129F,
    0.0687417313F, 0.00614461F, 0.0784097835F, 0.0333543457F, -0.0654459447F,
    0.0460376851F, -0.0402203351F, 0.0673256814F, -0.0657379851F, 0.0198006872F,
    0.0365273F, -0.0480720475F, -0.036496181F, -0.0596819669F, -0.059940882F,
    -0.00031762087F, -0.0348541923F, 0.0443512201F, 0.030893093F, 0.0181008819F,
    -0.0288746972F, -0.0548347086F, 0.0191318896F, 0.00604931498F, -0.010179813F,
    -0.0447616093F, 0.0175121408F, -0.0271744803F, 0.00361553906F,
    0.00912686065F, -0.0470202342F, 0.0321257375F, -0.0119428346F, 0.0554139726F,
    -0.0560272783F, 0.00702207861F, 0.018611569F, 0.049777519F, -0.0574704371F,
    -0.0358526036F, -0.00917301513F, -0.0279574804F, 0.0185283646F,
    -0.00203085435F, -0.0257203393F, 0.0169842206F, -0.00684947101F,
    -0.00519798603F, -0.0386931747F, 0.00271669542F, 0.0570600443F,
    0.0383165739F, -0.0142326867F, 0.0181389749F, -0.0327805318F, 0.0356816165F,
    -0.0367442332F, 0.0408976451F, -0.0171966814F, 0.0392226428F, -0.0253684763F,
    -0.00879438594F, -0.0347815864F, 0.0309923571F, 0.0364692956F,
    -0.0354150906F, -0.00121531799F, 0.0584388897F, 0.0326849483F, 0.0308259819F,
    0.0122541115F, -0.0583368354F, 0.0378809348F, 0.0219599493F, -0.0558808558F,
    0.0576567091F, 0.0479700342F, -0.0370380692F, -0.0407311842F, 0.0251656082F,
    -0.0427178703F, 0.0198550466F, -0.00638620602F, 0.0446643345F, -0.006542F,
    0.055455856F, -0.0121794436F, -0.0525102951F, 0.0498043932F, -0.0319112539F,
    -0.0380931F, -0.0233302079F, 0.0248410758F, 0.016887553F, 0.0111910421F,
    0.00903420709F, 0.0470369644F, -0.0567547791F, -0.0259466451F, 0.0104875742F,
    0.0118984012F, 0.00495452667F, 0.0556965321F, -0.0192685481F,
    -0.00399031304F, 0.00038346F, -0.0350085087F, -0.0525908023F, 0.0139192231F,
    0.0578958355F, 0.00929598883F, 0.0429752693F, -0.0522695296F, -0.0213321708F,
    -0.0165373106F, 0.000888796581F, -0.003180817F, -0.0174178071F,
    -0.0458715297F, -0.00530738337F, 0.0285614822F, -0.0315943509F,
    0.0530266762F, -0.00828645844F, -0.0457588509F, -0.0251873881F,
    0.0188531131F, 0.0580612235F, -0.0559230559F, 0.0119792391F, -0.0350339413F,
    0.0648321435F, -0.0649797693F, -0.0607795641F, 0.0300016142F, 0.0133590568F,
    -0.00636014F, 0.0391833037F, -0.0332211889F, -0.0251541827F, -0.00244401884F,
    0.0339802802F, -0.0348671675F, -0.0332273133F, 0.0284576677F, -0.0233973917F,
    -0.0279650986F, 0.0396543592F, -0.0308016445F, -0.02294F, -0.00501715485F,
    0.036530748F, 0.0334609114F, 0.0471069477F, -0.0779886767F, 0.050604213F,
    0.0390423909F, -0.0172613394F, -0.0595352389F, -0.00854884181F,
    -0.0473345257F, -0.022333F, -0.0382655561F, 0.0570812784F, 0.0190398656F,
    0.0548216403F, 0.0588465F, 0.0122541096F, 0.00163466274F, 0.0406849794F,
    -0.0303841978F, -0.0372217149F, -0.0603007823F, -0.0527660474F,
    0.0270578749F, 0.058064837F, -0.0270256698F, -0.0497108661F, 0.0256237499F,
    0.0464123525F, 0.0134809418F, 0.0584085844F, -0.00239912467F, 0.0204075165F,
    0.00262171053F, 0.0079718912F, -0.0120323338F, 0.0165133737F, 0.00944162533F,
    -0.0283519309F, 0.0160590652F, -0.0385534503F, -0.0336360075F,
    0.00601698039F, -0.0196476486F, 0.0459269136F, 0.0690578222F, 0.0233465098F,
    -0.0468529686F, 0.0373071209F, 0.0583491847F, 0.0028286723F, 0.00581541704F,
    -0.0120181367F, -0.02090385F, 0.058141809F, -0.027194649F, 0.0442029685F,
    -0.000535855128F, -0.0669073537F, -0.0574553944F, -0.0150426039F,
    -0.0521376692F, -0.0514123254F, -0.0427882299F, -0.0124460496F,
    0.0554840639F, -0.00747672F, -0.00916122086F, 0.0261758734F, -0.0244158935F,
    0.0633299872F, 0.0626470745F, 0.0110943485F, -0.02624318F, 0.0470074527F,
    0.0134887574F, 0.00450864155F, -0.0205612257F, 0.0121355709F, 0.0394611396F,
    -0.0611138791F, 0.0270880479F, -0.0200613514F, -0.0148792434F, 0.052846916F,
    -0.00971230306F, -0.00833087F, 0.00734723499F, -0.0439646579F,
    0.00997370109F, 0.051321473F, 0.02420827F, -0.0566313155F, -0.0293754768F,
    -0.0279792715F, 0.0349373259F, -0.0428882241F, 0.0542081557F, -0.0459790826F,
    -0.0316475257F, -0.0148396483F, 0.0133299697F, 0.00682994304F,
    0.00143113418F, 0.0610359274F, -0.0271563847F, -0.0149533376F,
    -0.0302291363F, 0.044115331F, -0.0170986F, 0.0481647812F, 0.0105769606F,
    -0.0436502434F, -0.0476549305F, 0.00788412057F, -0.0432558507F,
    0.0483168736F, 0.00264816126F, 0.0457137525F, -0.0270056631F, -0.0120880669F,
    0.0476385802F, 0.0221177526F, -0.0522871725F, -0.0355719328F, -0.036908567F,
    -0.0465623215F, 0.0583969392F, 0.00664332369F, -0.026501257F, 0.0187059697F,
    0.0037260002F, 0.0412937924F, -0.00224027364F, -0.00186751294F,
    0.0256659556F, 0.0534519814F, -0.0351240598F, 0.0112451091F, 0.0468679108F,
    -0.0518291369F, -0.0254336111F, -0.0590058491F, 0.0600240938F,
    -0.0258716028F, 0.00404383801F, -0.0248192865F, -0.0387158245F,
    -0.0227786899F, -0.0429478697F, -0.00566737726F, 0.0106806923F, 0.043783091F,
    -0.0116439275F, 0.0182692707F, 0.014961605F, -0.002002188F, -0.0376732275F,
    -0.0486506298F, 0.0522524714F, 0.0124101117F, 0.0566032752F, -0.0143501265F,
    -0.0511625186F, 0.0118425032F, 0.0336831436F, -0.00128580595F,
    -0.00884717051F, 0.0465019196F, 0.0411167108F, 0.0176160801F, 0.0478598848F,
    0.0220702663F, -0.0144174118F, 0.0198948123F, -0.000968277396F,
    0.0555910803F, -0.0413748696F, -0.0578467287F, 0.0179837737F, -0.0173978321F,
    -0.05184903F, 0.013866812F, 0.0335952565F, -0.039623674F, 0.0620868951F,
    0.0457803309F, -0.0111444313F, 0.00769854849F, 0.0564477369F, -0.0190939233F,
    0.0194155909F, 0.00748174544F, -0.0346067511F, 0.00992271397F, 0.0647963434F,
    -0.0565717407F, -0.0148290582F, 0.0354284644F, -0.035366077F, -0.0430281162F,
    -0.0231702942F, -0.0350579582F, -0.0417172089F, -0.03234547F, 0.0214844029F,
    -0.0248380098F, 0.0621434152F, 0.0294724163F, -0.0302487388F, -0.0234967656F,
    -0.0507221557F, 0.0544218831F, -0.059026096F, -0.0636048689F, 0.0111667616F,
    0.000436413306F, -0.0374056138F, -0.0253728423F, -0.0335023776F,
    -0.00624639634F, 0.0255464073F, 0.00806979463F, 0.0531390347F,
    -0.0205131825F, -0.0203608125F, 0.014471693F, 0.0623401441F, -0.0236097835F,
    -0.0238340683F, -0.0626233295F, -0.039579019F, -0.0362988561F,
    -0.0373368822F, -0.0242146757F, -0.00898016803F, 0.0307484F, 0.0153555237F,
    0.0103091393F, -0.0503068753F, -0.0610443391F, -0.000200938637F,
    0.0443932079F, 0.0481420159F, -0.0380455293F, 0.0382705443F, 0.0564705878F,
    0.0236668456F, -0.0395393297F, -0.0148015246F, 0.0270815492F,
    -0.00545714144F, -0.0221366026F, 0.0344499722F, 0.0406143814F, 0.0197616816F,
    0.0340566374F, 0.0296003539F, -0.0420050099F, 0.0547202602F,
    -0.000399783661F, -0.024828963F, -0.0498960242F, 0.0154448021F,
    -0.0359128043F, 0.0191740673F, -0.0371680856F, 0.00688973488F,
    -0.0324972123F, -0.0380119793F, -0.00594977615F, 0.000693357491F,
    0.0508564636F, 0.0218874887F, -0.0587543F, -0.0220062342F, -0.0145235453F,
    -0.0382435173F, 0.0257377718F, 0.0545150377F, -0.0643653125F, 0.0407490544F,
    -0.00137002452F, 0.0335957706F, 0.0291827675F, 0.0644918755F, -0.0143448524F,
    0.0641641691F, 0.0474199504F, 0.0358262621F, -0.0200763233F, 0.0338457786F,
    -0.0217759125F, -0.0202680975F, 0.0311113652F, 0.0330995F, 0.0335047F,
    0.0276538581F, 0.0416693427F, -0.021350598F, -0.0320552513F, -0.00382519024F,
    -0.0558451675F, 0.0587898791F, 0.0532008559F, 0.00162553741F, 0.0513445437F,
    -0.0115553951F, 0.0511754714F, 0.039838F, 0.0102977231F, -0.0321115144F,
    0.00528336363F, 0.0389025547F, -0.0302204601F, 0.0297722686F, 0.0192269981F,
    -0.024011258F, -0.0616937354F, 0.0115975738F, 0.0157058164F, -0.0202968605F,
    -0.00343518541F, -0.0282041468F, 0.0147756143F, -0.0155181773F,
    -0.0187602211F, 0.0390939228F, 0.0183077697F, -0.0204761289F, 0.0257979278F,
    0.0343272761F, 0.0584411398F, -0.0423155762F, -0.0459931865F, -0.0606393218F,
    -0.018362619F, -0.0529137067F, 0.0301829297F, 0.0570985F, 0.013658843F,
    0.0495392196F, -0.035840597F, -0.0503641628F, -0.0342666768F, -0.0120887766F,
    -0.0287067275F, 0.0087153F, 0.00461486494F, -0.0476837084F, 0.0407917127F,
    0.0553087331F, 0.0162027292F, -0.00189232826F, 0.0222802106F, -0.0313760489F,
    0.000359109021F, 0.039305374F, -0.0353219882F, 0.00949796475F,
    -0.0119489515F, -0.0404810868F, -0.060116563F, -0.0523175411F,
    -0.0412974954F, -0.061012134F, 0.00570548046F, -0.0488633F, -0.0198217966F,
    0.0188857168F, 0.0134592298F, -0.0308813695F, 0.0555370301F, 0.0455921553F,
    0.0352589116F, 0.00500507047F, -0.0312352683F, -0.0247273464F, 0.0100304056F,
    0.000504478114F, -0.0678882F, 0.0275626183F, 0.0658132136F, -0.0783582479F,
    0.037635278F, -0.062613681F, 0.0497096218F, -0.0857479796F, -0.0222059041F,
    -0.0592743345F, -0.00446389522F, 0.0208164696F, 0.0877497867F,
    -0.0416253097F, 0.0420268029F, 0.0391681679F, 0.0296249166F, -0.00245281425F,
    -0.0230654627F, 0.0131630264F, 0.0726638958F, -0.0208981801F, 0.0215230715F,
    -0.00814298075F, 0.0378526822F, -0.0357102342F, 0.0591482222F, 0.0250841789F,
    -0.0767494813F, -0.000174998859F, -0.04243F, 0.0118756713F, -0.00898730569F,
    -0.00502838893F, 0.049361784F, 0.0397140495F, 0.0334239F, 0.039886158F,
    -0.0403749943F, -0.0329584442F, -0.0386343896F, 0.0371484831F,
    0.00132699043F, -0.0248527192F, -0.0507788658F, 0.0523902F, 0.0596726F,
    0.0548995F, -0.0537385494F, -0.0207597446F, -0.0269574F, -0.0278458372F,
    0.0197128914F, 0.0371113904F, -0.0209374204F, -0.0853444189F, 0.0535254329F,
    0.0609189533F, -0.0701203719F, -0.00269292644F, -0.0623428412F,
    0.0226489753F, 0.0527216308F, 0.0362263061F, 0.0351242907F, -0.0590026267F,
    0.0245278627F, 0.036722295F, -0.0659755841F, 0.0527003668F, 0.023840623F,
    0.00477395765F, 0.0335865F, 0.0283867195F, 0.00210581673F, -0.0461624116F,
    -0.0345711596F, -0.0958802179F, 0.00862824172F, 0.01770184F, 0.0137466602F,
    0.012035029F, 0.0187541395F, -0.00897436403F, 0.0329143554F, -0.0813329518F,
    -0.0581645221F, -0.118223861F, -0.0414054F, -0.115200989F, 0.165560871F,
    -0.0381071381F, 0.041864872F, 0.0125798797F, 0.109297194F, -0.00350789167F,
    0.0216732677F, 0.038554322F, -0.0674179271F, -0.0683768317F, 0.0862401426F,
    -0.0833282471F, 0.0469909869F, -0.103131063F, -0.00620993646F, 0.0131971892F,
    -0.0427466594F, -0.0332332067F, 0.0116214007F, -0.0033248621F, 0.0676426664F,
    0.0486253798F, 0.0068560564F, -0.0367029272F, 0.00924046244F, 0.0139965406F,
    0.0128757777F, -0.0119117675F, -0.0495961756F, 0.0115211885F, -0.0138818612F,
    0.0668800101F, 0.0414730944F, 0.0149899982F, 0.0322707556F, -0.0209104978F,
    0.0706366822F, -0.0127388146F, -0.0410404354F, 0.0450093187F, -0.0102138408F,
    0.00628070114F, 0.0233782548F, 0.0577895343F, -0.0677401423F, 0.0162151847F,
    -0.0598067753F, -0.0636087433F, -0.0654543936F, 0.0841764361F, 0.0120710377F,
    0.00971187465F, 0.0497610457F, 0.0619261749F, 0.0143581396F, -0.158434629F,
    -0.0289610382F, -0.0932599902F, -0.0386763923F, 0.0109074349F, 0.225947186F,
    -0.0708610862F, 0.0258074962F, 0.077373907F, 0.236319244F, -0.12256822F,
    0.00376897422F, -0.0795336291F, 0.10212142F, -0.0778434873F, 0.197669879F,
    -0.0635270476F, -0.0665484443F, 0.0868417844F, 0.250475019F, 0.0347373113F,
    -0.0647434741F, -0.0525942184F, -0.0609487146F, -0.0443140827F, 0.2250669F,
    0.0347038619F, 0.0785507485F, -0.144715369F, 0.0967755541F, 0.024442073F,
    0.0533773191F, -0.0469429977F, -0.0559287891F, -0.08529865F, 0.0584962666F,
    0.0496359468F, -0.00987953506F, -0.0930715501F, -0.00162861007F,
    -0.0140015054F, 0.0319166258F, 0.0411168523F, -0.0396384895F, -0.0104318224F,
    -0.0146662137F, 0.00584601192F, 0.010747374F, -0.0184396226F, -0.111003116F,
    -0.111445643F, -0.000864511647F, 0.00593423331F, -0.0964050815F,
    0.158376947F, 0.0630724356F, -0.0632896945F, 0.00418572221F, 0.0728470087F,
    -0.0791637674F, -0.0635872334F, -0.0124035114F, -0.0885599852F,
    0.0299082063F, 0.105447866F, 0.0547283962F, -0.042149283F, 0.0986140296F,
    0.0451758318F, -0.186971739F, -0.0418232158F, -0.10225714F, 0.0370520428F,
    0.0872685239F, 0.0636765808F, 0.0500769094F, -0.120004512F, 0.131212428F,
    0.00576453656F, -0.0893187299F, -0.0333923884F, -0.0161265023F,
    -0.106589653F, 0.0762887225F, -0.217080981F, -0.011196767F, -0.0522673689F,
    0.11110805F, -0.00444048736F, 0.0812210217F, -0.0174495522F, 0.0567444116F,
    -0.127654552F, -0.0233052298F, 0.0538729429F, 0.0971702F, 9.40277096E-5F,
    -0.0354873911F, -0.129751563F, 0.0429706722F, 0.0634051487F, 0.00274970592F,
    0.0253506359F, -0.0420578048F, -0.010471656F, 0.0546245761F, 0.0775364488F,
    -0.0402574837F, -0.0575434454F, 0.0441811942F, 0.0256216526F, 0.047911711F,
    0.0239194576F, -0.0500279441F, -0.0508923084F, 0.0067228293F, 0.0248666573F,
    0.0137341591F, 0.0577021837F, -0.0312416572F, -0.0696101785F, -0.047620967F,
    0.0189817026F, 0.0143086398F, 0.109944731F, -0.0118156467F, 0.0387433432F,
    0.0413950086F, -0.0312584192F, -0.123720162F, -0.0702832565F, -0.0561599135F,
    -0.0769522637F, 0.0179129839F, 0.166992858F, -0.0540844165F, 0.0407683924F,
    0.143988624F, 0.0768478364F, -0.156332985F, 0.0169460047F, 0.0463879965F,
    0.0659862608F, 0.213605106F, -0.081917271F, -0.0427607335F, -0.023058692F,
    0.0817517862F, -0.0489246845F, -0.0996668488F, 0.0722178891F, 0.138619214F,
    -0.0980357379F, 0.186616242F, -0.220663264F, -0.101198167F, -0.180844441F,
    0.0278342739F, 0.153740719F, -0.139725447F, 0.0479732F, -0.0671587363F,
    -0.0763923228F, 0.0733350292F, 0.0426918902F, 0.0233109333F, 0.0289187357F,
    -0.0516670309F, 0.0217674356F, -0.0119051812F, -0.0410295874F,
    -0.0264377911F, 0.150832266F, -0.133653119F, 0.0106349224F, 0.067575559F,
    0.0163245741F, 0.0734792501F, -0.0994204581F, 0.0253709313F, -0.0283839051F,
    0.00692338683F, 0.0357854664F, -0.00879331119F, 0.0661570877F, -0.126310289F,
    0.0509823188F, 0.0427126251F, -0.00892144069F, 0.00951799192F, 0.0117921745F,
    -0.0220223665F, -0.0582251F, -0.0301343165F, 0.052045282F, -0.0142845493F,
    0.0446510091F, 0.0161158573F, 0.0633302554F, -0.021118436F, -0.0119382059F,
    -0.0381105505F, 0.00380929071F, -0.00562303187F, -0.0450502783F,
    -0.0868615434F, 0.0943639576F, 0.0671046153F, 0.0885747746F, 0.0236809533F,
    0.00310180825F, 0.0808388591F, 0.00604935456F, 0.110798977F, -0.0402858444F,
    -0.141427949F, -0.00776443072F, 0.036369361F, -0.019141281F, 0.122547328F,
    0.0528838672F, 0.0908620283F, 0.0662265942F, 0.140261725F, -0.281273F,
    -0.0689972788F, -0.120736547F, -0.0714043528F, 0.116202034F, 0.154645726F,
    -0.00936087593F, 0.0154772876F, -0.0402136631F, -0.0144182248F,
    0.0158965606F, 0.138193473F, -0.0750123933F, -0.0455027148F, 0.00947973225F,
    -0.00548068387F, -0.0422649533F, -0.00630893465F, 0.0773870349F,
    -0.0833749473F, 0.113802381F, 0.018471919F, -0.010763688F, 0.0601424389F,
    0.0476374738F, -0.0110238157F, -0.00259328657F, 0.0412987843F,
    -0.00801222213F, -0.0835560188F, 0.00957677327F, -0.0630913302F,
    -0.045001857F, -0.0355315655F, 0.0109838033F, -0.0633920506F, 0.0296997186F,
    -0.0470653847F, 0.0194091573F, 0.0344234742F, 0.057546176F, -0.00610290747F,
    0.0252459496F, -0.0360925123F, 0.0485837832F, 0.0495062247F, -0.0520900451F,
    -0.0303724613F, 0.00504001137F, -0.00585076911F, 0.0189087112F,
    -0.0131216906F, 0.0593160056F, 0.0303711761F, 0.00549674686F,
    -0.00120193651F, -0.0774006471F, -0.0186022986F, 0.0472040027F,
    0.0103777368F, -0.0881362855F, -0.0672337934F, -0.0098432228F, 0.0230973363F,
    0.0560997836F, 0.00471615093F, 0.040693868F, 0.0269220266F, 0.0921094716F,
    -0.0526027828F, -0.0532482415F, -0.0672522F, -0.0369965807F, 0.0404862426F,
    0.070817925F, -0.025352085F, 0.00370491249F, 0.0856241658F, 0.031774316F,
    -0.0686456561F, -0.0834075361F, -0.0605352111F, -0.0261118859F,
    0.0618304498F, 0.0241727289F, 0.042658817F, -0.0235971846F, 0.0264387224F,
    -0.00180264458F, 0.00727503141F, 0.0145896515F, 0.0427077F, 0.00358711113F,
    0.0209146123F, -0.0320373289F, -0.0710843429F, -0.0335052237F,
    -0.0354639105F, 0.0369127393F, -0.0418947972F, -0.00796784088F,
    0.0696071684F, -0.00375392893F, -0.0244107135F, -0.0358672217F,
    0.0351790041F, -0.0402295813F, -0.0296891928F, -0.0446768776F,
    -0.0489717424F, 0.0535320453F, 0.0516177416F, -0.0258310437F, 0.0387960821F,
    0.0233330298F, 0.00627445057F, -0.00465209363F, 0.0413470566F,
    0.00959602837F, 0.0349599421F, 0.00933141168F, -0.00626947824F,
    0.0439457409F, -0.0701005831F, -0.0454287231F, 0.0310093872F, 0.0348514356F,
    -0.00266619632F, -0.0400312357F, 0.000781963055F, 0.0377438478F,
    -0.0425232314F, 0.0516993888F, -0.0339150913F, 0.0434692428F, 0.02489857F,
    0.0282102656F, 0.0566609688F, 0.056099426F, -0.0363732427F, -0.00332969264F,
    -0.0356589556F, 0.0193543229F, -0.0681212F, 0.0027592089F, -0.0677289218F,
    0.0608185232F, -0.0387495793F, -0.00857754797F, -0.00512200594F, 0.05296183F,
    -0.0378223F, 0.00561090233F, 0.0316750854F, -0.0342979766F, -0.015419024F,
    0.061433088F, 0.0146437176F, -0.0135103781F, -0.0373349227F, 0.0361798368F,
    0.0333018042F, 0.0289550871F, -0.0152508365F, -0.0258130115F,
    -0.00686579058F, -0.0334948488F, 0.000244169612F, 0.0133568F, 0.0524319895F,
    -0.00341584417F, -0.0573727451F, 0.00309254788F, 0.012275531F, 0.0103771193F,
    0.0264579058F, 0.0217292123F, 0.0242383F, 0.0469167307F, -0.0105183562F,
    0.0341304243F, 0.00562671805F, 0.0890374333F, -0.0157146417F, -0.0578483231F,
    -0.0405742377F, 0.0589426272F, 0.0190025065F, 0.0391727798F, -0.0239859316F,
    -0.0579989962F, -0.0971665904F, 0.0906287357F, 0.00516569521F,
    0.00187575677F, -0.0366974175F, -0.0107125165F, 0.00723617477F,
    0.0288440473F, -0.00335814385F, 0.0387286507F, -0.0246017165F, 0.0198471081F,
    -0.0609143712F, 0.0196450762F, -0.0251343399F, 0.0276642945F, 0.052022282F,
    -0.0172268786F, -0.0269080661F, 0.0127802761F, -0.00273782155F,
    0.0682514533F, -0.0291644838F, 0.0704060867F, 0.00154143095F, 0.0275411475F,
    0.071874F, -0.00310823089F, -0.00558891753F, -0.0129658254F, -0.0283078216F,
    -0.0720009F, 0.000923635554F, -0.0363528617F, -0.0245309118F, 0.0554627143F,
    -0.0447106175F, -0.0310046375F, 0.0177836511F, -0.0122655248F, 0.0200533085F,
    -0.00159314508F, 0.0356142931F, 0.036053881F, -0.0302421786F, 0.0564060546F,
    0.0118096573F, -0.0161677189F, 0.0315156914F, 0.0186820459F, 0.0327000879F,
    -0.000828213815F, 0.0219210256F, 0.0346495546F, -0.046103F, -0.00401763897F,
    0.0250643715F, 0.0500092693F, 0.0280843433F, 0.0243589766F, -0.016939126F,
    0.0655660257F, 0.0132876318F, -0.0479140878F, 0.0176849887F, -0.00836099405F,
    -0.00228988775F, -0.00898264442F, -0.0198668949F, -0.00856330153F,
    0.0192890223F, 0.00103130913F, -8.55899852E-5F, -0.0188289266F,
    -0.0610246286F, 0.0348654427F, 0.0151847117F, 0.0116903828F, -0.0483352877F,
    -0.0239094254F, 0.0283257887F, -0.0135120479F, 0.0655383F, -0.00162812369F,
    -0.0309944469F, 0.068151921F, -0.0516670905F, -0.0567830466F, -0.0963150039F,
    0.050396394F, -0.00559590524F, 0.00313464808F, -0.0213823617F,
    -0.0335106179F, 0.0972598642F, 0.0219209045F, -0.0226277616F, 0.0363088474F,
    -0.0225261F, -0.0643681809F, -0.00833586603F, 0.0163002033F, 0.0525035709F,
    -0.0360468142F, 0.00161712244F, 0.0400980599F, 0.00749814371F,
    -0.0240910295F, 0.000611148076F, -0.0270272046F, -0.0216185953F, 0.0653352F,
    -0.0498875938F, -0.000345043F, -0.0339697748F, -0.0393209197F, 0.0235550608F,
    -0.0313045979F, 0.00800607726F, -0.0465227775F, 0.0409367904F, 0.0387120284F,
    -0.0477003418F, -0.0288394876F, 0.0158167928F, -0.058662679F, 0.0536414422F,
    0.0644548833F, 0.0297451969F, -0.0326559916F, 0.0134087903F, 0.0647392496F,
    -0.0274468493F, 0.00450955518F, -0.0951661542F, -0.00117790687F,
    0.0169068575F, 0.0719371215F, 0.0147194183F, -0.0986255929F, -0.025865959F,
    0.04743075F, 0.0211772267F, -0.129190698F, -0.108532466F, 0.0954371169F,
    0.0392563306F, 0.0562322401F, 0.048369728F, 0.0656600818F, -0.0891547054F,
    -0.0168772768F, 0.0180622488F, 0.0248896386F, -0.0628986806F, 0.104724787F,
    -0.108902268F, 0.0310066231F, -0.0819468871F, 0.0561687F, 0.0537003949F,
    -0.0666435286F, -0.0893652439F, 0.133798942F, -0.111805581F, 0.0816227794F,
    0.00497538224F, 0.0481962785F, -0.128068447F, -0.0354996659F, -0.0145154446F,
    -0.0106684733F, 0.0651933625F, -0.0513275824F, -0.0682495087F, 0.0906169564F,
    -0.00181315921F, -0.0624450296F, 0.036263179F, -0.0555102602F,
    -0.0506195724F, 0.0656022802F, 0.00259044184F, -0.0118378326F, 0.055430904F,
    0.0823299363F, 0.0378932841F, 0.0203174818F, 0.0515090078F, -0.00219362276F,
    0.00827368F, 0.0432430841F, -0.0629803464F, -0.0125112496F, 0.0380094871F,
    -0.0545491315F, -0.0242675859F, 0.00817833189F, -0.07018F, 0.0493249595F,
    0.0693772212F, -0.0207353495F, 0.00300714071F, 0.0557556115F, 0.077408731F,
    -0.050347697F, 0.0609174445F, -0.00312008243F, 0.0051590791F, 0.0409545824F,
    0.0130010741F, 0.152458042F, -0.0989284143F, -0.0375295728F, 0.0230562948F,
    0.0170358755F, 0.129501864F, 0.131948367F, 0.0151673518F, -0.0105417743F,
    -0.085744068F, 0.101223476F, -0.0687650591F, 0.0113532227F, 0.0334574431F,
    0.0443174355F, 0.0364372395F, 0.0491446145F, 0.0278758183F, -0.00718573341F,
    -0.0771207586F, 0.0113667808F, -0.0832765698F, 0.0166546721F,
    -0.000579845102F, 0.124787733F, 0.0366443731F, 0.010117474F, -0.0510947965F,
    -0.0168438423F, 0.0358213931F, 0.0169018451F, 0.0353039354F, -0.0547604822F,
    0.00241900235F, 0.0599801838F, -0.0723517239F, -0.0224147066F, 0.104937762F,
    -0.0202025156F, -0.0150011294F, 0.0380373F, -0.0818233714F, -0.0243448559F,
    -0.00225137663F, 0.0432378836F, 0.0271928702F, 0.0488361232F, 0.0468633138F,
    0.0461622365F, -0.0131786726F, 0.0776022598F, -0.0368560255F, -0.0380837806F,
    -0.0632607192F, 0.0498089418F, -0.0136124594F, -0.0686202198F,
    -0.0414631367F, -0.00840152F, 0.0183767956F, -0.0136333033F, 0.036742717F,
    0.0584462248F, 0.00577334361F, -0.0349257663F, 0.0342927277F, -0.0614558943F,
    -0.0386719368F, 0.0528394803F, -0.0142068304F, 0.039020557F, 0.0631122F,
    -0.0407213643F, 0.0558145978F, -0.0391729176F, 0.0669253841F, -0.0730944276F,
    -0.0341857783F, -0.0199548434F, -0.0876278356F, 0.0435038023F, 0.02155382F,
    -0.0381043479F, 0.0467645265F, 0.0174278095F, 0.0706543177F, -0.0222306196F,
    -0.00401466619F, 0.020976359F, -0.0125650465F, 0.0780189484F, -0.0441740975F,
    0.00247979467F, 0.0523892678F, -0.00905214343F, 0.0554974824F, 0.0509497412F,
    0.00971038919F, -0.00889709778F, -0.0124072973F, 0.0315541662F,
    -0.0697243735F, 0.0265545808F, 0.0228937659F, 0.0215205047F, 0.00420148671F,
    0.00793426298F, 0.0506669171F, 0.00246138265F, 0.00907151F, -0.0640747249F,
    -0.0704196617F, 0.0414398387F, -0.0729905218F, 0.0870937482F, 0.0315090679F,
    0.0567544587F, -0.0102387844F, -0.0493906625F, -0.0103089595F, 0.0186634623F,
    -0.0702751F, -0.0452440158F, -0.0247576926F, 0.0178292915F, 0.055415038F,
    0.040648412F, -0.0314209275F, 0.0114357816F, -0.0294407047F, 0.0318867974F,
    -0.0155003862F, -0.0356800444F, -0.0120395888F, 0.0495303422F, 0.0343146957F,
    -0.050151296F, 0.0589992329F, -0.0350472F, 0.0769614205F, 0.0478880592F,
    0.0112765431F, -0.00135532697F, 0.00518741691F, 0.0878720582F,
    -0.0020435534F, -0.0353690907F, 0.0193522163F, -0.0536803715F, 0.0370912F,
    0.00334365619F, 0.00826088339F, 0.0317608F, 0.00275237835F, 0.0814245939F,
    -0.0114087807F, -0.0149149243F, -0.00607772544F, 0.0328220427F,
    0.0099206632F, -0.0106371921F, -0.0166496839F, -0.0339862183F,
    0.00998861622F, -0.0160514228F, 0.0165771898F, 0.0400370657F, -0.0146729918F,
    -0.0201157369F, 0.00209891191F, -0.0373691879F, -0.00196842849F,
    0.0264253039F, -0.00488656899F, -0.00920581818F, -0.0600440837F,
    0.0531215742F, 0.0327639021F, 0.0488622449F, 0.0470840633F, 0.0685528368F,
    -0.0564710796F, -0.0494657569F, 0.0398895107F, 0.0773145556F, -0.0191799179F,
    0.0116117941F, -0.0544722676F, -0.00696756551F, -0.0445041F, -0.02385916F,
    0.0441474207F, 0.0289686546F, 0.0300413929F, 0.00446659653F, 0.0475952923F,
    0.00704653189F, 0.0377636291F, 0.0346492678F, -0.0422032252F, 0.0608671084F,
    0.0201987159F, -0.0321496278F, 0.00579922413F, 0.0333169624F, 0.0510000251F,
    -0.0556906685F, -0.0126854423F, 0.0212896746F, 0.00871142838F,
    -0.0566466376F, -0.0190073922F, 0.0382195488F, 0.0233510919F, 0.0506732613F,
    -0.031028891F, 0.034438055F, -0.0191233382F, 0.000146296225F,
    -0.00272579934F, -0.049822364F, -0.0453043021F, -0.0533712357F,
    0.0563989654F, -0.0478859879F, -0.0151435444F, 0.043185845F, -0.060509894F,
    -0.0121291224F, 0.0175749771F, -0.0186259635F, -0.0648248121F,
    -0.0364064313F, 0.0478165634F, 0.0179779679F, 0.0509006791F, -0.00144505524F,
    -0.0391074382F, -0.00700892974F, 0.0202104282F, 0.0578048F, -0.0276707038F,
    0.0103819761F, 0.0620617196F, -0.012352718F, -0.00793182477F, -0.0176628362F,
    0.0405554F, -0.0654486865F, -0.0242030472F, 0.033738032F, 0.0447591059F,
    -0.0485242829F, -0.0575686544F, 0.0482312478F, 0.0507901348F, 0.00526449969F,
    -0.0191799197F, 0.0485362932F, -0.0196025316F, 0.0567338206F, 0.0599109F,
    -0.0491412133F, -0.0157928169F, -0.051627975F, -0.0108713349F, 0.0303725712F,
    0.00496971048F, 0.0263391919F, -0.00165608572F, 0.0477591455F,
    -0.0454663485F, -0.00967514142F, 0.057352636F, 0.0413025841F, -0.0187649149F,
    0.0122145163F, -0.000454688852F, 0.0186568145F, 0.0672822669F, 0.0139869852F,
    0.0552618168F, 0.0298724268F, 0.0134806372F, 0.0629487038F, -0.0277119465F,
    0.0225871112F, -0.0374366157F, 0.0186340939F, 0.00554297073F, 0.0562538616F,
    -0.00207346305F, 0.0276597757F, 0.0216924828F, 0.0395435095F, -0.0165359508F,
    0.0594103299F, 0.036626257F, 0.0495833121F, 0.0560317896F, 0.0433593951F,
    0.0076254853F, -0.0559312478F, 0.0336308144F, 0.027461268F, 0.00441764249F,
    -0.0606637523F, 0.021117F, -0.00157045573F, 0.0409274399F, 0.0600188486F,
    -0.0549124852F, -0.0442992188F, -0.0596914366F, 0.054320354F, -0.0516046546F,
    0.0514409319F, 0.0103215128F, 0.0415022746F, -0.0606224388F, -0.0112221353F,
    0.0103039499F, 0.0231853351F, -0.00798390247F, -0.00213243184F,
    0.0232476257F, -0.0111733703F, 0.0316676348F, -0.0447968729F, 0.0262248162F,
    -0.00738784671F, 0.0158912763F, -0.00751581229F, -0.0595190413F,
    0.000429868203F, -0.0489572585F, 0.0364377648F, -0.0348739661F, 0.016610276F,
    0.0255284123F, 0.00189024536F, 0.00339731877F, 0.0150146727F, 0.0469327979F,
    -0.00772489142F, -0.0444992483F, -0.0785787329F, -0.0090342937F,
    0.00697531505F, -0.0400153957F, 0.0187811721F, -0.0610921904F, 0.0387274697F,
    -0.0140910223F, 0.0387801155F, 0.0217449758F, -0.0698768273F,
    -0.00452403445F, 0.0412834734F, -0.0297192596F, -0.00948119443F,
    0.0498468839F, -0.006164697F, 0.0410783216F, 0.0684367195F, 0.0544859432F,
    -0.0645978525F, 0.0384219661F, 0.00983001478F, -0.0281418487F,
    -0.00337666506F, -0.0451288186F, 0.0283530727F, 0.0562244356F,
    -0.0356056914F, -0.0224592537F, 0.0133387605F, 0.0383201726F, -0.0258420091F,
    -0.0229557976F, -0.00683308206F, -0.038824182F, -0.0413429849F,
    0.0234673917F, 0.0417104438F, -0.00395657355F, -0.0576381162F,
    -0.0390549526F, 0.00407759333F, 0.0188020822F, 0.00282505481F, 0.0510167927F,
    -0.0324961506F, 0.0124425711F, -0.0282861441F, 0.0496999025F, -0.052559644F,
    0.017163584F, -0.0461046286F, 0.0510546826F, -0.0144823603F, 0.0011107449F,
    0.0449066721F, 0.0117447572F, -0.00212918711F, -0.0371676274F, 0.0566293076F,
    0.0064520766F, 0.0298741087F, 0.0215679575F, 0.0433008187F, 0.0273375064F,
    -0.0544318333F, -0.0147117488F, 0.0115484884F, 0.0402256437F, 0.0127110425F,
    0.00574268633F, 0.00447120843F, -0.0473066121F, -0.0305368956F,
    -0.00732464949F, 0.0303285532F, -0.0432644375F, -0.0350103118F,
    -0.0565530807F, 0.0146016693F, 0.0526141971F, 0.0132245673F, 0.030318968F,
    -0.0094444016F, -0.0464235879F, 0.0473687351F, -0.0215913299F, 0.0041450006F,
    0.0550712682F, -0.0608901493F, 0.0593418069F, 0.00984805357F, 0.0518518537F,
    0.0240884461F, 0.0445867777F, -0.0285487473F, -0.00498678954F,
    -0.0263304301F, 0.0502475239F, -0.0240064729F, 0.00752557162F, 0.0432563648F,
    0.020552054F, 0.0156280138F, 0.0429373235F, -0.0345412455F, 0.0351772867F,
    0.01927495F, -0.00880597F, 0.0145567805F, 0.0421111174F, 0.0532572418F,
    0.0129551375F, -0.0407904908F, 0.0135985371F, -0.00912798F, 0.0550576188F,
    0.00135133194F, 0.0126580745F, -0.000287901901F, 0.0592018217F, 0.038464617F,
    0.0182788819F, -0.0201367736F, 0.0478324033F, 0.0341805592F, 0.0601479F,
    -0.0626521483F, 0.00504256273F, 0.038451083F, -0.0223725419F,
    -0.000899484497F, 0.0137253832F, -0.0521887727F, 0.0331380144F,
    0.0367468819F, 0.0671505854F, 0.0061240755F, -0.0390726514F, 0.0330945104F,
    0.00287441118F, 0.0412263945F, -0.0277513079F, 0.00184555433F, 0.0265835971F,
    0.0462123752F, -0.0115444548F, -0.0472905785F, -0.00932060834F,
    0.0225362442F, 0.0480333082F, 0.0154640414F, -0.00234877714F, 0.0547653474F,
    0.0214317925F, 0.0531098694F, -0.0628521517F, 0.0172605161F, -0.041639369F,
    0.031402465F, -0.0260323789F, -0.015600319F, 0.0456778295F, 0.0264793653F,
    -0.0550535F, 0.0246675182F, 0.0435358435F, 0.042712491F, -0.0291627459F,
    0.0183886904F, -0.0522332117F, 0.00266900659F, 0.024569571F, -0.0232261848F,
    0.0386911333F, -0.0247959606F, -0.0531754382F, -0.0275680367F, 0.0205657072F,
    -0.0339939818F, -0.0543700978F, 0.0389868543F, 0.0276781972F, 0.0355507135F,
    0.0375790484F, 0.0325537F, -0.0659035146F, -0.0323022343F, -0.00662813708F,
    -0.0639288053F, 0.00564134587F, -0.00957842171F, 0.0323516726F,
    0.0544471182F, -0.0112800281F, -0.0227175746F, -0.0628795F, -0.0190248676F,
    -0.0256185494F, 0.0151015408F, -0.0477141924F, -0.0191335417F,
    -0.0420246311F, -0.012497291F, 0.0195569769F, -0.0320758373F, -0.0155091183F,
    0.048695609F, 0.0460362248F, 0.0294380356F, 0.00430898182F, -0.0485080145F,
    0.0214109011F, -0.0182718635F, -0.0339997448F, 0.0124703981F, 0.0399124175F,
    0.0184465833F, 0.0169390328F, -0.0532478094F, 0.00358677702F, -0.0375121459F,
    0.0281914305F, -0.0592134148F, 0.0477016047F, 0.0433775485F, -0.0599790029F,
    -0.0108346678F, 0.0686677918F, -0.0317309909F, 0.034770716F, -0.0146156959F,
    0.0570665486F, 0.0319148973F, -0.00846230611F, 0.0186217669F, -0.0551383086F,
    0.0469311364F, -0.0106031438F, -0.0177748967F, -0.0108826524F,
    0.00763097266F, -0.00649445644F, -0.0519650243F, -0.0403454043F,
    -0.0234431252F, -0.0287712924F, 0.0616522208F, 0.0282865725F, 0.0355318859F,
    -0.0576865077F, 0.0488086194F, 0.000153410219F, -0.0150727006F,
    -0.0414397344F, 0.0133186309F, 0.0403246805F, -0.0533616692F,
    -0.00428777793F, -0.0160981696F, -0.050838355F, 0.0161412116F, 0.0537581928F,
    -0.0209141597F, 0.0565655828F, -0.0562391467F, -0.0429034755F,
    -0.00153911964F, 0.0560307354F, -0.0502209589F, 0.0165219642F,
    0.00461891852F, 0.00106272707F, -0.0526585504F, 0.0366933271F, 0.00282724F,
    -0.0567345619F, -0.0544788055F, 0.0577628575F, -0.00340642408F,
    0.0153067848F, -0.0356678627F, -0.026418142F, 0.0465658233F, 0.024312973F,
    -0.0394319966F, -0.0318671539F, 0.0144003257F, 0.0261685923F,
    -0.00913418643F, -0.0403697751F, 0.00441696774F, -0.0536329933F,
    0.0414961874F, 0.0300960299F, -0.063043952F, -0.0169247035F, -0.0453809872F,
    -0.0148803657F, -0.0322858877F, 0.0296061635F, 0.0344153F, 0.0578799956F,
    0.00529496791F, -0.028143229F, -0.0434872247F, -0.00100529951F,
    -0.0417921916F, -0.00402163249F, -0.00627253624F, -0.0256750099F,
    0.0518811457F, 0.058737047F, -0.0350027941F, 0.0276002176F, -0.030757837F,
    0.00507432967F, -0.0528614148F, 0.0558145046F, -0.0422954075F, 0.0477010384F,
    -0.0490297787F, -0.012632F, -0.0336501114F, 0.0172678474F, -0.0395771191F,
    -0.0351445489F, -0.053642258F, 0.0649484098F, 0.0517961867F, 0.0341985188F,
    0.00818069372F, -0.0246435981F, 0.00899387896F, 0.0541352443F,
    -0.0201141518F, -0.0371588767F, 0.0428601429F, 0.000488168444F,
    -0.0463663191F, 0.0137272989F, -0.0177147705F, -0.053573519F, 0.0463086627F,
    -0.0494613312F, 0.0339298137F, -0.0334031731F, -0.0167727545F, 0.0133530814F,
    -0.0508483276F, -0.0427627377F, -0.0412431657F, -0.0478492454F,
    -0.0608393736F, -0.0477749631F, 0.0072979345F, 0.0270871501F, -0.0295581575F,
    -0.0184916556F, 0.0358362719F, -0.0385584682F, 0.0527090915F,
    0.000371554837F, -0.0511580147F, 0.0383910835F, -0.0163722076F,
    0.0518380813F, 0.0362391472F, -0.0490381271F, 0.0254835915F, 0.0143649261F,
    -0.0654593334F, -0.0310204029F, -0.00975010917F, -0.0338103957F,
    -0.0410361215F, -0.0123627903F, 0.0062116161F, -0.0604197606F, 0.0438064858F,
    0.03748722F, 0.0608729795F, 0.0260661803F, -0.0559704043F, -0.00434909202F,
    -0.0444314815F, -0.0246133078F, -0.0394913517F, 0.0287179835F, 0.0360059179F,
    0.00614676066F, -0.00141331065F, 0.0618719F, -0.0390309952F, -0.0330574065F,
    0.00344701507F, 0.0467565F, -0.0536120273F, -0.00139428023F, -0.00156661682F,
    0.0496706255F, -0.0209955256F, 0.043109864F, -0.0103839645F, -0.0340238921F,
    -0.0544344634F, -0.0274886601F, -0.0648771897F, -0.0275729429F,
    0.00858373567F, 0.0547404476F, -0.0455043539F, -0.0183157083F,
    -0.0538862236F, -0.0607989617F, 0.0548281744F, -0.0435171425F, 0.0195946973F,
    0.0540625602F, 0.0466883518F, -0.0562513F, 0.0383243673F, 0.0368672498F,
    0.00647369167F, 0.0287544485F, 0.0328672603F, -0.0204366688F, 0.0533475913F,
    0.00615570694F, 0.0366164334F, -0.0323794447F, 0.0418034382F, 0.0405852832F,
    -0.0322717614F, 0.0482679158F, 0.0451225191F, 0.019783657F, -0.0115829324F,
    -0.0239325762F, -0.0399006307F, 0.0565439388F, 0.00813812856F, 0.0272672903F,
    -0.00273975427F, 0.000916120131F, 0.0722618848F, 0.0633291F, -0.0478449203F,
    0.0144614857F, -0.0631063F, -0.0336198285F, 0.0279903896F, 0.0459613763F,
    -0.0248922668F, -0.0420033671F, -0.036319539F, -0.0230524689F, 0.0680595264F,
    0.0130320936F, 0.000986519153F, -0.0481521897F, -0.0166877247F,
    0.0431847312F, 0.00566839706F, -0.0222979337F, 0.04669879F, 0.0401437283F,
    0.0460340381F, -0.0130640436F, -0.0456385463F, 0.0477195233F, 0.0231708102F,
    -0.0198051184F, 0.0489143617F, -0.00787597F, -0.0536824875F, -0.0521852262F,
    0.0341814719F, 0.0223280638F, -0.053922087F, -0.0593172275F, -0.0412051156F,
    0.0343418121F, 0.0204745121F, 0.0102758901F, -0.00308371289F, 0.0661281198F,
    -0.0565934852F, 0.00883291475F, 0.0313054807F, 0.0553005598F, -0.0298048332F,
    0.0375968441F, 0.0209868252F, 0.0347023681F, -0.0582676344F, -0.0451025814F,
    0.00700537721F, -0.0598473474F, -0.0459179878F, 0.0635296777F,
    -0.00966262631F, 0.00395150157F, 0.019963583F, 0.0496129617F, 0.020909775F,
    0.0851147696F, -0.0532974489F, -0.0176749751F, -0.0431223959F, 0.0305178631F,
    0.0483389348F, -0.0190643109F, 0.0292935967F, 0.000561637105F,
    -0.0459428243F, 0.025157759F, 0.0577785783F, 0.0472495519F, -0.0488400906F,
    -0.014733131F, -0.0395326279F, -0.0500533F, -0.0121390959F, -0.0685963184F,
    -0.0062696333F, 0.0421896726F, 0.0195108019F, 0.0460720845F, -0.0605606697F,
    -0.0657187328F, 0.00408696F, -0.0218585953F, -0.0533842668F, 0.0339562297F,
    -0.0752861053F, -0.00227072486F, -0.0199038815F, 0.0354524739F,
    0.0457526036F, 0.0691152F, -0.047574155F, 0.0412828289F, -0.0070814644F,
    0.0447984301F, 0.0173365269F, -0.0476116091F, -0.02577959F, -0.0353896543F,
    0.0313531533F, -0.0447685681F, -0.0291031748F, -0.0358725F, 0.037770588F,
    0.0588472299F, -0.0179416835F, -0.00502986228F, -0.009733974F,
    -0.00670900289F, -0.0543095022F, 0.00348728057F, -0.0480149F, 0.0460266545F,
    -0.0340035819F, -0.0201555826F, -0.0312776566F, -0.00330217555F,
    -0.0114949727F, 0.0280075204F, -0.0251373239F, 0.0192813687F, 0.0129718492F,
    -0.0676493868F, 0.0568344742F, 0.00728094438F, -0.00738508208F,
    -0.00499749696F, 0.0226525106F, 0.0534123145F, -0.0235874597F,
    -0.00670111272F, -0.0538056605F, -0.029081529F, -0.00783998892F,
    -0.0333100483F, 0.025797952F, -0.0254866164F, 0.0499604717F, -0.00735719642F,
    0.0160990227F, -0.0343594216F, 0.0259608477F, 0.0328893401F, 0.00386386272F,
    -0.0579886697F, 0.0666814893F, -0.00840640813F, -0.041983664F, 0.0030828272F,
    0.0616916902F, 0.0536802709F, 0.011098247F, -0.0401982032F, -0.0252435226F,
    0.0475516878F, -0.005190867F, -0.021427419F, -0.0269517172F, 0.0393095501F,
    0.0784554F, 0.0140242232F, -0.0351081118F, -0.058918003F, 0.0352911837F,
    -0.00681800814F, -0.0578225181F, -0.0462465324F, 0.0589451715F,
    -0.0304348506F, 0.0104458444F, 0.0191653408F, 0.0629942F, 0.0602538437F,
    -0.055002775F, 0.0421827F, -0.0412299521F, -0.0788064674F, -0.0303136017F,
    0.051030539F, 0.0457290784F, -0.00678150356F, 0.0162262768F, 0.0179173388F,
    -0.031378787F, 0.0497099571F, 0.00142514275F, -0.0216205698F, 0.0633590296F,
    0.0721206069F, -0.0307431892F, 0.0112182973F, 0.0349385142F, -0.0525168478F,
    0.0429685451F, 0.0484649613F, 0.00394621398F, 0.0645516962F, 0.0282368567F,
    0.0161150824F, -0.00689763948F, 0.0203288421F, 0.0259951819F, 0.0737094283F,
    -0.0370437466F, -0.0765972063F, -0.0457667559F, -0.0614057034F,
    -0.0936569944F, -0.0706711113F, -0.00955311581F, -0.0555503368F,
    -0.0495243408F, 0.0842975155F, 0.0523045436F, -0.0333379507F,
    -0.000262388465F, -0.0278404895F, -0.0151988454F, -0.0305850301F,
    -0.0325013287F, 0.0789937377F, 0.069254294F, -0.0012614096F, 0.070003666F,
    0.0213769488F, -0.0463729203F, 0.0689424F, -0.0522686504F, 0.0312760398F,
    0.0562417805F, 0.0297348108F, -0.0210387502F, -0.0108967787F, 0.0369871408F,
    0.0687043369F, -0.0328326412F, -0.00531618F, 0.0352479629F, -0.000862648652F,
    -0.0472772941F, 0.0446590111F, -0.0296740718F, -0.02658448F, -0.00694709085F,
    -0.0323448479F, -0.00681190612F, -0.0440111533F, 0.0373586677F,
    0.0124631329F, -0.0235103536F, 0.0537170097F, -0.0785061568F, 0.0362879112F,
    0.0054986286F, 0.0226089191F, 0.0751998648F, -0.0165116414F, -0.0805750638F,
    0.0470669307F, 0.00695610326F, -0.0214406606F, 0.00867719948F, -0.0477529F,
    -0.0752545148F, 0.0607138202F, 0.00946142618F, -0.069033958F, 0.00222614547F,
    -0.0481684804F, 0.00447154744F, 0.0874311253F, 0.0503783F, -0.0597154945F,
    -0.038617529F, 0.0495931059F, 0.0521471649F, -0.0538117401F, -0.0868299305F,
    -0.0139207439F, 0.0951932743F, -0.0145013211F, -0.0863907412F,
    -0.0449654944F, 0.0294966195F, -0.0519379191F, 0.0514243916F, 0.0260942746F,
    -0.0590991601F, 0.0354005471F, 0.00497540878F, -0.00657300465F,
    -0.0306637976F, -0.00103166723F, -0.00837230776F, 0.0320828706F,
    0.0656494498F, -0.0151650263F, 0.0545406863F, 0.0436494686F, 0.0148475356F,
    0.0481555089F, 0.0101763F, -0.0107694501F, 0.0169824976F, 0.0197665337F,
    0.0315144919F, -0.0561682731F, -0.0568262674F, 0.0500453822F, 0.0455917083F,
    0.0272731464F, -0.0102010528F, 0.0502226874F, -0.0417278297F, 0.0317710228F,
    -0.049944561F, -0.0208948348F, -0.0317839161F, -0.016736934F,
    0.000507905672F, 0.0276456252F, -0.0418659598F, 0.0401889496F,
    -0.0354684182F, -0.0360957682F, -0.0401237272F, 0.0195057932F,
    -0.0315648913F, -0.0311403647F, -0.0204296838F, -0.0040413551F,
    -0.0374963135F, 0.0686023682F, -0.0350515246F, -0.0297936574F, 0.0425351039F,
    0.0266202353F, -0.0636284575F, 0.011378468F, -0.0299255829F,
    -0.000248435099F, 0.00914710388F, -0.0364664793F, -0.0457596704F,
    0.0114036202F, -0.0458789F, -0.00939941F, 0.0233818851F, -0.0203927178F,
    -0.0500061959F, 0.0544144511F, -0.043013338F, -0.00136480224F, 0.0628713369F,
    -0.0633232F, 0.0569987372F, 0.0530506968F, -0.0106434859F, -0.0082722418F,
    -0.0301728211F, -0.0544760711F, 0.0161361955F, 0.0394941717F, 0.0376879722F,
    -0.041399803F, -0.00692029856F, 0.0269105639F, 0.0326694623F, 0.0487487838F,
    0.0337807685F, -0.0267659388F, 0.0138218654F, 0.017285075F, 0.0317674F,
    0.0307965316F, 0.046608109F, 0.0308839604F, 0.0556543358F, -0.0383429602F,
    -0.0523528531F, -0.0322716199F, -0.0138141531F, -0.0188695192F,
    -0.008942632F, 0.0558237098F, 0.0230465215F, -0.0529001728F, 0.0468739457F,
    -0.0258204732F, 0.00139878877F, -0.0349214822F, 0.00118439703F,
    0.0448829606F, 0.0263509825F, 0.041711174F, 0.0205521435F, -0.0574897192F,
    -0.0556606501F, 0.0256861411F, -0.0335669853F, 0.00581275951F, -0.041587621F,
    -0.0270984061F, 0.0602775738F, 0.0102582779F, 0.0532964692F, -0.0457914434F,
    -0.0363596044F, -0.0323693231F, -0.00314685726F, 0.0559158325F,
    -0.00490231952F, -0.011586884F, 0.0537571274F, 0.0299593527F, 0.0561112389F,
    0.0058116368F, -0.00342174806F, 0.040432F, -0.0388060883F, -0.0214018766F,
    -0.0477148443F, 0.0486055054F, 0.0165396351F, -0.00857540406F,
    -0.00930974726F, 0.0424837247F, -0.0527670719F, 0.0168233607F, 0.0465309F,
    0.0280230287F, 0.0391795523F, 0.0317598879F, -0.065301545F, 0.00904203486F,
    0.0233707894F, 0.0110083967F, -0.0170700923F, 0.00963231456F, -0.0106314719F,
    0.00876374263F, 0.0453173406F, 0.0199354962F, -0.0499422327F, 0.054967843F,
    -0.00113272644F, 0.017508151F, -0.0148133878F, -0.0558187589F,
    -0.0328873955F, 0.0334586315F, 0.0097501874F, 0.0269417167F, 0.0399137661F,
    0.0429514721F, 0.0429503247F, -0.0492511839F, 0.0816188753F, -0.0514168292F,
    -0.0112195974F, 0.0394689552F, 0.0379214957F, -0.0486599691F, 0.00111426681F,
    0.0378724895F, 0.0406754315F, 0.0106743667F, 0.0179407038F, 0.039914351F,
    0.060063675F, -0.00232953858F, 0.0259691421F, -0.0305417348F, 0.112725109F,
    0.0300271139F, 0.042057313F, 0.0350082032F, 0.0671465769F, 0.0657042637F,
    0.0615512207F, -0.0489923693F, -0.0910937116F, 0.0535864606F, -0.0434535891F,
    0.00753842201F, 0.0161214937F, -0.00939511135F, 0.129993573F, 0.0473840088F,
    0.0247188769F, -0.0279461592F, 0.0125353755F, -0.023415219F, -0.0136160217F,
    -0.0231960341F, -0.0356117859F, -0.0410657525F, 0.0475696437F, 0.0641820058F,
    -0.0499378927F, 0.0518998653F, 0.00771332206F, -0.061512433F, 0.0395227373F,
    -0.0654395893F, -0.0111054983F, -0.0421028137F, -0.0216802731F,
    0.0260537062F, -0.0356395468F, 0.0227421075F, 0.0461518131F, 0.0545321517F,
    0.0308245663F, 0.0735652074F, -0.0170301665F, 0.0218371022F, -0.0194245521F,
    -0.0134871723F, 0.0217658412F, 0.0176645741F, -0.00667123729F, 0.0346451513F,
    0.056956809F, -0.0301952828F, 0.0165037215F, 0.00169797323F, -0.0133688133F,
    -0.051934775F, 0.0836363956F, -0.0354539417F, 0.0269657969F, -0.040697F,
    0.0222514421F, -0.0313856639F, 0.0549431F, 0.0852317885F, -0.0398988873F,
    0.00302719278F, -0.0285669044F, -0.0186551F, -0.013440541F, -0.0715232491F,
    0.0770161077F, -0.0524898209F, -0.0836188272F, 0.00107656105F, 0.109113529F,
    -0.0317518488F, -0.00547349174F, 0.00870318897F, -0.0150986165F,
    0.0107104406F, 0.0669020787F, -0.0882814825F, -0.0889062807F, 0.017594628F,
    0.112567306F, -0.0654862821F, -0.03512026F, 0.102087468F, -0.10471528F,
    -0.0451094918F, 0.103203088F, -0.0534643754F, -0.0316759273F,
    -0.00019232824F, 0.0011971253F, 0.0128089394F, -0.0361234285F, 0.0742226094F,
    0.00749688642F, -0.0221849494F, 0.0941165909F, -0.0101765841F,
    -0.0443727411F, -0.0163712334F, -0.0636306703F, 0.018193718F, -0.0218735F,
    -0.0666829497F, 0.0162641909F, 0.0414256491F, 0.0232934523F, -0.00725570228F,
    0.00612679217F, -0.0324828103F, -0.0458582826F, -0.00346696656F,
    -0.0192512423F, -0.0209492985F, -0.0476965979F, 0.0455940813F,
    -0.00349599891F, 0.0404169038F, -0.0498074107F, -0.053111624F,
    -0.0173593536F, -0.0373714603F, -0.0212013107F, -0.0118557494F,
    0.0959764645F, -0.0359045602F, -0.0588737912F, 0.0421432704F, -0.0248964615F,
    -0.0189566724F, 0.10113848F, 0.0123680485F, 0.00151381386F, -0.0668619052F,
    0.00601847377F, 0.0127736675F, 0.00744260242F, -0.0706830919F, -0.0820248F,
    -0.00195089588F, 0.0988422558F, -0.000437849F, 0.115970559F, -0.00451996503F,
    -0.025772132F, 0.0126781F, 0.0508518815F, -0.152326316F, -0.019002771F,
    -0.00844369922F, 0.218657315F, -0.122952677F, -0.0256813727F,
    -0.00451062853F, -0.0352783613F, -0.0167130642F, -0.00335005485F,
    -0.0781796F, -0.0524312109F, -0.124109931F, -0.0959992632F, -0.078854613F,
    0.0198352728F, 0.135216F, -0.00105954579F, -0.0903648213F, 0.112768888F,
    -0.0832758173F, -0.00790117402F, -0.0402721204F, -0.00742415944F,
    0.121736705F, -0.0414095297F, 0.0727654397F, -0.0629552454F, -0.0708742812F,
    0.00903441105F, -0.0191103164F, -0.00935919769F, -0.061219722F,
    0.0581326857F, 0.0281424876F, 0.0539425723F, 0.0560994782F, 0.0380744524F,
    0.0542154536F, -0.00802437F, -0.0644802377F, 0.0301008634F, 0.00951700099F,
    0.0720988289F, -0.0239620302F, -0.0494201817F, -0.0275909286F, 0.0852027535F,
    -0.0584865063F, 0.056356106F, 0.0227148402F, -0.019279303F, -0.0769468546F,
    0.0735726655F, -0.0506063476F, -0.059719529F, 0.0557637773F, -0.0342214331F,
    -0.0249045249F, 0.0555667728F, -0.0371913351F, -0.00985962432F,
    0.000854120066F, 0.188945413F, 0.0503001101F, -0.136435926F, -0.0271944869F,
    -0.0946900621F, -0.000876284146F, 0.049716223F, -0.172692433F, 0.21990253F,
    0.0784952193F, 0.0429714322F, -0.128595859F, -0.0974254534F, -0.0613768287F,
    0.00603690045F, 0.0622163936F, 0.025543889F, 0.0981112644F, -0.012292752F,
    0.0477736406F, -0.0654739F, -0.0766275898F, 0.137549877F, -0.0118771465F,
    0.0788433F, -0.0280590598F, -0.0686091408F, 0.053045772F, -0.011137086F,
    -0.0893759504F, -0.0068353489F, -0.00315600098F, 0.0526370481F,
    -0.0816310421F, 0.0675971434F, -0.0331757404F, -0.0390753299F,
    -0.0834491104F, 0.0326120965F, 0.00605722424F, -0.022127768F, 0.00112780393F,
    -0.0813357159F, 0.0536416955F, 0.052375339F, -0.0404488891F, -0.00691149151F,
    0.0345245562F, 0.0150776114F, -0.0870052725F, 0.0352704674F, -0.00765891187F,
    -0.10268122F, -0.00619078614F, 0.117080867F, 0.0547487475F, 0.0286388714F,
    0.0217497237F, 0.00389980548F, 0.00689948257F, 0.0761813074F, 0.106298842F,
    -0.00828586891F, 0.02760702F, -0.119828068F, -0.0118550882F, 0.0530992225F,
    0.0106686493F, -0.0206605978F, 0.102358684F, 0.0324004292F, 0.144385844F,
    -0.11081212F, -0.00285860756F, -0.105059206F, -0.0192429479F, -0.0566402078F,
    0.00268461648F, 0.0528193973F, 0.116608143F, -0.0908346921F, -0.00876594242F,
    0.0740587637F, -0.0892830119F, -0.0074658473F, 0.00811699219F,
    -0.00301999575F, 0.0166234579F, 0.0105945356F, -0.0101921745F, 0.0575018674F,
    -0.00393371331F, 0.0874820203F, -0.0678750798F, 0.0280750562F, 0.0443982147F,
    -0.0975716263F, 0.00115258491F, -0.00693427678F, -0.021425616F,
    0.00668275543F, -0.0191655196F, -0.0232420899F, -0.0366234072F,
    0.0721087083F, -0.0346708223F, -0.0238074232F, 0.0154783363F, -0.0066051567F,
    0.0157809351F, 0.0221953653F, -0.0140068391F, -0.0667591542F, 0.039490737F,
    0.0476503596F, 0.0042999927F, 0.0319277495F, -0.0491115861F,
    -0.000121457713F, -0.0435706191F, -0.00275799842F, 0.0202060658F,
    0.00497277221F, 0.0404279493F, 0.071698375F, 0.100661799F, 0.00801811181F,
    -0.00499986345F, -0.0839361772F, -0.0266634673F, 0.0328976847F,
    0.00143697276F, 0.02783872F, 0.0514587648F, 0.0346638821F, -0.0702112541F,
    0.0154672796F, 0.0221831352F, -0.0640403926F, -0.00880966149F, 0.0836553127F,
    0.0394616947F, -0.0429568738F, -0.0610117503F, -0.133630037F, -0.0227090791F,
    -0.0414353609F, 0.0273851603F, -0.0238594636F, -0.0137807885F, 0.020997636F,
    0.0380887836F, -0.073484391F, -0.0835983F, -0.016031865F, -0.0241787788F,
    -0.0170848351F, -0.016420573F, 0.0628501F, 0.00571219716F, 0.00571553502F,
    0.0693151802F, -0.0455766283F, 0.00025022059F, -0.0248846691F, -0.0471677F,
    -0.0193930306F, 0.0441990905F, -0.040629968F, 0.0233515967F, -0.0377663746F,
    0.0234795045F, -0.0283486824F, 0.0353927165F, 0.0190990362F, 0.0334541686F,
    0.0165865216F, -0.000227284F, -0.000389277877F, -0.00696537364F,
    -0.0557446554F, 0.055925414F, -0.0399392098F, -0.0544884093F, -0.0256123655F,
    -0.0608072318F, 0.0825206637F, -0.0113571696F, -0.0384384692F, 0.0185285155F,
    -0.0720317215F, -0.0546000786F, 0.0326452889F, -0.0352298766F, -0.022282077F,
    0.0371782891F, 0.0965119824F, -0.00982353743F, -0.0477525145F,
    0.00655428134F, -0.00382261607F, -0.0261767916F, -0.00985022914F,
    0.0418911651F, 0.021616973F, 0.0458599851F, -0.0221605692F, 0.073028259F,
    -0.0652669F, -0.00236404873F, 0.00435431954F, -0.0768626258F, 0.0239940789F,
    0.013313558F, 0.0363281183F, -0.100556843F, 0.0728856176F, -0.0561719872F,
    -0.0078435922F, 0.0299110506F, 0.0162606444F, 0.00401369855F, 0.0471516736F,
    -0.0709904358F, 0.011225637F, 0.0184526574F, -0.021607399F, -0.0548883379F,
    -0.0036410545F, -0.0192190651F, 0.0455474928F, -0.0182266384F,
    -0.0443280451F, -0.0600425713F, 0.027733203F, -0.013000085F, -0.0317116641F,
    0.0489264801F, -0.0425740741F, 0.042027574F, -0.0353793725F, -0.0373496898F,
    -0.0420615822F, 0.00338977179F, -0.0366619155F, -0.0296220556F,
    0.0216162428F, -0.026298441F, 0.00855014659F, -0.0659135804F, -0.0516462103F,
    0.0573139526F, 0.0319474936F, -0.0404814295F, 0.028754808F, -0.0131962327F,
    0.0734169409F, 0.0607885681F, -0.00823977F, -0.0495975614F, 0.0560649335F,
    -0.0396369286F, 0.0467595197F, -0.0318461545F, -0.0743987039F, -0.0646426F,
    0.0508594178F, -0.0134531986F, -0.0266640261F, -0.039428167F, -0.0272462182F,
    -0.0112065496F, 0.00400084F, 0.0689638332F, -0.0285143498F, -0.0316210799F,
    -0.0771133825F, 0.0829802F, -0.000973127258F, -0.0627039522F, -0.0871079713F,
    -0.0396263041F, 0.0972893834F, -0.044202581F, 0.0499953665F, -0.0433822125F,
    0.0362326875F, -0.0928117558F, 0.0519521348F, 0.0759504214F, 0.00301945163F,
    -0.0669220388F, 0.0278379284F, -0.104825199F, 0.0993243158F, 0.0121392133F,
    -0.141510218F, 0.0257903673F, 0.0907201171F, -0.0249313079F, 0.0213437434F,
    -0.056885194F, 0.0300788563F, -0.0762901604F, 0.0257652719F, 0.00160682714F,
    0.0158050638F, 0.057385657F, 0.0315302238F, 0.029312104F, 0.000522783957F,
    0.0462433212F, 0.0313721448F, -0.0325775854F, 0.0206440501F, -0.0462058038F,
    0.0299887285F, 0.0398084223F, 0.0275389757F, 0.0280472115F, 0.0183534F,
    0.0382331163F, -0.019663645F, 0.0159939602F, 0.024018012F, -0.0153204584F,
    0.0671872869F, 0.0760997757F, -0.018004315F, 0.0165496264F, -0.0598507747F,
    -0.0360823274F, 0.0449208207F, 0.10862767F, 0.0156334769F, -0.0946397856F,
    0.0670376F, 0.0636441335F, 0.0118723493F, -0.0284017157F, 0.0070316554F,
    0.0584731251F, 0.122779571F, 0.0271292254F, -0.0632112771F, -0.00106999394F,
    0.0322859623F, 0.0138461627F, 0.0636854F, -0.00922974572F, 0.0348768607F,
    0.0436811149F, -0.00579845347F, 0.0746390522F, 0.068959F, -0.0116275689F,
    -0.0432711318F, -0.0492830165F, -0.0222101379F, 0.0460446738F, 0.0163532589F,
    -0.0628479794F, -0.0245674737F, 0.0159823466F, 0.0408990793F, 0.0240505058F,
    -0.101041324F, 0.0244877152F, 0.108000562F, 0.0474669337F, 0.0366330184F,
    0.0321668647F, -0.0859398544F, -0.00223984476F, -0.0418084562F,
    0.0185568333F, -0.131484717F, -0.00318522099F, -0.11401014F, -0.0450907163F,
    0.0397321954F, 0.0468364879F, -0.0221344F, 0.0228271522F, 0.048721F,
    0.0427479595F, -0.0459569283F, -0.00306149712F, -0.0122301476F,
    0.0279027838F, 0.00630908366F, -0.0551653616F, 0.0957696289F, -0.0740017369F,
    0.0362163968F, 0.0367830768F, 0.0596444905F, 0.0865110382F, -0.0403239913F,
    0.0682499334F, -0.0676805153F, 0.0449300669F, -0.0401347689F, -0.0213053878F,
    0.0273697563F, -0.0409215502F, 0.102546155F, 0.022402348F, 0.043716114F,
    -0.0404556207F, -0.0622545071F, 0.0853813961F, 0.0167877078F, -0.0340952575F,
    0.0628635213F, -0.0932440609F, 0.0059182262F, -0.0436196811F, -0.132436052F,
    0.0179630965F, 0.0648094714F, 0.0971496925F, 0.0878098458F, 0.0210690908F,
    -0.0603498332F, 0.00284723844F, -0.0744406506F, 0.00653850241F,
    -0.0313965641F, -0.127717942F, 0.0514293537F, 0.0227052867F, 0.0134990169F,
    -0.0649666637F, -0.00762903132F, 0.019472478F, 0.0214248337F, 0.0800154358F,
